elements: [H, N]
E0: [0, 0]
deltaSplineBins: 0.001
embeddings:
  0: {ndensity: 2, FS_parameters: [1, 1, 1, 0.5], npoti: FinnisSinclairShiftedScaled, rho_core_cutoff: 100000, drho_core_cutoff: 250}
  1: {ndensity: 2, FS_parameters: [1, 1, 1, 0.5], npoti: FinnisSinclairShiftedScaled, rho_core_cutoff: 100000, drho_core_cutoff: 250}
bonds:
  [0, 0]: {nradmax: 6, lmax: 3, nradbasemax: 15, radbasename: SBessel, radparameters: [5.25], radcoefficients: [[[1.0851163107897894, -0.21427356524916916, 0.18701066061939409, 0.018896585281662368, 0.038722487931616055, 0.029657746920380312, 0.014720729639113967, 0.0080320091706414763, 0.016188327459670027, 0.0030102860241442153, 0.010396164881745379, -0.0030327664784842012, 0.0099798776983263792, -0.0027878642323686284, 0.0062651817453758338], [0.60483635536563451, -0.11060285103096998, -0.06415446449074369, 0.1117857247656021, -0.07840657844692682, 0.060409411016865366, -0.039693617357262616, 0.033502411619894243, -0.025882164942858648, 0.023241966722641068, -0.016666769574315194, 0.012151683122498621, -0.0053605629549885242, 0.002449955085549477, -0.00012859432021020532], [0.508902402046431, -0.071084894249189484, 0.0087990993271610096, 0.041746622116595307, 0.062191872754292742, -0.039687738876689596, 0.060693767839997866, -0.044653013614994033, 0.040590314931646589, -0.022648504924296903, 0.015570641607901101, -0.0068461807398633931, 0.0040416730787127464, 0.00069113924196734504, 0.0013727154112769206], [0.53762250539798506, -0.098198759651636394, -0.13372715669102264, 0.21726667964793295, -0.10620031758330625, 0.083403156179374077, 0.0033258995073698573, -0.00082836625259009302, 0.018566377042110258, 0.0081156574040173179, -0.0019305287588640952, 0.0091342950915799456, 0.0048079065285224834, -0.0062350988031552781, 0.010768333008709887]], [[-0.36330139294796671, 1.0755099353659969, -0.27867866853334017, 0.16182141391971994, 0.079716968788425338, -0.011353081015909856, 0.065968555771097601, -0.013603816472436768, 0.043785752975508636, -0.0078501117232910225, 0.029330976866057585, -0.015525471109863123, 0.022141429205272348, -0.0066125682116353821, 0.0096712469432387264], [-0.13636163674588125, 0.67388258352028607, -0.40985866134090398, 0.0098734882306363986, 0.058661198735045973, -0.053409506015273091, 0.052287244160003542, -0.029727263964840444, 0.02418607006268968, -0.019752743312950641, 0.024924603725684034, -0.017002208718120894, 0.016292551259613711, -0.0102550934446395, 0.0075999067493351573], [-0.0021872616381102545, 0.50862793368623493, -0.30412869013564958, -0.044261480255667611, 0.095155127179507706, -0.10261065983083026, 0.069968534334119675, -0.022424748346600951, -0.0071585319003713609, 0.012636950945927755, 0.0024084683496463956, -0.01360017932089547, 0.012739127927117379, -0.0065804797205150593, 0.0017078118862280218], [-0.045980391186633253, 0.89420606652397994, -0.013087424077455351, 0.1640395842475951, 0.074655473759050128, 0.043901698197271639, 0.027152646321331408, 0.11028730575416, -0.0480724048433138, 0.035114433974853698, 0.04523391650988802, -0.043548635533400028, 0.020260586768814207, 0.030116233905739191, -0.007494209851870986]], [[-0.34551975479864122, 0.35698442991134671, 0.32308550674879694, -0.20103836177881754, 0.19649965997992738, -0.089571859520669789, 0.085619305686832792, -0.033020324418784261, 0.043868673941599316, -0.019230275378864736, 0.035642754220092686, -0.026257559782488553, 0.027950657208464152, -0.012703353365758631, 0.0091441161035435217], [-0.53446312971947429, -0.12316788707682484, 0.58238008647327821, -0.54898780774675626, 0.38043084451659687, -0.29690939990855292, 0.22297756485930151, -0.18556823709628223, 0.15446418483046265, -0.12540469870008947, 0.091778603521216057, -0.058512463786650738, 0.029377741750541669, -0.011178392684410265, 0.0026980244344706637], [-0.19469948924229627, -0.0038025876042225445, 0.53506680491943703, -0.38786320686410836, 0.34173447637762766, -0.2878541303333918, 0.22141654267561775, -0.12158521250434245, 0.05657402680860997, -0.0051577022087648467, -0.013497926113111711, 0.021640442847941033, -0.01632082154811176, 0.0099284141522639983, -0.0063281563491886551], [-0.14525543677304872, -0.04495535488952012, 0.72599540433474175, 0.3037817680495003, 0.41741071513178385, 0.11777632077126481, 0.12932538381394451, 0.078181348851002239, 0.12148546551886061, -0.063513356537846802, 0.12333433355124224, -0.016056033935008311, 0.025506199062658066, 0.041747550686616709, 0.0036848612654639366]], [[0.30068720542270527, -0.1866640725649984, 0.032179584706909965, 0.535855313983437, -0.31441563969074143, 0.11712453629192059, 0.070266681094985281, -0.05530185037503911, 0.059191208846021581, -0.0051912336716251357, -0.0029887043220617623, 0.017154443368226462, 0.0055408820685120984, -0.0029682236829961621, 0.0092362435100501825], [-0.023267241115468056, -0.094374847571849482, -0.0098826614073261633, 0.51274869773366116, -0.23276360858321826, 0.11624582369348649, -0.027033896230024484, 0.015263033473744254, -0.03232861016337131, 0.061524007286497692, -0.079079598772330534, 0.064575543459881021, -0.051279744479730181, 0.036953827872746772, -0.020295950510020082], [0.26986087076679938, -0.048584945929107101, 0.060001834589435012, 0.87531880805489592, -0.28290570569468609, 0.29181925726181612, -0.095905961994862607, 0.067126023946266766, -0.0092341375273568074, 0.025386813784764206, -0.027720177291293079, 0.039572535134036843, -0.018343395417226616, 0.014324383786368204, 0.0015490209871139356], [-0.083471052793665748, -0.0036585759273812862, 0.0089579613594608348, 0.93910654045816655, 0.21904815201809399, 0.21329925783849529, 0.17892197097832382, 0.082888717806480453, 0.020732472275259258, 0.11545008989986459, -0.069708341631473297, 0.14618868413263872, -0.055753216599352541, 0.079746777358722862, 0.0023223844073536558]], [[0.005930816103947671, 0.11627977992723861, -0.27313945575077792, -0.0085427815961313224, 0.83801680499436448, -0.0080510097636063392, 0.11076170220432217, -0.20646524068197489, 0.30863758251581314, -0.13538238492251023, -0.062948658041916725, 0.21964010716351859, -0.2428299430237805, 0.1791693660650461, -0.031078186542131899], [-0.020663490292711157, 0.04384532389570224, -0.083753511641753861, 0.12047251740787843, 0.90182739500439357, -0.030488465455038877, 0.36941816100608321, -0.065391333187661396, 0.057887238640228579, 0.022619133630982211, 0.0016439222781100377, 0.01292580511031791, 0.039756024125414506, 0.023596050627430049, 0.0028970081405911802], [-0.052806068611576711, 0.017572609758749989, -0.078280978791345823, 0.047415130180935947, 0.96654076720530169, -0.29989199801109612, 0.0053752203755346676, 0.0087734183126518452, 0.0043150050086290161, -0.0052227230922784577, -0.075875096878303142, 0.075877094825889127, -0.05783831720576095, 0.029616571131324737, 0.019532138800011058], [0.038983491925506146, 0.017327535054124658, 0.031772365031085756, -0.012251082051260295, 0.89973011553809756, 0.032950914649965968, 0.032760920309955935, 0.055360208257495866, 0.17145647819611143, -0.14355439338801948, -0.024292309924706448, 0.25350900138317417, -0.078300158916377649, -0.068503801389241073, 0.074762265285733154]], [[0.027360793875098138, -0.073658738161316878, 0.32121045754353944, 0.015926998829150874, 0.12165388245350914, 0.69821101532483409, -0.49867850157651761, 0.24997594228848879, 0.02323969689056244, 0.00031430390238117991, -0.07620166727644255, 0.17682107461805271, -0.18679926063363056, 0.14224672389796617, -0.026137895888425088], [-0.054186731395361801, -0.14208634995304412, -0.014735045654955236, -0.091791047662766342, 0.061482026429239459, 0.91052990710761184, -0.25102261710085932, 0.21009048239443354, 0.023728594484384934, -0.042466281071369828, 0.084709367436827332, -0.030858718136554004, 0.068967795487260772, -0.0010270102384967404, 0.026113690955606433], [0.0042236987603069846, -0.018808033064340628, 0.020611080953851085, -0.00059818597462334036, 0.0037642071802542146, 0.96039901532691652, -0.055096485600089819, 0.042286972530512251, 0.019410315296870314, 0.012832433908132008, -0.0090532186758174281, 0.027818208366858718, -0.014239146645335075, 0.056338269500657116, -0.03751627896462633], [-0.0084535443490022059, 0.0042350975098455037, -0.0010722676560608985, -0.02087570012281131, 0.023739784047870464, 0.97638014484962887, -0.053487396792117677, 0.010148860624968031, 0.029529360705096919, 0.0051163504543060732, -0.051245101968650134, 0.0087485690818692122, 0.033243146289514754, 0.070885365431036212, 0.091996953222939812]]], prehc: 0, lambdahc: 0, rcut: 3, dcut: 0.01, rcut_in: 0, dcut_in: 0, inner_cutoff_type: distance}
  [0, 1]: {nradmax: 6, lmax: 3, nradbasemax: 12, radbasename: SBessel, radparameters: [5.25], radcoefficients: [[[1.5405460968205267, -0.046132384134422749, -0.37607169385895278, 0.33749452314799488, -0.19777854049025506, 0.13243610403400272, -0.091904590906087352, 0.066200061950038525, -0.029973856107120382, 0.010076887123188306, 0.00098357011696925613, 0.001142830917774633], [0.98845369190099575, 0.0087962462893494877, -0.23706978625901143, 0.022297807010966276, 0.053102592161846034, -0.032838960418317728, -0.0022445925112296026, 0.008788267064319023, -0.00096942093422578649, -0.0028565287529876493, 0.001477973220725922, 0.0016617716954115925], [1.1041099668312973, -0.15606239674936498, -0.11282702747098147, 0.044539403265194434, 0.059543798809945897, -0.053568752762352942, 0.027413474167468959, 0.0063581257160906209, 0.00071392243379764155, -0.0019672261495329297, 0.0044538277788585658, 0.0024589678322564082], [0.7419371722113367, 0.068619359964208246, -0.27907428907307097, -0.083996759769972312, 0.23576544514400885, -0.12742333367756334, 0.098550923259944287, -0.037669569777310799, 0.07506876824702173, -0.041289721460878621, 0.035089658686417821, 0.0028971635480378359]], [[0.67538314098084851, 0.78731875294028864, -0.22072289295522732, -0.060798308677574985, 0.024552871163674203, 0.045661592910100392, -0.029875350969350838, -0.00077198432527508646, 0.024373132617957111, -0.012861338169964114, 0.0047572953008488822, 0.0035658023600089704], [0.065099913469793505, 0.99222511255205204, -0.16042623278601284, -0.090788158206678363, -0.10662382043809111, 0.14497133802649947, -0.13889801438317556, 0.070375191454524477, -0.042976363524905394, 0.026421863172739989, -0.019869390123816978, 0.0053889090018265423], [0.067037286785722003, 0.81293053458983699, -0.37492156798865039, -0.12675230001230517, -0.011232027377536199, 0.037333127811565947, -0.065217993567378674, 0.011192196840799883, 0.02347378016434281, -0.027047577418347339, 0.0012582929555302953, 0.0025838677529342216], [0.11715692527750018, 0.91124006133646063, 0.015581740594686772, -0.0048919533307726108, -0.12864183562491491, 0.12835925256312256, -0.019140467716513766, -0.012612520151548038, 0.062811730098189342, -0.026536575328299759, 0.025688555272838736, 0.0055531386089138352]], [[-1.3991787219969483, 0.26545567720034036, 0.71699107070557444, -0.52012769601120068, 0.25280083386631697, -0.15034750072860537, 0.12679595954474884, -0.10051096822431187, 0.052860661947560207, -0.014941052659776638, 0.00010528600370354861, 0.00079905902280380872], [-0.344079188407309, -0.44800842770980714, 0.97187616285778744, -0.23742858895893029, 0.0085746009058039578, 0.010572759612603665, 0.021303482341457423, 0.00091943705485119298, -0.039586271100052063, 0.049956675936684458, -0.028438171771696136, 0.0089941401096973583], [0.042808920932872599, 0.14585285015070842, 0.9115974290212302, -0.21854481122280528, -0.0069430078586077909, -0.021522926927668079, 0.089372927401812005, -0.10057837498453806, 0.037751771308940293, 0.0089931886693890069, -0.010681977401301558, 0.00049586439205020778], [-0.012172533180604005, -0.0085421585033535127, 0.98528091446872479, 0.10632038279396029, 0.020543138837010168, -0.15528759435076267, 0.030096260486215148, -0.038988468798138554, -0.1363864246117277, 0.063691005140827567, -0.073754710167892257, -0.015116313137841716]], [[-0.02661756432142804, -0.016398466323124639, 0.33282241291536008, 0.67835326345488212, -0.37866349849928138, 0.17568358360112404, -0.017688342005558105, 0.037684821492243212, -0.030532253851724388, 0.045250213043529275, -0.011461442104543798, 0.013887256419408644], [0.29238819173628389, -0.39685605854266987, -0.19275136701944537, 1.0641772362555504, -0.52557966618272589, 0.1465777332044132, 0.030294452851295159, 0.027983051904643695, -0.040130868719830952, 0.024594949395270065, 0.012222535059917524, -0.0090198528191731218], [0.013975114184851017, -0.098576049555888709, -0.1207643660179987, 0.92378712361489945, -0.27336627814000342, -0.095488487892656737, 0.10992808620272063, -0.038618069036555271, -0.065263886646467692, 0.029410327799852226, 0.010635475707410922, -0.028841549834037618], [-0.025071889717978423, 0.018687812273047444, -0.0063864522257637141, 0.99446757776147376, 0.15893353494681467, 0.061876744038695003, -0.056676577927479946, 0.15820065192105048, -0.011662101335545131, -0.15418961257111705, 0.1882346736802871, -0.09552252817831948]], [[0.063467498449108428, -0.027739579873344564, -0.11049287057221957, 0.16015583532177127, 0.75039173320854424, -0.38243894510252124, 0.27893345762976057, -0.034083470318889843, 0.047943865634221761, 0.064397029631468761, -0.030573789194543788, 0.057247083763331451], [-0.13996085384361773, 0.038657850826469629, -0.21058266092452441, -0.20896829646166354, 0.90663831534764716, -0.27845321460364841, 0.07544746718772477, 0.031564687050970416, 0.039891492786047915, 0.0022779254318066296, 0.0045862146861596386, 0.0376889444009329], [-0.062099947342067204, 0.03424068919034317, -0.00010452185034622969, -0.059886298552169571, 1.0641882472079629, 0.017563343477413163, 0.074503311125945243, 0.22284799460050234, 0.015868249589453737, 0.054473310552103173, 0.078760417459174767, 0.054405502229403539], [0, 0, 0, 0, 1, 0, 0, 0, 0, 0, 0, 0]], [[0.074019616543519282, 0.12431819410849054, 0.1569413034239785, -0.071066910550245804, -0.17368753781829024, 0.89674956690452723, -0.13639832645842948, 0.025473653582845097, 0.090152409340193515, 0.2391536999572911, -0.18494751935258597, 0.17127281691671059], [-0.058974788694303136, -0.042275365200481523, 0.036099683436819449, -0.026475159696874456, -0.028256927316565913, 0.88096978842038587, -0.23804069085608914, 0.059348611206131434, 0.2235094874452179, -0.033282762028054108, -0.0027574504374217432, 0.10381686888091711], [0, 0, 0, 0, 0, 1, 0, 0, 0, 0, 0, 0], [0, 0, 0, 0, 0, 1, 0, 0, 0, 0, 0, 0]]], prehc: 0, lambdahc: 0, rcut: 3, dcut: 0.01, rcut_in: 0, dcut_in: 0, inner_cutoff_type: distance}
  [1, 0]: {nradmax: 6, lmax: 3, nradbasemax: 12, radbasename: SBessel, radparameters: [5.25], radcoefficients: [[[1.5405460968205267, -0.046132384134422749, -0.37607169385895278, 0.33749452314799488, -0.19777854049025506, 0.13243610403400272, -0.091904590906087352, 0.066200061950038525, -0.029973856107120382, 0.010076887123188306, 0.00098357011696925613, 0.001142830917774633], [0.98845369190099575, 0.0087962462893494877, -0.23706978625901143, 0.022297807010966276, 0.053102592161846034, -0.032838960418317728, -0.0022445925112296026, 0.008788267064319023, -0.00096942093422578649, -0.0028565287529876493, 0.001477973220725922, 0.0016617716954115925], [1.1041099668312973, -0.15606239674936498, -0.11282702747098147, 0.044539403265194434, 0.059543798809945897, -0.053568752762352942, 0.027413474167468959, 0.0063581257160906209, 0.00071392243379764155, -0.0019672261495329297, 0.0044538277788585658, 0.0024589678322564082], [0.7419371722113367, 0.068619359964208246, -0.27907428907307097, -0.083996759769972312, 0.23576544514400885, -0.12742333367756334, 0.098550923259944287, -0.037669569777310799, 0.07506876824702173, -0.041289721460878621, 0.035089658686417821, 0.0028971635480378359]], [[0.67538314098084851, 0.78731875294028864, -0.22072289295522732, -0.060798308677574985, 0.024552871163674203, 0.045661592910100392, -0.029875350969350838, -0.00077198432527508646, 0.024373132617957111, -0.012861338169964114, 0.0047572953008488822, 0.0035658023600089704], [0.065099913469793505, 0.99222511255205204, -0.16042623278601284, -0.090788158206678363, -0.10662382043809111, 0.14497133802649947, -0.13889801438317556, 0.070375191454524477, -0.042976363524905394, 0.026421863172739989, -0.019869390123816978, 0.0053889090018265423], [0.067037286785722003, 0.81293053458983699, -0.37492156798865039, -0.12675230001230517, -0.011232027377536199, 0.037333127811565947, -0.065217993567378674, 0.011192196840799883, 0.02347378016434281, -0.027047577418347339, 0.0012582929555302953, 0.0025838677529342216], [0.11715692527750018, 0.91124006133646063, 0.015581740594686772, -0.0048919533307726108, -0.12864183562491491, 0.12835925256312256, -0.019140467716513766, -0.012612520151548038, 0.062811730098189342, -0.026536575328299759, 0.025688555272838736, 0.0055531386089138352]], [[-1.3991787219969483, 0.26545567720034036, 0.71699107070557444, -0.52012769601120068, 0.25280083386631697, -0.15034750072860537, 0.12679595954474884, -0.10051096822431187, 0.052860661947560207, -0.014941052659776638, 0.00010528600370354861, 0.00079905902280380872], [-0.344079188407309, -0.44800842770980714, 0.97187616285778744, -0.23742858895893029, 0.0085746009058039578, 0.010572759612603665, 0.021303482341457423, 0.00091943705485119298, -0.039586271100052063, 0.049956675936684458, -0.028438171771696136, 0.0089941401096973583], [0.042808920932872599, 0.14585285015070842, 0.9115974290212302, -0.21854481122280528, -0.0069430078586077909, -0.021522926927668079, 0.089372927401812005, -0.10057837498453806, 0.037751771308940293, 0.0089931886693890069, -0.010681977401301558, 0.00049586439205020778], [-0.012172533180604005, -0.0085421585033535127, 0.98528091446872479, 0.10632038279396029, 0.020543138837010168, -0.15528759435076267, 0.030096260486215148, -0.038988468798138554, -0.1363864246117277, 0.063691005140827567, -0.073754710167892257, -0.015116313137841716]], [[-0.02661756432142804, -0.016398466323124639, 0.33282241291536008, 0.67835326345488212, -0.37866349849928138, 0.17568358360112404, -0.017688342005558105, 0.037684821492243212, -0.030532253851724388, 0.045250213043529275, -0.011461442104543798, 0.013887256419408644], [0.29238819173628389, -0.39685605854266987, -0.19275136701944537, 1.0641772362555504, -0.52557966618272589, 0.1465777332044132, 0.030294452851295159, 0.027983051904643695, -0.040130868719830952, 0.024594949395270065, 0.012222535059917524, -0.0090198528191731218], [0.013975114184851017, -0.098576049555888709, -0.1207643660179987, 0.92378712361489945, -0.27336627814000342, -0.095488487892656737, 0.10992808620272063, -0.038618069036555271, -0.065263886646467692, 0.029410327799852226, 0.010635475707410922, -0.028841549834037618], [-0.025071889717978423, 0.018687812273047444, -0.0063864522257637141, 0.99446757776147376, 0.15893353494681467, 0.061876744038695003, -0.056676577927479946, 0.15820065192105048, -0.011662101335545131, -0.15418961257111705, 0.1882346736802871, -0.09552252817831948]], [[0.063467498449108428, -0.027739579873344564, -0.11049287057221957, 0.16015583532177127, 0.75039173320854424, -0.38243894510252124, 0.27893345762976057, -0.034083470318889843, 0.047943865634221761, 0.064397029631468761, -0.030573789194543788, 0.057247083763331451], [-0.13996085384361773, 0.038657850826469629, -0.21058266092452441, -0.20896829646166354, 0.90663831534764716, -0.27845321460364841, 0.07544746718772477, 0.031564687050970416, 0.039891492786047915, 0.0022779254318066296, 0.0045862146861596386, 0.0376889444009329], [-0.062099947342067204, 0.03424068919034317, -0.00010452185034622969, -0.059886298552169571, 1.0641882472079629, 0.017563343477413163, 0.074503311125945243, 0.22284799460050234, 0.015868249589453737, 0.054473310552103173, 0.078760417459174767, 0.054405502229403539], [0, 0, 0, 0, 1, 0, 0, 0, 0, 0, 0, 0]], [[0.074019616543519282, 0.12431819410849054, 0.1569413034239785, -0.071066910550245804, -0.17368753781829024, 0.89674956690452723, -0.13639832645842948, 0.025473653582845097, 0.090152409340193515, 0.2391536999572911, -0.18494751935258597, 0.17127281691671059], [-0.058974788694303136, -0.042275365200481523, 0.036099683436819449, -0.026475159696874456, -0.028256927316565913, 0.88096978842038587, -0.23804069085608914, 0.059348611206131434, 0.2235094874452179, -0.033282762028054108, -0.0027574504374217432, 0.10381686888091711], [0, 0, 0, 0, 0, 1, 0, 0, 0, 0, 0, 0], [0, 0, 0, 0, 0, 1, 0, 0, 0, 0, 0, 0]]], prehc: 0, lambdahc: 0, rcut: 3, dcut: 0.01, rcut_in: 0, dcut_in: 0, inner_cutoff_type: distance}
  [1, 1]: {nradmax: 6, lmax: 3, nradbasemax: 15, radbasename: SBessel, radparameters: [5.25], radcoefficients: [[[1.1901787849447576, -0.50405206646391054, 0.095712732715356283, 0.26514682707786064, -0.18209041808726878, 0.19492775100040466, -0.085062145466326122, 0.050352972923013384, 0.024123395667627005, -0.029780421728654853, 0.054668028528821626, -0.039313131859650678, 0.034102561759214271, -0.017356782571772738, 0.011473287094503808], [1.0187178216472494, -0.67165684028148909, 0.14344740502694095, 0.054852645608521225, -0.18489324847243443, 0.24656879465837742, -0.2055799226049248, 0.11093417188868077, -0.058560011264894504, 0.040917943124563275, -0.038158371342136232, 0.037883882029921004, -0.033074069768625106, 0.019232539071519901, -0.0075770556257839707], [0.76966728528421058, -0.42962885851133453, -0.0063069260113307948, 0.27214020224012336, -0.27292597863972679, 0.15035736972506847, -0.03829656864475519, -0.0033865665241087804, -0.019963298501269121, 0.049400095050140445, -0.069020079777444857, 0.060438774500053832, -0.036243555127209587, 0.015983633698308155, -0.0043313666015391307], [0.7988729816592065, -0.39553232193253857, -0.27065378158914455, 0.26842218537612861, 0.034987154535415982, -0.14992292129609056, 0.071287158092662006, 0.066453329136840558, -0.050381675721535998, 0.033660840574488142, -0.0063992174033644439, -0.033156439541660004, 0.039434020232914917, -0.024085583251346028, 0.012776199190593657]], [[0.18812145577932149, 0.67321193362285292, -0.39996182777493283, 0.30570329751147363, -0.01205673441593857, 0.069222340838148239, 0.10468090509548067, -0.17077713450699558, 0.25937308990434532, -0.191986463485498, 0.15596342540801142, -0.074309319319350087, 0.04550824494265638, -0.018670654515597421, 0.015868001140246557], [-0.80997608983234637, 0.75987825086219773, -0.38500336357530601, 0.017449032542967764, 0.16127416623808838, -0.13119837632993464, 0.056230697617347267, -0.015198401429728017, 0.0027190926706599445, 0.023666585061961967, -0.035096058579204635, 0.038991523119316814, -0.027041747476202305, 0.016141922019499516, -0.0041930970571695423], [-0.78773398063958611, 0.65181616133984821, 0.089575340467828571, -0.42360505207765803, 0.11758809837657018, 0.079799662762755075, -0.081586749279583551, 0.010330011209927917, 0.029228091978509931, -0.031899152849645319, -0.025394293767063991, 0.062982590016586903, -0.062176739560034534, 0.040048529289416455, -0.015293441837676929], [-0.11463376576049748, 0.52336685140015415, -0.19433935131378974, -0.31393783160851119, 0.19136748565077866, 0.1975310307568536, -0.40823510049792822, 0.17347623819542163, 0.033559631634332225, -0.087869859679151924, 0.060936265494174122, 0.024937364846858788, -0.052993113781087495, 0.042819674136597347, -0.016838534008382984]], [[0.63556157372786626, -0.12519931293674041, 0.46169208862193933, -0.16092598592904156, -0.049589900374890708, 0.20563009566956317, -0.025710921702495441, -0.019811324013825442, 0.021021350050062827, 0.071288279880174249, -0.084693610548383036, 0.10639017837916742, -0.060268877837336914, 0.025543902259392667, 0.0018499507158975773], [-0.39307270790716714, -0.21245941117220862, 0.70063319032991611, -0.53375189132005074, 0.14545326465608469, -0.025903512097003163, 0.0305057485636945, 0.083137926379218505, -0.25239722323036062, 0.2651896157772024, -0.20579066937972476, 0.1146275556601941, -0.0440605211455792, 0.0046926628625517533, 0.001938733123983579], [-0.049445094293830906, -0.36448675748042686, 0.66113545070438728, -0.23773519660366205, -0.19464487836334932, 0.14992654708217895, 0.080439039702408788, -0.14117166773296461, 0.091102641582646443, -0.027253187497877637, -0.044372770438420729, 0.068037518978521783, -0.043791800597395646, 0.025866070276823368, -0.0044239438871418284], [0.024194176185698819, 0.024712614568339356, 0.73837490514194193, -0.33270251697950487, -0.13507314907817031, 0.2035067070112711, 0.17166236788099126, -0.4153870627895152, -0.048237773514514304, 0.18243267466348509, -0.17623428839145633, 0.23803261409654555, -0.12322779028358197, 0.047432285323028837, -0.0063103435537896499]], [[0.69535358241368561, 0.12982313979401405, -0.52356554592292348, 0.82632906135456619, -0.052196825946903697, -0.18983669686139229, 0.10705745274653382, 0.19101529546142265, -0.16338652453184513, 0.073901058043652504, 0.082418981303220631, -0.11954405622442588, 0.10347382916654391, -0.048186702599909419, 0.020930858804609001], [0.11914354973426902, -0.1944334671080663, -0.2460350161979819, 0.87534917022436565, -0.43555812278170269, -0.052629447875694305, 0.16102931157087066, -0.035451625081139401, 0.044636368421888339, -0.061307867389515588, 0.10605342619555055, -0.11388687067441247, 0.10617210854420558, -0.055453673052234274, 0.023414640480536601], [0.22628289744881264, -0.12747096509638461, -0.38117030458322743, 0.76168009868963393, -0.4465466185663623, -0.020702793021160657, 0.23234772520927996, -0.137119942932419, 0.064015079143365503, -0.051989212652522696, 0.099129099995876421, -0.13021606302206407, 0.12133898269041757, -0.071511604286784949, 0.027399205298575882], [0.027091152104033438, 0.16931856079211682, -0.31534932094347284, 0.70512534536940763, -0.36070769222014226, -0.075585087874859042, 0.34304036746060618, -0.17474091011332007, -0.13249786880838912, 0.084178707837176139, 0.045965365662551341, -0.093004710395109741, 0.14778286639424959, -0.092085122747849704, 0.037322444754343459]], [[0.037074764276755351, -0.070158259755641508, -0.20856719372346802, -0.24165198708520072, 0.78351721444522071, -0.094311781844053852, -0.34479262074128952, -0.022177648048998213, 0.35725787604044951, -0.29333619846996245, 0.087994161314403074, 0.10064558761696948, -0.21696648742673022, 0.17567722333679223, -0.069229287296404776], [-0.12237482393627407, -0.088284338975029131, -0.28134890854684702, -0.24410622474774277, 0.913424993278797, -0.24991686248556502, -0.038780306480626144, 0.015762905238003229, 0.058577557901163396, 0.15634970488299144, -0.010954128034400086, -0.026943018225491586, 0.075930720557201445, -0.017686014819017059, 0.024347362699278799], [-0.059513184694420102, -0.010021254767432552, -0.11729329371204725, -0.1525136283338441, 0.91228546055888338, -0.18106493232463874, -0.13686169674894164, -0.15072412224105064, 0.088992809109698909, 0.08418010793393535, -0.12579762544157866, 0.1644074956510925, -0.1131870262365389, 0.058599384901499053, 0.00030276308661697661], [-0.15434649558698219, -0.056613025329179341, -0.034754144106186734, -0.10123524084396411, 0.9619323313366136, -0.10573314919426396, 0.19065295142591829, 0.18674349609068153, -0.059490840813522856, 0.18528467630408513, 0.065346880410898478, 0.048569049929374941, 0.099858512201923114, -0.036381606735132493, 0.10655799533037101]], [[0.20834829020449513, 0.10755482433722992, -0.16150130110338271, -0.30815236360453724, -0.25178088310691338, 0.80255823815782701, -0.43157365446539836, -0.24945498433637162, 0.2474169382586654, 0.021099062047444425, -0.20332810484572186, 0.21674430487287946, -0.1315496679088704, 0.04360937288588726, 0.0022201704025390711], [0.0031367575661831533, -0.16558754672632922, -0.10820082855652435, -0.039016885787203449, -0.12376713306887453, 0.81913506247765921, -0.28954327784599893, -0.19526139735609083, 0.010404725746252848, 0.31701845679709989, -0.037701325260599161, -0.1769998024150457, 0.25985472766723883, -0.15853923335400977, 0.080408701158990278], [-0.0027554786551189881, -0.0093771216051806109, 0.052226945129308852, -0.0096965983076975383, -0.071958991354223956, 0.84192660242925144, -0.45272722172035318, -0.23834149799857524, 0.092214847749400822, 0.091863643598555006, -0.034360075182336199, -0.10575667147160235, 0.16914135611348852, -0.12899306276611464, 0.09243742424866612], [0.089737513464913557, 0.028498637813364022, 0.014397430244101655, 0.089917929700784049, 4.6181128626005067e-06, 0.96212042640606255, -0.25596880019581852, -0.1538324340365286, 0.23530291758445385, 0.056594679732664695, 0.032814749296267993, 0.12593460041257559, -0.046645057619786878, 0.026870923074321824, 0.063950446519963594]]], prehc: 0, lambdahc: 0, rcut: 5, dcut: 0.01, rcut_in: 0, dcut_in: 0, inner_cutoff_type: distance}
functions:
  0:
    - {mu0: 0, rank: 1, ndensity: 2, num_ms_combs: 1, mus: [0], ns: [1], ls: [0], ms_combs: [0], ctildes: [-2.4451032353077942, -1.3541188845764087]}
    - {mu0: 0, rank: 1, ndensity: 2, num_ms_combs: 1, mus: [0], ns: [2], ls: [0], ms_combs: [0], ctildes: [0.0113295322995931, -0.4562780557663228]}
    - {mu0: 0, rank: 1, ndensity: 2, num_ms_combs: 1, mus: [0], ns: [3], ls: [0], ms_combs: [0], ctildes: [0.29132159425828086, 0.23649698361906474]}
    - {mu0: 0, rank: 1, ndensity: 2, num_ms_combs: 1, mus: [0], ns: [4], ls: [0], ms_combs: [0], ctildes: [-0.65343657436136893, -0.21927686109482941]}
    - {mu0: 0, rank: 1, ndensity: 2, num_ms_combs: 1, mus: [0], ns: [5], ls: [0], ms_combs: [0], ctildes: [0.20593293643973209, -0.045583666397304705]}
    - {mu0: 0, rank: 1, ndensity: 2, num_ms_combs: 1, mus: [0], ns: [6], ls: [0], ms_combs: [0], ctildes: [-0.14124196112831641, -0.0023494842619749341]}
    - {mu0: 0, rank: 1, ndensity: 2, num_ms_combs: 1, mus: [0], ns: [7], ls: [0], ms_combs: [0], ctildes: [-0.074510720378953552, -0.05698351102337941]}
    - {mu0: 0, rank: 1, ndensity: 2, num_ms_combs: 1, mus: [0], ns: [8], ls: [0], ms_combs: [0], ctildes: [0.02517662788611974, -0.0051768665497651202]}
    - {mu0: 0, rank: 1, ndensity: 2, num_ms_combs: 1, mus: [0], ns: [9], ls: [0], ms_combs: [0], ctildes: [-0.063462050986768936, 0.0038622889479810727]}
    - {mu0: 0, rank: 1, ndensity: 2, num_ms_combs: 1, mus: [0], ns: [10], ls: [0], ms_combs: [0], ctildes: [-0.0077373334746415378, -0.044166685897791456]}
    - {mu0: 0, rank: 1, ndensity: 2, num_ms_combs: 1, mus: [0], ns: [11], ls: [0], ms_combs: [0], ctildes: [-0.00898715277035563, -0.0048289610285527579]}
    - {mu0: 0, rank: 1, ndensity: 2, num_ms_combs: 1, mus: [0], ns: [12], ls: [0], ms_combs: [0], ctildes: [-0.012384551047700981, 0.021978669697240456]}
    - {mu0: 0, rank: 1, ndensity: 2, num_ms_combs: 1, mus: [0], ns: [13], ls: [0], ms_combs: [0], ctildes: [-0.014652174296626359, -0.034281634947818669]}
    - {mu0: 0, rank: 1, ndensity: 2, num_ms_combs: 1, mus: [0], ns: [14], ls: [0], ms_combs: [0], ctildes: [0.0041345820826855723, 0.016291008516638766]}
    - {mu0: 0, rank: 1, ndensity: 2, num_ms_combs: 1, mus: [0], ns: [15], ls: [0], ms_combs: [0], ctildes: [-0.015936091805835249, -0.013385756459598941]}
    - {mu0: 0, rank: 1, ndensity: 2, num_ms_combs: 1, mus: [1], ns: [1], ls: [0], ms_combs: [0], ctildes: [-1.6322480285101819, -1.2223563267297708]}
    - {mu0: 0, rank: 1, ndensity: 2, num_ms_combs: 1, mus: [1], ns: [2], ls: [0], ms_combs: [0], ctildes: [-1.2710311589277683, -1.2130376881497205]}
    - {mu0: 0, rank: 1, ndensity: 2, num_ms_combs: 1, mus: [1], ns: [3], ls: [0], ms_combs: [0], ctildes: [0.83793472163409255, 0.14584323233519186]}
    - {mu0: 0, rank: 1, ndensity: 2, num_ms_combs: 1, mus: [1], ns: [4], ls: [0], ms_combs: [0], ctildes: [0.0046516293394778911, 0.69317927622675346]}
    - {mu0: 0, rank: 1, ndensity: 2, num_ms_combs: 1, mus: [1], ns: [5], ls: [0], ms_combs: [0], ctildes: [-0.39899396539342125, 0.096068817816805888]}
    - {mu0: 0, rank: 1, ndensity: 2, num_ms_combs: 1, mus: [1], ns: [6], ls: [0], ms_combs: [0], ctildes: [0.3161420922466599, -0.45743584772279883]}
    - {mu0: 0, rank: 1, ndensity: 2, num_ms_combs: 1, mus: [1], ns: [7], ls: [0], ms_combs: [0], ctildes: [-0.26423875468003771, 0.10455688027716202]}
    - {mu0: 0, rank: 1, ndensity: 2, num_ms_combs: 1, mus: [1], ns: [8], ls: [0], ms_combs: [0], ctildes: [0.2131604426620628, 0.27951266593177782]}
    - {mu0: 0, rank: 1, ndensity: 2, num_ms_combs: 1, mus: [1], ns: [9], ls: [0], ms_combs: [0], ctildes: [-0.18312334786939297, -0.35129624452662789]}
    - {mu0: 0, rank: 1, ndensity: 2, num_ms_combs: 1, mus: [1], ns: [10], ls: [0], ms_combs: [0], ctildes: [0.087340297003155445, 0.23689735434877196]}
    - {mu0: 0, rank: 1, ndensity: 2, num_ms_combs: 1, mus: [1], ns: [11], ls: [0], ms_combs: [0], ctildes: [-0.028776682147836963, -0.093652799512718599]}
    - {mu0: 0, rank: 1, ndensity: 2, num_ms_combs: 1, mus: [1], ns: [12], ls: [0], ms_combs: [0], ctildes: [-0.0074835977895854723, 0.019075018322900584]}
    - {mu0: 0, rank: 2, ndensity: 2, num_ms_combs: 1, mus: [0, 0], ns: [1, 1], ls: [0, 0], ms_combs: [0, 0], ctildes: [0.43405923374279531, 0.92207532967708217]}
    - {mu0: 0, rank: 2, ndensity: 2, num_ms_combs: 2, mus: [0, 0], ns: [1, 1], ls: [1, 1], ms_combs: [0, 0, 1, -1], ctildes: [-0.3908401245455258, -0.23022706557999398, 0.78168024909105149, 0.4604541311599879]}
    - {mu0: 0, rank: 2, ndensity: 2, num_ms_combs: 3, mus: [0, 0], ns: [1, 1], ls: [2, 2], ms_combs: [0, 0, 1, -1, 2, -2], ctildes: [-0.15579389803563756, 0.14303825594869002, 0.31158779607127518, -0.28607651189738009, -0.31158779607127518, 0.28607651189738009]}
    - {mu0: 0, rank: 2, ndensity: 2, num_ms_combs: 4, mus: [0, 0], ns: [1, 1], ls: [3, 3], ms_combs: [0, 0, 1, -1, 2, -2, 3, -3], ctildes: [-0.029961311545216723, 0.076315024924392572, 0.059922623090433447, -0.15263004984878514, -0.059922623090433433, 0.15263004984878514, 0.059922623090433433, -0.15263004984878514]}
    - {mu0: 0, rank: 2, ndensity: 2, num_ms_combs: 1, mus: [0, 0], ns: [1, 2], ls: [0, 0], ms_combs: [0, 0], ctildes: [0.50700924760763078, 0.41135752712759466]}
    - {mu0: 0, rank: 2, ndensity: 2, num_ms_combs: 2, mus: [0, 0], ns: [1, 2], ls: [1, 1], ms_combs: [0, 0, 1, -1], ctildes: [0.13309232736765494, 0.23898706323023708, -0.26618465473530983, -0.47797412646047405]}
    - {mu0: 0, rank: 2, ndensity: 2, num_ms_combs: 3, mus: [0, 0], ns: [1, 2], ls: [2, 2], ms_combs: [0, 0, 1, -1, 2, -2], ctildes: [0.067693913489228985, 0.090593641982849901, -0.135387826978458, -0.18118728396569983, 0.135387826978458, 0.18118728396569983]}
    - {mu0: 0, rank: 2, ndensity: 2, num_ms_combs: 4, mus: [0, 0], ns: [1, 2], ls: [3, 3], ms_combs: [0, 0, 1, -1, 2, -2, 3, -3], ctildes: [-0.0037139711577543755, 0.044213035541944473, 0.0074279423155087509, -0.088426071083888946, -0.0074279423155087492, 0.088426071083888932, 0.0074279423155087492, -0.088426071083888932]}
    - {mu0: 0, rank: 2, ndensity: 2, num_ms_combs: 1, mus: [0, 0], ns: [1, 3], ls: [0, 0], ms_combs: [0, 0], ctildes: [-0.30542674696445127, 0.0079287478539272725]}
    - {mu0: 0, rank: 2, ndensity: 2, num_ms_combs: 2, mus: [0, 0], ns: [1, 3], ls: [1, 1], ms_combs: [0, 0, 1, -1], ctildes: [0.0048737035993101146, 0.24929152693976775, -0.0097474071986202258, -0.49858305387953539]}
    - {mu0: 0, rank: 2, ndensity: 2, num_ms_combs: 3, mus: [0, 0], ns: [1, 3], ls: [2, 2], ms_combs: [0, 0, 1, -1, 2, -2], ctildes: [-0.050604724094212065, -0.028752609728365883, 0.10120944818842414, 0.057505219456731774, -0.10120944818842414, -0.057505219456731774]}
    - {mu0: 0, rank: 2, ndensity: 2, num_ms_combs: 4, mus: [0, 0], ns: [1, 3], ls: [3, 3], ms_combs: [0, 0, 1, -1, 2, -2, 3, -3], ctildes: [0.010866701812873624, -0.081357691624025646, -0.021733403625747248, 0.16271538324805129, 0.021733403625747244, -0.16271538324805127, -0.021733403625747244, 0.16271538324805127]}
    - {mu0: 0, rank: 2, ndensity: 2, num_ms_combs: 1, mus: [0, 0], ns: [1, 4], ls: [0, 0], ms_combs: [0, 0], ctildes: [0.11086120215132607, -0.29271281897725115]}
    - {mu0: 0, rank: 2, ndensity: 2, num_ms_combs: 2, mus: [0, 0], ns: [1, 4], ls: [1, 1], ms_combs: [0, 0, 1, -1], ctildes: [0.044731090082918167, -0.062567756785537568, -0.089462180165836319, 0.12513551357107511]}
    - {mu0: 0, rank: 2, ndensity: 2, num_ms_combs: 3, mus: [0, 0], ns: [1, 4], ls: [2, 2], ms_combs: [0, 0, 1, -1, 2, -2], ctildes: [0.037081756012099676, 0.078330915449304525, -0.074163512024199366, -0.15666183089860908, 0.074163512024199366, 0.15666183089860908]}
    - {mu0: 0, rank: 2, ndensity: 2, num_ms_combs: 4, mus: [0, 0], ns: [1, 4], ls: [3, 3], ms_combs: [0, 0, 1, -1, 2, -2, 3, -3], ctildes: [0.0030331098394094859, 0.012879964845461793, -0.0060662196788189718, -0.025759929690923587, 0.006066219678818971, 0.025759929690923583, -0.006066219678818971, -0.025759929690923583]}
    - {mu0: 0, rank: 2, ndensity: 2, num_ms_combs: 1, mus: [0, 0], ns: [1, 5], ls: [0, 0], ms_combs: [0, 0], ctildes: [0.0559926271476043, -0.1195664140293011]}
    - {mu0: 0, rank: 2, ndensity: 2, num_ms_combs: 2, mus: [0, 0], ns: [1, 5], ls: [1, 1], ms_combs: [0, 0, 1, -1], ctildes: [0.013290887864983707, 0.04262736961871097, -0.026581775729967411, -0.085254739237421925]}
    - {mu0: 0, rank: 2, ndensity: 2, num_ms_combs: 3, mus: [0, 0], ns: [1, 5], ls: [2, 2], ms_combs: [0, 0, 1, -1, 2, -2], ctildes: [0.0024756574653382788, 0.00059098905515609604, -0.0049513149306765576, -0.0011819781103121921, 0.0049513149306765576, 0.0011819781103121921]}
    - {mu0: 0, rank: 2, ndensity: 2, num_ms_combs: 4, mus: [0, 0], ns: [1, 5], ls: [3, 3], ms_combs: [0, 0, 1, -1, 2, -2, 3, -3], ctildes: [-0.0037540487189257686, 0.021292557544908858, 0.0075080974378515372, -0.042585115089817716, -0.0075080974378515363, 0.042585115089817709, 0.0075080974378515363, -0.042585115089817709]}
    - {mu0: 0, rank: 2, ndensity: 2, num_ms_combs: 1, mus: [0, 0], ns: [1, 6], ls: [0, 0], ms_combs: [0, 0], ctildes: [-0.080604302596145802, 0.19521282263582765]}
    - {mu0: 0, rank: 2, ndensity: 2, num_ms_combs: 2, mus: [0, 0], ns: [1, 6], ls: [1, 1], ms_combs: [0, 0, 1, -1], ctildes: [-0.0081135488701185102, -0.067464885085223622, 0.016227097740237017, 0.13492977017044722]}
    - {mu0: 0, rank: 2, ndensity: 2, num_ms_combs: 3, mus: [0, 0], ns: [1, 6], ls: [2, 2], ms_combs: [0, 0, 1, -1, 2, -2], ctildes: [0.00048782276677887445, -0.0064540206023180795, -0.00097564553355774901, 0.012908041204636161, 0.00097564553355774901, -0.012908041204636161]}
    - {mu0: 0, rank: 2, ndensity: 2, num_ms_combs: 4, mus: [0, 0], ns: [1, 6], ls: [3, 3], ms_combs: [0, 0, 1, -1, 2, -2, 3, -3], ctildes: [0.0013940748003603409, -0.0085053605756113294, -0.0027881496007206817, 0.017010721151222659, 0.0027881496007206813, -0.017010721151222659, -0.0027881496007206813, 0.017010721151222659]}
    - {mu0: 0, rank: 2, ndensity: 2, num_ms_combs: 1, mus: [0, 0], ns: [2, 2], ls: [0, 0], ms_combs: [0, 0], ctildes: [-0.063586640829195365, 0.55357332523066916]}
    - {mu0: 0, rank: 2, ndensity: 2, num_ms_combs: 2, mus: [0, 0], ns: [2, 2], ls: [1, 1], ms_combs: [0, 0, 1, -1], ctildes: [-0.05744343906663936, 0.21745492388292004, 0.11488687813327871, -0.43490984776583996]}
    - {mu0: 0, rank: 2, ndensity: 2, num_ms_combs: 3, mus: [0, 0], ns: [2, 2], ls: [2, 2], ms_combs: [0, 0, 1, -1, 2, -2], ctildes: [-0.059453177661879963, 0.072748474511408576, 0.11890635532375994, -0.14549694902281718, -0.11890635532375994, 0.14549694902281718]}
    - {mu0: 0, rank: 2, ndensity: 2, num_ms_combs: 4, mus: [0, 0], ns: [2, 2], ls: [3, 3], ms_combs: [0, 0, 1, -1, 2, -2, 3, -3], ctildes: [-0.011338375048682648, 0.041207764772705678, 0.022676750097365295, -0.082415529545411356, -0.022676750097365292, 0.082415529545411356, 0.022676750097365292, -0.082415529545411356]}
    - {mu0: 0, rank: 2, ndensity: 2, num_ms_combs: 1, mus: [0, 0], ns: [2, 3], ls: [0, 0], ms_combs: [0, 0], ctildes: [-0.092680636359519009, 0.30569941222919061]}
    - {mu0: 0, rank: 2, ndensity: 2, num_ms_combs: 2, mus: [0, 0], ns: [2, 3], ls: [1, 1], ms_combs: [0, 0, 1, -1], ctildes: [-0.052686853125376437, -0.042813444447141372, 0.10537370625075285, 0.085626888894282729]}
    - {mu0: 0, rank: 2, ndensity: 2, num_ms_combs: 3, mus: [0, 0], ns: [2, 3], ls: [2, 2], ms_combs: [0, 0, 1, -1, 2, -2], ctildes: [-0.0067649570459476409, 0.079565094286190269, 0.013529914091895284, -0.15913018857238057, -0.013529914091895284, 0.15913018857238057]}
    - {mu0: 0, rank: 2, ndensity: 2, num_ms_combs: 4, mus: [0, 0], ns: [2, 3], ls: [3, 3], ms_combs: [0, 0, 1, -1, 2, -2, 3, -3], ctildes: [0.017664216667846951, -0.08530696922899432, -0.035328433335693903, 0.17061393845798864, 0.035328433335693896, -0.17061393845798861, -0.035328433335693896, 0.17061393845798861]}
    - {mu0: 0, rank: 2, ndensity: 2, num_ms_combs: 1, mus: [0, 0], ns: [2, 4], ls: [0, 0], ms_combs: [0, 0], ctildes: [0.040534110455271527, -0.15338966509325358]}
    - {mu0: 0, rank: 2, ndensity: 2, num_ms_combs: 2, mus: [0, 0], ns: [2, 4], ls: [1, 1], ms_combs: [0, 0, 1, -1], ctildes: [-0.085571907462320837, 0.12630003897939393, 0.17114381492464162, -0.25260007795878781]}
    - {mu0: 0, rank: 2, ndensity: 2, num_ms_combs: 3, mus: [0, 0], ns: [2, 4], ls: [2, 2], ms_combs: [0, 0, 1, -1, 2, -2], ctildes: [-0.019617823919929667, 0.0059877156716196993, 0.03923564783985934, -0.0119754313432394, -0.03923564783985934, 0.0119754313432394]}
    - {mu0: 0, rank: 2, ndensity: 2, num_ms_combs: 4, mus: [0, 0], ns: [2, 4], ls: [3, 3], ms_combs: [0, 0, 1, -1, 2, -2, 3, -3], ctildes: [-0.013043306714071357, 0.072536193335901389, 0.026086613428142714, -0.14507238667180278, -0.02608661342814271, 0.14507238667180278, 0.02608661342814271, -0.14507238667180278]}
    - {mu0: 0, rank: 2, ndensity: 2, num_ms_combs: 1, mus: [0, 0], ns: [2, 5], ls: [0, 0], ms_combs: [0, 0], ctildes: [-0.045101211297071335, 0.083844246013132867]}
    - {mu0: 0, rank: 2, ndensity: 2, num_ms_combs: 2, mus: [0, 0], ns: [2, 5], ls: [1, 1], ms_combs: [0, 0, 1, -1], ctildes: [-0.0033121132170914149, 0.023380858412282168, 0.0066242264341828281, -0.046761716824564328]}
    - {mu0: 0, rank: 2, ndensity: 2, num_ms_combs: 3, mus: [0, 0], ns: [2, 5], ls: [2, 2], ms_combs: [0, 0, 1, -1, 2, -2], ctildes: [0.0064370329244396503, -0.048001800065874109, -0.012874065848879302, 0.096003600131748232, 0.012874065848879302, -0.096003600131748232]}
    - {mu0: 0, rank: 2, ndensity: 2, num_ms_combs: 4, mus: [0, 0], ns: [2, 5], ls: [3, 3], ms_combs: [0, 0, 1, -1, 2, -2, 3, -3], ctildes: [0.00056989813147976349, -0.0068930174637057817, -0.001139796262959527, 0.013786034927411563, 0.0011397962629595268, -0.01378603492741156, -0.0011397962629595268, 0.01378603492741156]}
    - {mu0: 0, rank: 2, ndensity: 2, num_ms_combs: 1, mus: [0, 0], ns: [2, 6], ls: [0, 0], ms_combs: [0, 0], ctildes: [0.071647707679238545, -0.20835227504890247]}
    - {mu0: 0, rank: 2, ndensity: 2, num_ms_combs: 2, mus: [0, 0], ns: [2, 6], ls: [1, 1], ms_combs: [0, 0, 1, -1], ctildes: [0.0071239468903624053, -0.029033442339353534, -0.014247893780724807, 0.058066884678707055]}
    - {mu0: 0, rank: 2, ndensity: 2, num_ms_combs: 3, mus: [0, 0], ns: [2, 6], ls: [2, 2], ms_combs: [0, 0, 1, -1, 2, -2], ctildes: [0.0011457068018664574, -0.0039545927941878924, -0.0022914136037329152, 0.0079091855883757847, 0.0022914136037329152, -0.0079091855883757847]}
    - {mu0: 0, rank: 2, ndensity: 2, num_ms_combs: 4, mus: [0, 0], ns: [2, 6], ls: [3, 3], ms_combs: [0, 0, 1, -1, 2, -2, 3, -3], ctildes: [0.00060137107879773772, -0.0039415076982133685, -0.0012027421575954754, 0.0078830153964267371, 0.0012027421575954754, -0.0078830153964267371, -0.0012027421575954754, 0.0078830153964267371]}
    - {mu0: 0, rank: 2, ndensity: 2, num_ms_combs: 1, mus: [0, 0], ns: [3, 3], ls: [0, 0], ms_combs: [0, 0], ctildes: [0.032346692484591065, 0.26400189482613184]}
    - {mu0: 0, rank: 2, ndensity: 2, num_ms_combs: 2, mus: [0, 0], ns: [3, 3], ls: [1, 1], ms_combs: [0, 0, 1, -1], ctildes: [0.10042219314682962, -0.18566510747077142, -0.20084438629365922, 0.37133021494154278]}
    - {mu0: 0, rank: 2, ndensity: 2, num_ms_combs: 3, mus: [0, 0], ns: [3, 3], ls: [2, 2], ms_combs: [0, 0, 1, -1, 2, -2], ctildes: [-0.034562287781791566, 0.14855751209520504, 0.069124575563583132, -0.29711502419041014, -0.069124575563583132, 0.29711502419041014]}
    - {mu0: 0, rank: 2, ndensity: 2, num_ms_combs: 4, mus: [0, 0], ns: [3, 3], ls: [3, 3], ms_combs: [0, 0, 1, -1, 2, -2, 3, -3], ctildes: [-0.0094446018242301619, 0.055131003297466813, 0.018889203648460324, -0.11026200659493363, -0.01888920364846032, 0.11026200659493361, 0.01888920364846032, -0.11026200659493361]}
    - {mu0: 0, rank: 2, ndensity: 2, num_ms_combs: 1, mus: [0, 0], ns: [3, 4], ls: [0, 0], ms_combs: [0, 0], ctildes: [-0.0092165978627677166, 0.10465980980218763]}
    - {mu0: 0, rank: 2, ndensity: 2, num_ms_combs: 2, mus: [0, 0], ns: [3, 4], ls: [1, 1], ms_combs: [0, 0, 1, -1], ctildes: [-0.04238013438061821, 0.087680239250865891, 0.084760268761236393, -0.17536047850173175]}
    - {mu0: 0, rank: 2, ndensity: 2, num_ms_combs: 3, mus: [0, 0], ns: [3, 4], ls: [2, 2], ms_combs: [0, 0, 1, -1, 2, -2], ctildes: [0.021707838110838311, -0.028051747518466057, -0.043415676221676629, 0.05610349503693212, 0.043415676221676629, -0.05610349503693212]}
    - {mu0: 0, rank: 2, ndensity: 2, num_ms_combs: 4, mus: [0, 0], ns: [3, 4], ls: [3, 3], ms_combs: [0, 0, 1, -1, 2, -2, 3, -3], ctildes: [0.01656037196239632, -0.091888286216588816, -0.033120743924792639, 0.18377657243317763, 0.033120743924792632, -0.1837765724331776, -0.033120743924792632, 0.1837765724331776]}
    - {mu0: 0, rank: 2, ndensity: 2, num_ms_combs: 1, mus: [0, 0], ns: [3, 5], ls: [0, 0], ms_combs: [0, 0], ctildes: [-0.0063816312512120213, 0.21507774835163002]}
    - {mu0: 0, rank: 2, ndensity: 2, num_ms_combs: 2, mus: [0, 0], ns: [3, 5], ls: [1, 1], ms_combs: [0, 0, 1, -1], ctildes: [-0.00046984441852191355, 0.065877459839476252, 0.00093968883704382688, -0.13175491967895248]}
    - {mu0: 0, rank: 2, ndensity: 2, num_ms_combs: 3, mus: [0, 0], ns: [3, 5], ls: [2, 2], ms_combs: [0, 0, 1, -1, 2, -2], ctildes: [-0.006913543756659566, 0.039869624145409892, 0.013827087513319134, -0.079739248290819797, -0.013827087513319134, 0.079739248290819797]}
    - {mu0: 0, rank: 2, ndensity: 2, num_ms_combs: 4, mus: [0, 0], ns: [3, 5], ls: [3, 3], ms_combs: [0, 0, 1, -1, 2, -2, 3, -3], ctildes: [-0.0017848683339599433, 0.011824797754478738, 0.0035697366679198865, -0.023649595508957476, -0.0035697366679198856, 0.023649595508957472, 0.0035697366679198856, -0.023649595508957472]}
    - {mu0: 0, rank: 2, ndensity: 2, num_ms_combs: 1, mus: [0, 0], ns: [3, 6], ls: [0, 0], ms_combs: [0, 0], ctildes: [-0.0018571128420901018, -0.16086368702552567]}
    - {mu0: 0, rank: 2, ndensity: 2, num_ms_combs: 2, mus: [0, 0], ns: [3, 6], ls: [1, 1], ms_combs: [0, 0, 1, -1], ctildes: [0.006593302791672263, -0.083137386800189977, -0.013186605583344524, 0.16627477360037993]}
    - {mu0: 0, rank: 2, ndensity: 2, num_ms_combs: 3, mus: [0, 0], ns: [3, 6], ls: [2, 2], ms_combs: [0, 0, 1, -1, 2, -2], ctildes: [-0.00066031247546294606, 0.00096381288884785218, 0.0013206249509258923, -0.0019276257776957046, -0.0013206249509258923, 0.0019276257776957046]}
    - {mu0: 0, rank: 2, ndensity: 2, num_ms_combs: 4, mus: [0, 0], ns: [3, 6], ls: [3, 3], ms_combs: [0, 0, 1, -1, 2, -2, 3, -3], ctildes: [-0.00040324670072176578, 0.0016402244367591584, 0.00080649340144353155, -0.0032804488735183168, -0.00080649340144353144, 0.0032804488735183163, 0.00080649340144353144, -0.0032804488735183163]}
    - {mu0: 0, rank: 2, ndensity: 2, num_ms_combs: 1, mus: [0, 0], ns: [4, 4], ls: [0, 0], ms_combs: [0, 0], ctildes: [-0.0026861963026500054, -0.024432737925491263]}
    - {mu0: 0, rank: 2, ndensity: 2, num_ms_combs: 2, mus: [0, 0], ns: [4, 4], ls: [1, 1], ms_combs: [0, 0, 1, -1], ctildes: [-0.0053851938839009584, -0.035971160658218329, 0.010770387767801915, 0.071942321316436644]}
    - {mu0: 0, rank: 2, ndensity: 2, num_ms_combs: 3, mus: [0, 0], ns: [4, 4], ls: [2, 2], ms_combs: [0, 0, 1, -1, 2, -2], ctildes: [-0.0066824578024658257, 9.0190957691622906e-05, 0.013364915604931653, -0.00018038191538324584, -0.013364915604931653, 0.00018038191538324584]}
    - {mu0: 0, rank: 2, ndensity: 2, num_ms_combs: 4, mus: [0, 0], ns: [4, 4], ls: [3, 3], ms_combs: [0, 0, 1, -1, 2, -2, 3, -3], ctildes: [-0.0074451060699104541, 0.038655346753668204, 0.014890212139820908, -0.077310693507336409, -0.014890212139820906, 0.077310693507336395, 0.014890212139820906, -0.077310693507336395]}
    - {mu0: 0, rank: 2, ndensity: 2, num_ms_combs: 1, mus: [0, 0], ns: [4, 5], ls: [0, 0], ms_combs: [0, 0], ctildes: [-0.018782091336056701, 0.11817132176068242]}
    - {mu0: 0, rank: 2, ndensity: 2, num_ms_combs: 2, mus: [0, 0], ns: [4, 5], ls: [1, 1], ms_combs: [0, 0, 1, -1], ctildes: [-0.0066156434511537654, 0.031092419570478154, 0.013231286902307529, -0.062184839140956294]}
    - {mu0: 0, rank: 2, ndensity: 2, num_ms_combs: 3, mus: [0, 0], ns: [4, 5], ls: [2, 2], ms_combs: [0, 0, 1, -1, 2, -2], ctildes: [0.0029807430837075041, -0.019648550565384077, -0.0059614861674150092, 0.039297101130768161, 0.0059614861674150092, -0.039297101130768161]}
    - {mu0: 0, rank: 2, ndensity: 2, num_ms_combs: 4, mus: [0, 0], ns: [4, 5], ls: [3, 3], ms_combs: [0, 0, 1, -1, 2, -2, 3, -3], ctildes: [0.0015732696178201446, -0.0096266916313325745, -0.0031465392356402892, 0.019253383262665149, 0.0031465392356402888, -0.019253383262665145, -0.0031465392356402888, 0.019253383262665145]}
    - {mu0: 0, rank: 2, ndensity: 2, num_ms_combs: 1, mus: [0, 0], ns: [4, 6], ls: [0, 0], ms_combs: [0, 0], ctildes: [0.0290130069674794, -0.18588537144245587]}
    - {mu0: 0, rank: 2, ndensity: 2, num_ms_combs: 2, mus: [0, 0], ns: [4, 6], ls: [1, 1], ms_combs: [0, 0, 1, -1], ctildes: [0.0044184742505215821, -0.014141514726976881, -0.0088369485010431625, 0.028283029453953754]}
    - {mu0: 0, rank: 2, ndensity: 2, num_ms_combs: 3, mus: [0, 0], ns: [4, 6], ls: [2, 2], ms_combs: [0, 0, 1, -1, 2, -2], ctildes: [-0.00010146634162786315, 0.001299605364627954, 0.00020293268325572632, -0.0025992107292559085, -0.00020293268325572632, 0.0025992107292559085]}
    - {mu0: 0, rank: 2, ndensity: 2, num_ms_combs: 1, mus: [0, 0], ns: [5, 5], ls: [0, 0], ms_combs: [0, 0], ctildes: [0.0027625093727848926, 0.001157302088062098]}
    - {mu0: 0, rank: 2, ndensity: 2, num_ms_combs: 2, mus: [0, 0], ns: [5, 5], ls: [1, 1], ms_combs: [0, 0, 1, -1], ctildes: [0.0018309374113619301, -0.0040823161254589574, -0.0036618748227238594, 0.008164632250917913]}
    - {mu0: 0, rank: 2, ndensity: 2, num_ms_combs: 3, mus: [0, 0], ns: [5, 5], ls: [2, 2], ms_combs: [0, 0, 1, -1, 2, -2], ctildes: [-0.00019639030630690411, 0.0032385304451611114, 0.00039278061261380828, -0.0064770608903222237, -0.00039278061261380828, 0.0064770608903222237]}
    - {mu0: 0, rank: 2, ndensity: 2, num_ms_combs: 1, mus: [0, 0], ns: [5, 6], ls: [0, 0], ms_combs: [0, 0], ctildes: [-0.0062064565054020596, 0.011297476208024007]}
    - {mu0: 0, rank: 2, ndensity: 2, num_ms_combs: 2, mus: [0, 0], ns: [5, 6], ls: [1, 1], ms_combs: [0, 0, 1, -1], ctildes: [-0.0024999175241182847, 0.0024897182900210008, 0.0049998350482365686, -0.0049794365800420008]}
    - {mu0: 0, rank: 2, ndensity: 2, num_ms_combs: 3, mus: [0, 0], ns: [5, 6], ls: [2, 2], ms_combs: [0, 0, 1, -1, 2, -2], ctildes: [-6.373790527618716e-05, -0.00026861074952517556, 0.00012747581055237435, 0.00053722149905035112, -0.00012747581055237435, -0.00053722149905035112]}
    - {mu0: 0, rank: 2, ndensity: 2, num_ms_combs: 1, mus: [0, 0], ns: [6, 6], ls: [0, 0], ms_combs: [0, 0], ctildes: [0.0028771862945882413, -0.012771179220755819]}
    - {mu0: 0, rank: 2, ndensity: 2, num_ms_combs: 2, mus: [0, 0], ns: [6, 6], ls: [1, 1], ms_combs: [0, 0, 1, -1], ctildes: [0.0011653799717603415, 0.00014213072830338542, -0.0023307599435206825, -0.00028426145660677079]}
    - {mu0: 0, rank: 2, ndensity: 2, num_ms_combs: 1, mus: [0, 1], ns: [1, 1], ls: [0, 0], ms_combs: [0, 0], ctildes: [1.5828252693624472, 1.2113624049084648]}
    - {mu0: 0, rank: 2, ndensity: 2, num_ms_combs: 2, mus: [0, 1], ns: [1, 1], ls: [1, 1], ms_combs: [0, 0, 1, -1], ctildes: [0.25040999519350216, 0.13276819031880921, -0.5008199903870042, -0.26553638063761836]}
    - {mu0: 0, rank: 2, ndensity: 2, num_ms_combs: 3, mus: [0, 1], ns: [1, 1], ls: [2, 2], ms_combs: [0, 0, 1, -1, 2, -2], ctildes: [-0.086836834279439182, 0.18312277496875998, 0.17367366855887839, -0.36624554993752001, -0.17367366855887839, 0.36624554993752001]}
    - {mu0: 0, rank: 2, ndensity: 2, num_ms_combs: 4, mus: [0, 1], ns: [1, 1], ls: [3, 3], ms_combs: [0, 0, 1, -1, 2, -2, 3, -3], ctildes: [-0.016172766576257814, 0.044868714476911112, 0.032345533152515628, -0.089737428953822224, -0.032345533152515621, 0.08973742895382221, 0.032345533152515621, -0.08973742895382221]}
    - {mu0: 0, rank: 2, ndensity: 2, num_ms_combs: 1, mus: [0, 1], ns: [1, 2], ls: [0, 0], ms_combs: [0, 0], ctildes: [0.56390343266616383, 1.3629022276982046]}
    - {mu0: 0, rank: 2, ndensity: 2, num_ms_combs: 2, mus: [0, 1], ns: [1, 2], ls: [1, 1], ms_combs: [0, 0, 1, -1], ctildes: [0.30757733048015573, 0.21642222340768982, -0.61515466096031135, -0.43284444681537959]}
    - {mu0: 0, rank: 2, ndensity: 2, num_ms_combs: 3, mus: [0, 1], ns: [1, 2], ls: [2, 2], ms_combs: [0, 0, 1, -1, 2, -2], ctildes: [0.031217825114072985, 0.16640400107064771, -0.062435650228145977, -0.33280800214129547, 0.062435650228145977, 0.33280800214129547]}
    - {mu0: 0, rank: 2, ndensity: 2, num_ms_combs: 4, mus: [0, 1], ns: [1, 2], ls: [3, 3], ms_combs: [0, 0, 1, -1, 2, -2, 3, -3], ctildes: [-0.0046611993341117231, 0.030800531099531684, 0.0093223986682234462, -0.061601062199063368, -0.0093223986682234444, 0.061601062199063354, 0.0093223986682234444, -0.061601062199063354]}
    - {mu0: 0, rank: 2, ndensity: 2, num_ms_combs: 1, mus: [0, 1], ns: [1, 3], ls: [0, 0], ms_combs: [0, 0], ctildes: [-1.2296950295676765, -0.46687862373955363]}
    - {mu0: 0, rank: 2, ndensity: 2, num_ms_combs: 2, mus: [0, 1], ns: [1, 3], ls: [1, 1], ms_combs: [0, 0, 1, -1], ctildes: [-0.30664468438671233, 0.17206021008705635, 0.61328936877342455, -0.34412042017411265]}
    - {mu0: 0, rank: 2, ndensity: 2, num_ms_combs: 3, mus: [0, 1], ns: [1, 3], ls: [2, 2], ms_combs: [0, 0, 1, -1, 2, -2], ctildes: [0.018115238123688086, 0.040823067137326523, -0.036230476247376173, -0.081646134274653059, 0.036230476247376173, 0.081646134274653059]}
    - {mu0: 0, rank: 2, ndensity: 2, num_ms_combs: 4, mus: [0, 1], ns: [1, 3], ls: [3, 3], ms_combs: [0, 0, 1, -1, 2, -2, 3, -3], ctildes: [-0.011698483954331889, 0.049169059226124592, 0.023396967908663777, -0.098338118452249185, -0.023396967908663774, 0.098338118452249171, 0.023396967908663774, -0.098338118452249171]}
    - {mu0: 0, rank: 2, ndensity: 2, num_ms_combs: 1, mus: [0, 1], ns: [1, 4], ls: [0, 0], ms_combs: [0, 0], ctildes: [0.21086568465116837, 0.0050431578149927906]}
    - {mu0: 0, rank: 2, ndensity: 2, num_ms_combs: 2, mus: [0, 1], ns: [1, 4], ls: [1, 1], ms_combs: [0, 0, 1, -1], ctildes: [0.031928989777613749, 0.16377827258940503, -0.063857979555227484, -0.32755654517881]}
    - {mu0: 0, rank: 2, ndensity: 2, num_ms_combs: 3, mus: [0, 1], ns: [1, 4], ls: [2, 2], ms_combs: [0, 0, 1, -1, 2, -2], ctildes: [0.0040095188908689594, -0.0096568225861012741, -0.0080190377817379189, 0.019313645172202552, 0.0080190377817379189, -0.019313645172202552]}
    - {mu0: 0, rank: 2, ndensity: 2, num_ms_combs: 4, mus: [0, 1], ns: [1, 4], ls: [3, 3], ms_combs: [0, 0, 1, -1, 2, -2, 3, -3], ctildes: [0.0089659055985988265, -0.045998137779743549, -0.017931811197197653, 0.091996275559487098, 0.017931811197197653, -0.091996275559487084, -0.017931811197197653, 0.091996275559487084]}
    - {mu0: 0, rank: 2, ndensity: 2, num_ms_combs: 1, mus: [0, 1], ns: [1, 5], ls: [0, 0], ms_combs: [0, 0], ctildes: [-0.020477363116521461, -0.039978302004469633]}
    - {mu0: 0, rank: 2, ndensity: 2, num_ms_combs: 2, mus: [0, 1], ns: [1, 5], ls: [1, 1], ms_combs: [0, 0, 1, -1], ctildes: [0.057406220527518502, -0.014926290966287467, -0.11481244105503699, 0.029852581932574927]}
    - {mu0: 0, rank: 2, ndensity: 2, num_ms_combs: 3, mus: [0, 1], ns: [1, 5], ls: [2, 2], ms_combs: [0, 0, 1, -1, 2, -2], ctildes: [0.010200600394691157, -0.035077712302341003, -0.020401200789382318, 0.070155424604682007, 0.020401200789382318, -0.070155424604682007]}
    - {mu0: 0, rank: 2, ndensity: 2, num_ms_combs: 1, mus: [0, 1], ns: [1, 6], ls: [0, 0], ms_combs: [0, 0], ctildes: [-0.00038680129176317887, -0.058782977530948251]}
    - {mu0: 0, rank: 2, ndensity: 2, num_ms_combs: 2, mus: [0, 1], ns: [1, 6], ls: [1, 1], ms_combs: [0, 0, 1, -1], ctildes: [-0.0092655904781821716, -0.007237115703264344, 0.01853118095636434, 0.014474231406528686]}
    - {mu0: 0, rank: 2, ndensity: 2, num_ms_combs: 1, mus: [0, 1], ns: [2, 1], ls: [0, 0], ms_combs: [0, 0], ctildes: [-1.1438650890147184, -0.28011287372361215]}
    - {mu0: 0, rank: 2, ndensity: 2, num_ms_combs: 2, mus: [0, 1], ns: [2, 1], ls: [1, 1], ms_combs: [0, 0, 1, -1], ctildes: [0.29105861066849875, 0.34211609668910131, -0.58211722133699739, -0.68423219337820251]}
    - {mu0: 0, rank: 2, ndensity: 2, num_ms_combs: 3, mus: [0, 1], ns: [2, 1], ls: [2, 2], ms_combs: [0, 0, 1, -1, 2, -2], ctildes: [0.019411456695527327, 0.071077950312094518, -0.038822913391054661, -0.14215590062418904, 0.038822913391054661, 0.14215590062418904]}
    - {mu0: 0, rank: 2, ndensity: 2, num_ms_combs: 4, mus: [0, 1], ns: [2, 1], ls: [3, 3], ms_combs: [0, 0, 1, -1, 2, -2, 3, -3], ctildes: [0.0073144011197438588, -0.020415645610190675, -0.014628802239487718, 0.040831291220381351, 0.014628802239487716, -0.040831291220381344, -0.014628802239487716, 0.040831291220381344]}
    - {mu0: 0, rank: 2, ndensity: 2, num_ms_combs: 1, mus: [0, 1], ns: [2, 2], ls: [0, 0], ms_combs: [0, 0], ctildes: [0.2515861263184358, 0.0051321837019055764]}
    - {mu0: 0, rank: 2, ndensity: 2, num_ms_combs: 2, mus: [0, 1], ns: [2, 2], ls: [1, 1], ms_combs: [0, 0, 1, -1], ctildes: [-0.2239880398539395, 0.13324674421587843, 0.44797607970787889, -0.2664934884317568]}
    - {mu0: 0, rank: 2, ndensity: 2, num_ms_combs: 3, mus: [0, 1], ns: [2, 2], ls: [2, 2], ms_combs: [0, 0, 1, -1, 2, -2], ctildes: [-0.029546186460203093, 0.0015491665255034338, 0.059092372920406193, -0.003098333051006868, -0.059092372920406193, 0.003098333051006868]}
    - {mu0: 0, rank: 2, ndensity: 2, num_ms_combs: 4, mus: [0, 1], ns: [2, 2], ls: [3, 3], ms_combs: [0, 0, 1, -1, 2, -2, 3, -3], ctildes: [-0.0050132007097415145, 0.014669995122534309, 0.010026401419483029, -0.029339990245068618, -0.010026401419483029, 0.029339990245068611, 0.010026401419483029, -0.029339990245068611]}
    - {mu0: 0, rank: 2, ndensity: 2, num_ms_combs: 1, mus: [0, 1], ns: [2, 3], ls: [0, 0], ms_combs: [0, 0], ctildes: [0.44956662436792705, 0.039285248926431135]}
    - {mu0: 0, rank: 2, ndensity: 2, num_ms_combs: 2, mus: [0, 1], ns: [2, 3], ls: [1, 1], ms_combs: [0, 0, 1, -1], ctildes: [0.15166747334608913, -0.060190596240598249, -0.3033349466921782, 0.12038119248119648]}
    - {mu0: 0, rank: 2, ndensity: 2, num_ms_combs: 3, mus: [0, 1], ns: [2, 3], ls: [2, 2], ms_combs: [0, 0, 1, -1, 2, -2], ctildes: [-0.0066625393522061821, -0.021662839768846098, 0.013325078704412366, 0.043325679537692195, -0.013325078704412366, -0.043325679537692195]}
    - {mu0: 0, rank: 2, ndensity: 2, num_ms_combs: 1, mus: [0, 1], ns: [2, 4], ls: [0, 0], ms_combs: [0, 0], ctildes: [-0.064761675580118042, 0.082601950126628215]}
    - {mu0: 0, rank: 2, ndensity: 2, num_ms_combs: 2, mus: [0, 1], ns: [2, 4], ls: [1, 1], ms_combs: [0, 0, 1, -1], ctildes: [0.012869480484434145, -0.060598311538355355, -0.025738960968868282, 0.12119662307671068]}
    - {mu0: 0, rank: 2, ndensity: 2, num_ms_combs: 3, mus: [0, 1], ns: [2, 4], ls: [2, 2], ms_combs: [0, 0, 1, -1, 2, -2], ctildes: [-0.0050657217720988428, 0.061595219240091176, 0.010131443544197686, -0.12319043848018237, -0.010131443544197686, 0.12319043848018237]}
    - {mu0: 0, rank: 2, ndensity: 2, num_ms_combs: 1, mus: [0, 1], ns: [2, 5], ls: [0, 0], ms_combs: [0, 0], ctildes: [0.037874163218269197, -0.051707323278858477]}
    - {mu0: 0, rank: 2, ndensity: 2, num_ms_combs: 2, mus: [0, 1], ns: [2, 5], ls: [1, 1], ms_combs: [0, 0, 1, -1], ctildes: [-0.0088220780399566115, 0.044977179970572247, 0.01764415607991322, -0.089954359941144479]}
    - {mu0: 0, rank: 2, ndensity: 2, num_ms_combs: 1, mus: [0, 1], ns: [2, 6], ls: [0, 0], ms_combs: [0, 0], ctildes: [0.0030387102182608287, -0.036579968806386164]}
    - {mu0: 0, rank: 2, ndensity: 2, num_ms_combs: 2, mus: [0, 1], ns: [2, 6], ls: [1, 1], ms_combs: [0, 0, 1, -1], ctildes: [0.0063898208510657067, -0.032872868012850762, -0.01277964170213141, 0.065745736025701509]}
    - {mu0: 0, rank: 2, ndensity: 2, num_ms_combs: 1, mus: [0, 1], ns: [3, 1], ls: [0, 0], ms_combs: [0, 0], ctildes: [0.057956473480088561, -0.28608777924199424]}
    - {mu0: 0, rank: 2, ndensity: 2, num_ms_combs: 2, mus: [0, 1], ns: [3, 1], ls: [1, 1], ms_combs: [0, 0, 1, -1], ctildes: [-0.093904929781135876, -0.095921374133310727, 0.1878098595622717, 0.19184274826662143]}
    - {mu0: 0, rank: 2, ndensity: 2, num_ms_combs: 3, mus: [0, 1], ns: [3, 1], ls: [2, 2], ms_combs: [0, 0, 1, -1, 2, -2], ctildes: [0.020728368563465185, -0.084512717820951641, -0.041456737126930376, 0.16902543564190331, 0.041456737126930376, -0.16902543564190331]}
    - {mu0: 0, rank: 2, ndensity: 2, num_ms_combs: 4, mus: [0, 1], ns: [3, 1], ls: [3, 3], ms_combs: [0, 0, 1, -1, 2, -2, 3, -3], ctildes: [-0.0067923925557317934, 0.027480948318124167, 0.013584785111463587, -0.054961896636248335, -0.013584785111463585, 0.054961896636248328, 0.013584785111463585, -0.054961896636248328]}
    - {mu0: 0, rank: 2, ndensity: 2, num_ms_combs: 1, mus: [0, 1], ns: [3, 2], ls: [0, 0], ms_combs: [0, 0], ctildes: [0.0865497986036846, -0.25051435280713114]}
    - {mu0: 0, rank: 2, ndensity: 2, num_ms_combs: 2, mus: [0, 1], ns: [3, 2], ls: [1, 1], ms_combs: [0, 0, 1, -1], ctildes: [0.092681928428062166, -0.094746902187724552, -0.1853638568561243, 0.18949380437544905]}
    - {mu0: 0, rank: 2, ndensity: 2, num_ms_combs: 3, mus: [0, 1], ns: [3, 2], ls: [2, 2], ms_combs: [0, 0, 1, -1, 2, -2], ctildes: [0.0070775168788901558, -0.014812509507276613, -0.014155033757780313, 0.029625019014553229, 0.014155033757780313, -0.029625019014553229]}
    - {mu0: 0, rank: 2, ndensity: 2, num_ms_combs: 1, mus: [0, 1], ns: [3, 3], ls: [0, 0], ms_combs: [0, 0], ctildes: [-0.21693233912017068, 0.18751022265449729]}
    - {mu0: 0, rank: 2, ndensity: 2, num_ms_combs: 2, mus: [0, 1], ns: [3, 3], ls: [1, 1], ms_combs: [0, 0, 1, -1], ctildes: [0.0068479031672892899, -0.098695430664093101, -0.013695806334578578, 0.19739086132818615]}
    - {mu0: 0, rank: 2, ndensity: 2, num_ms_combs: 3, mus: [0, 1], ns: [3, 3], ls: [2, 2], ms_combs: [0, 0, 1, -1, 2, -2], ctildes: [0.008549667135132711, -0.039335617204179982, -0.017099334270265422, 0.078671234408359977, 0.017099334270265422, -0.078671234408359977]}
    - {mu0: 0, rank: 2, ndensity: 2, num_ms_combs: 1, mus: [0, 1], ns: [3, 4], ls: [0, 0], ms_combs: [0, 0], ctildes: [-0.076884879044307755, 0.15515540744609196]}
    - {mu0: 0, rank: 2, ndensity: 2, num_ms_combs: 2, mus: [0, 1], ns: [3, 4], ls: [1, 1], ms_combs: [0, 0, 1, -1], ctildes: [-0.028287339615184016, 0.10909789866665251, 0.056574679230368019, -0.21819579733330499]}
    - {mu0: 0, rank: 2, ndensity: 2, num_ms_combs: 1, mus: [0, 1], ns: [3, 5], ls: [0, 0], ms_combs: [0, 0], ctildes: [-0.0068872337878703579, 0.0074694097005704972]}
    - {mu0: 0, rank: 2, ndensity: 2, num_ms_combs: 2, mus: [0, 1], ns: [3, 5], ls: [1, 1], ms_combs: [0, 0, 1, -1], ctildes: [0.0096510742571122351, 0.021840707548499708, -0.019302148514224467, -0.04368141509699941]}
    - {mu0: 0, rank: 2, ndensity: 2, num_ms_combs: 1, mus: [0, 1], ns: [3, 6], ls: [0, 0], ms_combs: [0, 0], ctildes: [-0.014820431760791232, 0.1015619777736084]}
    - {mu0: 0, rank: 2, ndensity: 2, num_ms_combs: 1, mus: [0, 1], ns: [4, 1], ls: [0, 0], ms_combs: [0, 0], ctildes: [0.17718320691221945, -0.064051715515970817]}
    - {mu0: 0, rank: 2, ndensity: 2, num_ms_combs: 2, mus: [0, 1], ns: [4, 1], ls: [1, 1], ms_combs: [0, 0, 1, -1], ctildes: [0.065075129795434478, -0.024012252607571852, -0.13015025959086893, 0.048024505215143697]}
    - {mu0: 0, rank: 2, ndensity: 2, num_ms_combs: 3, mus: [0, 1], ns: [4, 1], ls: [2, 2], ms_combs: [0, 0, 1, -1, 2, -2], ctildes: [-0.018097869674831395, 0.11509089446753076, 0.036195739349662796, -0.23018178893506155, -0.036195739349662796, 0.23018178893506155]}
    - {mu0: 0, rank: 2, ndensity: 2, num_ms_combs: 1, mus: [0, 1], ns: [4, 2], ls: [0, 0], ms_combs: [0, 0], ctildes: [-0.12899941759578715, 0.16793391622052112]}
    - {mu0: 0, rank: 2, ndensity: 2, num_ms_combs: 2, mus: [0, 1], ns: [4, 2], ls: [1, 1], ms_combs: [0, 0, 1, -1], ctildes: [0.0050487090643232162, -0.090711156969515622, -0.010097418128646431, 0.18142231393903122]}
    - {mu0: 0, rank: 2, ndensity: 2, num_ms_combs: 3, mus: [0, 1], ns: [4, 2], ls: [2, 2], ms_combs: [0, 0, 1, -1, 2, -2], ctildes: [0.0054109785365047142, -0.053173491095892048, -0.01082195707300943, 0.10634698219178411, 0.01082195707300943, -0.10634698219178411]}
    - {mu0: 0, rank: 2, ndensity: 2, num_ms_combs: 1, mus: [0, 1], ns: [4, 3], ls: [0, 0], ms_combs: [0, 0], ctildes: [0.11906426695976936, 0.041697840368029052]}
    - {mu0: 0, rank: 2, ndensity: 2, num_ms_combs: 2, mus: [0, 1], ns: [4, 3], ls: [1, 1], ms_combs: [0, 0, 1, -1], ctildes: [0.019469246934238356, 0.091455797459299118, -0.038938493868476705, -0.18291159491859821]}
    - {mu0: 0, rank: 2, ndensity: 2, num_ms_combs: 1, mus: [0, 1], ns: [4, 4], ls: [0, 0], ms_combs: [0, 0], ctildes: [0.0038863473313570365, -0.10725274784834403]}
    - {mu0: 0, rank: 2, ndensity: 2, num_ms_combs: 2, mus: [0, 1], ns: [4, 4], ls: [1, 1], ms_combs: [0, 0, 1, -1], ctildes: [0.0010228523662345942, -0.010173248293141614, -0.0020457047324691879, 0.020346496586283222]}
    - {mu0: 0, rank: 2, ndensity: 2, num_ms_combs: 1, mus: [0, 1], ns: [4, 5], ls: [0, 0], ms_combs: [0, 0], ctildes: [-0.020361910632548844, 0.094360265002851038]}
    - {mu0: 0, rank: 2, ndensity: 2, num_ms_combs: 1, mus: [0, 1], ns: [4, 6], ls: [0, 0], ms_combs: [0, 0], ctildes: [0.0097769148722988298, -0.036779462354575479]}
    - {mu0: 0, rank: 2, ndensity: 2, num_ms_combs: 1, mus: [0, 1], ns: [5, 1], ls: [0, 0], ms_combs: [0, 0], ctildes: [-0.089628415917854309, 0.31056886453161248]}
    - {mu0: 0, rank: 2, ndensity: 2, num_ms_combs: 2, mus: [0, 1], ns: [5, 1], ls: [1, 1], ms_combs: [0, 0, 1, -1], ctildes: [-0.024092990110219606, 0.15172459200334953, 0.048185980220439198, -0.30344918400669896]}
    - {mu0: 0, rank: 2, ndensity: 2, num_ms_combs: 3, mus: [0, 1], ns: [5, 1], ls: [2, 2], ms_combs: [0, 0, 1, -1, 2, -2], ctildes: [0.002987798379706363, -0.0066145431609363585, -0.0059755967594127268, 0.013229086321872719, 0.0059755967594127268, -0.013229086321872719]}
    - {mu0: 0, rank: 2, ndensity: 2, num_ms_combs: 1, mus: [0, 1], ns: [5, 2], ls: [0, 0], ms_combs: [0, 0], ctildes: [0.049242966112754527, -0.17390298161322534]}
    - {mu0: 0, rank: 2, ndensity: 2, num_ms_combs: 2, mus: [0, 1], ns: [5, 2], ls: [1, 1], ms_combs: [0, 0, 1, -1], ctildes: [-0.0091104895878288614, 0.024113220519132717, 0.018220979175657719, -0.04822644103826542]}
    - {mu0: 0, rank: 2, ndensity: 2, num_ms_combs: 1, mus: [0, 1], ns: [5, 3], ls: [0, 0], ms_combs: [0, 0], ctildes: [-0.042637136042428012, 0.16025209278445507]}
    - {mu0: 0, rank: 2, ndensity: 2, num_ms_combs: 2, mus: [0, 1], ns: [5, 3], ls: [1, 1], ms_combs: [0, 0, 1, -1], ctildes: [0.0029244322949677163, -0.019933231606752526, -0.0058488645899354309, 0.039866463213505038]}
    - {mu0: 0, rank: 2, ndensity: 2, num_ms_combs: 1, mus: [0, 1], ns: [5, 4], ls: [0, 0], ms_combs: [0, 0], ctildes: [0.008894317655350481, -0.038917232780770798]}
    - {mu0: 0, rank: 2, ndensity: 2, num_ms_combs: 1, mus: [0, 1], ns: [5, 5], ls: [0, 0], ms_combs: [0, 0], ctildes: [-0.010485127081790706, 0.05646177240731598]}
    - {mu0: 0, rank: 2, ndensity: 2, num_ms_combs: 1, mus: [0, 1], ns: [6, 1], ls: [0, 0], ms_combs: [0, 0], ctildes: [0.022622999202458485, 0.26982706361745562]}
    - {mu0: 0, rank: 2, ndensity: 2, num_ms_combs: 2, mus: [0, 1], ns: [6, 1], ls: [1, 1], ms_combs: [0, 0, 1, -1], ctildes: [0.015460532062314694, -0.13823959948849415, -0.030921064124629381, 0.27647919897698825]}
    - {mu0: 0, rank: 2, ndensity: 2, num_ms_combs: 1, mus: [0, 1], ns: [6, 2], ls: [0, 0], ms_combs: [0, 0], ctildes: [-0.026308426176878525, -0.072607232566217164]}
    - {mu0: 0, rank: 2, ndensity: 2, num_ms_combs: 2, mus: [0, 1], ns: [6, 2], ls: [1, 1], ms_combs: [0, 0, 1, -1], ctildes: [0.0064814446255426423, -0.0082015614375862619, -0.012962889251085283, 0.01640312287517252]}
    - {mu0: 0, rank: 2, ndensity: 2, num_ms_combs: 1, mus: [0, 1], ns: [6, 3], ls: [0, 0], ms_combs: [0, 0], ctildes: [-0.0095328982990262982, 0.32450512192749942]}
    - {mu0: 0, rank: 2, ndensity: 2, num_ms_combs: 1, mus: [0, 1], ns: [6, 4], ls: [0, 0], ms_combs: [0, 0], ctildes: [0.010600468745383961, -0.10434514986741802]}
    - {mu0: 0, rank: 2, ndensity: 2, num_ms_combs: 1, mus: [1, 1], ns: [1, 1], ls: [0, 0], ms_combs: [0, 0], ctildes: [-0.32791845861460139, 0.15373433169600623]}
    - {mu0: 0, rank: 2, ndensity: 2, num_ms_combs: 2, mus: [1, 1], ns: [1, 1], ls: [1, 1], ms_combs: [0, 0, 1, -1], ctildes: [-0.60634227929154705, -0.23658039319170401, 1.2126845585830939, 0.47316078638340797]}
    - {mu0: 0, rank: 2, ndensity: 2, num_ms_combs: 3, mus: [1, 1], ns: [1, 1], ls: [2, 2], ms_combs: [0, 0, 1, -1, 2, -2], ctildes: [-0.061009845869847451, -0.14325121351606013, 0.12201969173969492, 0.28650242703212031, -0.12201969173969492, -0.28650242703212031]}
    - {mu0: 0, rank: 2, ndensity: 2, num_ms_combs: 4, mus: [1, 1], ns: [1, 1], ls: [3, 3], ms_combs: [0, 0, 1, -1, 2, -2, 3, -3], ctildes: [-0.042741694002053306, 0.03272392069264303, 0.085483388004106611, -0.06544784138528606, -0.085483388004106597, 0.065447841385286046, 0.085483388004106597, -0.065447841385286046]}
    - {mu0: 0, rank: 2, ndensity: 2, num_ms_combs: 1, mus: [1, 1], ns: [1, 2], ls: [0, 0], ms_combs: [0, 0], ctildes: [-0.65160850216045518, -0.10754654384621525]}
    - {mu0: 0, rank: 2, ndensity: 2, num_ms_combs: 2, mus: [1, 1], ns: [1, 2], ls: [1, 1], ms_combs: [0, 0, 1, -1], ctildes: [-0.11897749641922922, 0.15320546321069622, 0.23795499283845842, -0.30641092642139234]}
    - {mu0: 0, rank: 2, ndensity: 2, num_ms_combs: 3, mus: [1, 1], ns: [1, 2], ls: [2, 2], ms_combs: [0, 0, 1, -1, 2, -2], ctildes: [-0.20183814768165609, 0.20527272360476048, 0.40367629536331223, -0.41054544720952102, -0.40367629536331223, 0.41054544720952102]}
    - {mu0: 0, rank: 2, ndensity: 2, num_ms_combs: 4, mus: [1, 1], ns: [1, 2], ls: [3, 3], ms_combs: [0, 0, 1, -1, 2, -2, 3, -3], ctildes: [-0.016869182017992791, 0.020771889296157503, 0.033738364035985582, -0.041543778592315006, -0.033738364035985575, 0.041543778592314999, 0.033738364035985575, -0.041543778592314999]}
    - {mu0: 0, rank: 2, ndensity: 2, num_ms_combs: 1, mus: [1, 1], ns: [1, 3], ls: [0, 0], ms_combs: [0, 0], ctildes: [0.0019318286005282871, -0.27478680263903216]}
    - {mu0: 0, rank: 2, ndensity: 2, num_ms_combs: 2, mus: [1, 1], ns: [1, 3], ls: [1, 1], ms_combs: [0, 0, 1, -1], ctildes: [0.27045252560485339, 0.17851751622220291, -0.54090505120970667, -0.35703503244440576]}
    - {mu0: 0, rank: 2, ndensity: 2, num_ms_combs: 3, mus: [1, 1], ns: [1, 3], ls: [2, 2], ms_combs: [0, 0, 1, -1, 2, -2], ctildes: [-0.045109105022430519, 0.31603837915205324, 0.090218210044861052, -0.63207675830410648, -0.090218210044861052, 0.63207675830410648]}
    - {mu0: 0, rank: 2, ndensity: 2, num_ms_combs: 4, mus: [1, 1], ns: [1, 3], ls: [3, 3], ms_combs: [0, 0, 1, -1, 2, -2, 3, -3], ctildes: [-0.021567818285672606, 0.0060556694583837516, 0.043135636571345212, -0.012111338916767503, -0.043135636571345205, 0.012111338916767501, 0.043135636571345205, -0.012111338916767501]}
    - {mu0: 0, rank: 2, ndensity: 2, num_ms_combs: 1, mus: [1, 1], ns: [1, 4], ls: [0, 0], ms_combs: [0, 0], ctildes: [0.19067574358924758, 0.0035832540258421254]}
    - {mu0: 0, rank: 2, ndensity: 2, num_ms_combs: 2, mus: [1, 1], ns: [1, 4], ls: [1, 1], ms_combs: [0, 0, 1, -1], ctildes: [-0.44419568720153657, -0.23502316202252263, 0.88839137440307303, 0.47004632404504521]}
    - {mu0: 0, rank: 2, ndensity: 2, num_ms_combs: 3, mus: [1, 1], ns: [1, 4], ls: [2, 2], ms_combs: [0, 0, 1, -1, 2, -2], ctildes: [-0.056412371618084461, -0.16795739468312232, 0.11282474323616894, 0.33591478936624469, -0.11282474323616894, -0.33591478936624469]}
    - {mu0: 0, rank: 2, ndensity: 2, num_ms_combs: 1, mus: [1, 1], ns: [1, 5], ls: [0, 0], ms_combs: [0, 0], ctildes: [0.16043550764489509, -0.11357093953924538]}
    - {mu0: 0, rank: 2, ndensity: 2, num_ms_combs: 2, mus: [1, 1], ns: [1, 5], ls: [1, 1], ms_combs: [0, 0, 1, -1], ctildes: [0.12993248861344928, -0.054593640113159772, -0.2598649772268985, 0.10918728022631952]}
    - {mu0: 0, rank: 2, ndensity: 2, num_ms_combs: 3, mus: [1, 1], ns: [1, 5], ls: [2, 2], ms_combs: [0, 0, 1, -1, 2, -2], ctildes: [-0.01744213492523981, 0.02330551643909725, 0.03488426985047962, -0.046611032878194507, -0.03488426985047962, 0.046611032878194507]}
    - {mu0: 0, rank: 2, ndensity: 2, num_ms_combs: 1, mus: [1, 1], ns: [1, 6], ls: [0, 0], ms_combs: [0, 0], ctildes: [-0.13607694086752065, 0.15013603245522406]}
    - {mu0: 0, rank: 2, ndensity: 2, num_ms_combs: 2, mus: [1, 1], ns: [1, 6], ls: [1, 1], ms_combs: [0, 0, 1, -1], ctildes: [-0.04438235747425863, 0.17574892636883885, 0.088764714948517245, -0.35149785273767759]}
    - {mu0: 0, rank: 2, ndensity: 2, num_ms_combs: 1, mus: [1, 1], ns: [2, 2], ls: [0, 0], ms_combs: [0, 0], ctildes: [0.61149245928661733, 0.29271217744754646]}
    - {mu0: 0, rank: 2, ndensity: 2, num_ms_combs: 2, mus: [1, 1], ns: [2, 2], ls: [1, 1], ms_combs: [0, 0, 1, -1], ctildes: [0.00044876032977061504, 0.31198200970150092, -0.00089752065954122997, -0.62396401940300172]}
    - {mu0: 0, rank: 2, ndensity: 2, num_ms_combs: 3, mus: [1, 1], ns: [2, 2], ls: [2, 2], ms_combs: [0, 0, 1, -1, 2, -2], ctildes: [0.05145511773968927, -0.056249275080346224, -0.10291023547937854, 0.11249855016069246, 0.10291023547937854, -0.11249855016069246]}
    - {mu0: 0, rank: 2, ndensity: 2, num_ms_combs: 4, mus: [1, 1], ns: [2, 2], ls: [3, 3], ms_combs: [0, 0, 1, -1, 2, -2, 3, -3], ctildes: [-0.0056354891500791111, 0.048173578693865446, 0.011270978300158222, -0.096347157387730892, -0.01127097830015822, 0.096347157387730878, 0.01127097830015822, -0.096347157387730878]}
    - {mu0: 0, rank: 2, ndensity: 2, num_ms_combs: 1, mus: [1, 1], ns: [2, 3], ls: [0, 0], ms_combs: [0, 0], ctildes: [0.071560739192466402, 0.25532420671614053]}
    - {mu0: 0, rank: 2, ndensity: 2, num_ms_combs: 2, mus: [1, 1], ns: [2, 3], ls: [1, 1], ms_combs: [0, 0, 1, -1], ctildes: [-0.20955670679032448, 0.043691019613730293, 0.41911341358064891, -0.087382039227460573]}
    - {mu0: 0, rank: 2, ndensity: 2, num_ms_combs: 3, mus: [1, 1], ns: [2, 3], ls: [2, 2], ms_combs: [0, 0, 1, -1, 2, -2], ctildes: [0.0026766447039057177, 0.088472790223901865, -0.0053532894078114355, -0.17694558044780376, 0.0053532894078114355, 0.17694558044780376]}
    - {mu0: 0, rank: 2, ndensity: 2, num_ms_combs: 1, mus: [1, 1], ns: [2, 4], ls: [0, 0], ms_combs: [0, 0], ctildes: [-0.31234398930656787, 0.37906301304220735]}
    - {mu0: 0, rank: 2, ndensity: 2, num_ms_combs: 2, mus: [1, 1], ns: [2, 4], ls: [1, 1], ms_combs: [0, 0, 1, -1], ctildes: [0.12676824800537717, 0.031756329152719705, -0.25353649601075429, -0.063512658305439409]}
    - {mu0: 0, rank: 2, ndensity: 2, num_ms_combs: 3, mus: [1, 1], ns: [2, 4], ls: [2, 2], ms_combs: [0, 0, 1, -1, 2, -2], ctildes: [0.0090567210404511999, -0.034522576481081632, -0.0181134420809024, 0.069045152962163278, 0.0181134420809024, -0.069045152962163278]}
    - {mu0: 0, rank: 2, ndensity: 2, num_ms_combs: 1, mus: [1, 1], ns: [2, 5], ls: [0, 0], ms_combs: [0, 0], ctildes: [0.099505334836426249, -0.3268359642675126]}
    - {mu0: 0, rank: 2, ndensity: 2, num_ms_combs: 2, mus: [1, 1], ns: [2, 5], ls: [1, 1], ms_combs: [0, 0, 1, -1], ctildes: [0.0060266112397311059, -0.10739182290752096, -0.01205322247946221, 0.21478364581504186]}
    - {mu0: 0, rank: 2, ndensity: 2, num_ms_combs: 1, mus: [1, 1], ns: [2, 6], ls: [0, 0], ms_combs: [0, 0], ctildes: [-0.014451043606917797, 0.15239945439572397]}
    - {mu0: 0, rank: 2, ndensity: 2, num_ms_combs: 2, mus: [1, 1], ns: [2, 6], ls: [1, 1], ms_combs: [0, 0, 1, -1], ctildes: [-0.0061167144301329229, 0.045496318088056514, 0.012233428860265844, -0.090992636176113015]}
    - {mu0: 0, rank: 2, ndensity: 2, num_ms_combs: 1, mus: [1, 1], ns: [3, 3], ls: [0, 0], ms_combs: [0, 0], ctildes: [0.18818624157749728, 0.49201666989237253]}
    - {mu0: 0, rank: 2, ndensity: 2, num_ms_combs: 2, mus: [1, 1], ns: [3, 3], ls: [1, 1], ms_combs: [0, 0, 1, -1], ctildes: [0.32320246728310531, -0.072253219487932063, -0.64640493456621051, 0.1445064389758641]}
    - {mu0: 0, rank: 2, ndensity: 2, num_ms_combs: 3, mus: [1, 1], ns: [3, 3], ls: [2, 2], ms_combs: [0, 0, 1, -1, 2, -2], ctildes: [0.022602200910521862, 0.0018223305122479373, -0.045204401821043731, -0.0036446610244958749, 0.045204401821043731, 0.0036446610244958749]}
    - {mu0: 0, rank: 2, ndensity: 2, num_ms_combs: 1, mus: [1, 1], ns: [3, 4], ls: [0, 0], ms_combs: [0, 0], ctildes: [-0.069999366664827978, 0.15140896548059166]}
    - {mu0: 0, rank: 2, ndensity: 2, num_ms_combs: 2, mus: [1, 1], ns: [3, 4], ls: [1, 1], ms_combs: [0, 0, 1, -1], ctildes: [-0.19459657881285936, -0.18328923727656699, 0.3891931576257186, 0.36657847455313392]}
    - {mu0: 0, rank: 2, ndensity: 2, num_ms_combs: 1, mus: [1, 1], ns: [3, 5], ls: [0, 0], ms_combs: [0, 0], ctildes: [0.11589963279774798, -0.09565422149780671]}
    - {mu0: 0, rank: 2, ndensity: 2, num_ms_combs: 2, mus: [1, 1], ns: [3, 5], ls: [1, 1], ms_combs: [0, 0, 1, -1], ctildes: [0.027455447366082377, 0.096386641018694139, -0.054910894732164747, -0.19277328203738825]}
    - {mu0: 0, rank: 2, ndensity: 2, num_ms_combs: 1, mus: [1, 1], ns: [3, 6], ls: [0, 0], ms_combs: [0, 0], ctildes: [-0.10511715582926212, 0.096299353371506219]}
    - {mu0: 0, rank: 2, ndensity: 2, num_ms_combs: 1, mus: [1, 1], ns: [4, 4], ls: [0, 0], ms_combs: [0, 0], ctildes: [-0.0024412157683370733, -0.0052351354370139868]}
    - {mu0: 0, rank: 2, ndensity: 2, num_ms_combs: 2, mus: [1, 1], ns: [4, 4], ls: [1, 1], ms_combs: [0, 0, 1, -1], ctildes: [0.022176378239870825, 0.040850941496005724, -0.044352756479741642, -0.081701882992011435]}
    - {mu0: 0, rank: 2, ndensity: 2, num_ms_combs: 1, mus: [1, 1], ns: [4, 5], ls: [0, 0], ms_combs: [0, 0], ctildes: [-0.0028349577361552686, -0.025801460586791093]}
    - {mu0: 0, rank: 2, ndensity: 2, num_ms_combs: 1, mus: [1, 1], ns: [4, 6], ls: [0, 0], ms_combs: [0, 0], ctildes: [0.024582094638383505, -0.02739880314571394]}
    - {mu0: 0, rank: 2, ndensity: 2, num_ms_combs: 1, mus: [1, 1], ns: [5, 5], ls: [0, 0], ms_combs: [0, 0], ctildes: [-0.0082049496189482655, 0.027915935021009895]}
    - {mu0: 0, rank: 3, ndensity: 2, num_ms_combs: 1, mus: [0, 0, 0], ns: [1, 1, 1], ls: [0, 0, 0], ms_combs: [0, 0, 0], ctildes: [-0.032330257384064344, 0.054284556785098512]}
    - {mu0: 0, rank: 3, ndensity: 2, num_ms_combs: 2, mus: [0, 0, 0], ns: [1, 1, 1], ls: [0, 1, 1], ms_combs: [0, 0, 0, 0, 1, -1], ctildes: [0.24697791915973161, 0.20960615379290001, -0.4939558383194631, -0.41921230758579991]}
    - {mu0: 0, rank: 3, ndensity: 2, num_ms_combs: 3, mus: [0, 0, 0], ns: [1, 1, 1], ls: [0, 2, 2], ms_combs: [0, 0, 0, 0, 1, -1, 0, 2, -2], ctildes: [0.022186911004236781, 0.018461417976839031, -0.044373822008473569, -0.036922835953678068, 0.044373822008473569, 0.036922835953678068]}
    - {mu0: 0, rank: 3, ndensity: 2, num_ms_combs: 4, mus: [0, 0, 0], ns: [1, 1, 1], ls: [0, 3, 3], ms_combs: [0, 0, 0, 0, 1, -1, 0, 2, -2, 0, 3, -3], ctildes: [0.0083357489770210114, -0.036796424530531391, -0.016671497954042023, 0.073592849061062782, 0.016671497954042023, -0.073592849061062768, -0.016671497954042023, 0.073592849061062768]}
    - {mu0: 0, rank: 3, ndensity: 2, num_ms_combs: 4, mus: [0, 0, 0], ns: [1, 1, 1], ls: [1, 1, 2], ms_combs: [-1, 1, 0, 0, 0, 0, 0, 1, -1, 1, 1, -2], ctildes: [-0.014310011650587581, -0.019383433939210722, -0.01431001165058758, -0.019383433939210718, 0.049571334471440534, 0.067146184815735838, -0.035052226757222062, -0.04747952261401199]}
    - {mu0: 0, rank: 3, ndensity: 2, num_ms_combs: 8, mus: [0, 0, 0], ns: [1, 1, 1], ls: [1, 2, 3], ms_combs: [0, 0, 0, 0, 1, -1, 0, 2, -2, 1, -2, 1, 1, -1, 0, 1, 0, -1, 1, 1, -2, 1, 2, -3], ctildes: [0.0011002874306059126, -0.0072832742361622635, -0.0020747218758287028, 0.013733473604350956, 0.0016402116597489349, -0.010857264193887781, -0.00073352495373727497, 0.0048555161574415084, 0.0012705024884925704, -0.0084100006816602967, -0.0017967618502549604, 0.011893537023570967, 0.002319609574379428, -0.015354490273263889, -0.0028409299298520312, 0.018805333215011988]}
    - {mu0: 0, rank: 3, ndensity: 2, num_ms_combs: 5, mus: [0, 0, 0], ns: [1, 1, 1], ls: [2, 2, 2], ms_combs: [-2, 0, 2, -2, 1, 1, -1, -1, 2, -1, 0, 1, 0, 0, 0], ctildes: [0.1271755808985443, -0.56676465689673239, -0.10383842698115886, 0.46276140454685777, -0.05191921349057943, 0.23138070227342888, 0.063587790449272139, -0.28338232844836614, -0.021195930149757378, 0.094460776149455375]}
    - {mu0: 0, rank: 3, ndensity: 2, num_ms_combs: 9, mus: [0, 0, 0], ns: [1, 1, 1], ls: [2, 3, 3], ms_combs: [0, -3, 3, 0, -1, 1, 0, 0, 0, 1, -3, 2, 1, -2, 1, 1, -1, 0, 2, -3, 1, 2, -2, 0, 2, -1, -1], ctildes: [-0.013979630152765219, 0.073509053996687945, 0.0083877780916591302, -0.044105432398012762, -0.0055918520611060877, 0.02940362159867518, 0.027959260305530437, -0.14701810799337589, -0.021657149907119498, 0.11387973676985369, 0.0079080730236001737, -0.041583000447732901, -0.017682988851802282, 0.092982415709534944, 0.025007522657511039, -0.13149699335863749, -0.013697184266840334, 0.072023869506632768]}
    - {mu0: 0, rank: 3, ndensity: 2, num_ms_combs: 1, mus: [0, 0, 0], ns: [1, 1, 2], ls: [0, 0, 0], ms_combs: [0, 0, 0], ctildes: [-0.20866206445519725, -0.47906335331755495]}
    - {mu0: 0, rank: 3, ndensity: 2, num_ms_combs: 2, mus: [0, 0, 0], ns: [1, 1, 2], ls: [0, 1, 1], ms_combs: [0, 0, 0, 0, 1, -1], ctildes: [-0.00708088582208527, -0.0016419048429697485, 0.014161771644170538, 0.0032838096859394961]}
    - {mu0: 0, rank: 3, ndensity: 2, num_ms_combs: 3, mus: [0, 0, 0], ns: [1, 1, 2], ls: [0, 2, 2], ms_combs: [0, 0, 0, 0, 1, -1, 0, 2, -2], ctildes: [0.020511021034625349, -0.094727458257137395, -0.041022042069250697, 0.18945491651427482, 0.041022042069250697, -0.18945491651427482]}
    - {mu0: 0, rank: 3, ndensity: 2, num_ms_combs: 4, mus: [0, 0, 0], ns: [1, 1, 2], ls: [0, 3, 3], ms_combs: [0, 0, 0, 0, 1, -1, 0, 2, -2, 0, 3, -3], ctildes: [-0.0047176842924024657, 0.023744094796518369, 0.0094353685848049314, -0.047488189593036738, -0.0094353685848049314, 0.047488189593036731, 0.0094353685848049314, -0.047488189593036731]}
    - {mu0: 0, rank: 3, ndensity: 2, num_ms_combs: 2, mus: [0, 0, 0], ns: [1, 1, 2], ls: [1, 1, 0], ms_combs: [0, 0, 0, 1, -1, 0], ctildes: [-0.080245569510092624, 0.13057723496796211, 0.16049113902018522, -0.26115446993592423]}
    - {mu0: 0, rank: 3, ndensity: 2, num_ms_combs: 4, mus: [0, 0, 0], ns: [1, 1, 2], ls: [1, 1, 2], ms_combs: [-1, 1, 0, 0, 0, 0, 0, 1, -1, 1, 1, -2], ctildes: [-0.039660229798842046, 0.15023722021458127, -0.039660229798842039, 0.15023722021458127, 0.13738706610290327, -0.52043699719913761, -0.097147326088687341, 0.36800452989987442]}
    - {mu0: 0, rank: 3, ndensity: 2, num_ms_combs: 5, mus: [0, 0, 0], ns: [1, 1, 2], ls: [1, 2, 1], ms_combs: [0, 0, 0, 0, 1, -1, 1, -2, 1, 1, -1, 0, 1, 0, -1], ctildes: [0.044095059089748596, -0.0066608421476129437, -0.076374882706196426, 0.011536917020861815, 0.10801039494775733, -0.01631566451887578, -0.076374882706196426, 0.011536917020861815, 0.044095059089748589, -0.0066608421476129429]}
    - {mu0: 0, rank: 3, ndensity: 2, num_ms_combs: 8, mus: [0, 0, 0], ns: [1, 1, 2], ls: [1, 2, 3], ms_combs: [0, 0, 0, 0, 1, -1, 0, 2, -2, 1, -2, 1, 1, -1, 0, 1, 0, -1, 1, 1, -2, 1, 2, -3], ctildes: [0.0066302398408517784, -0.036208168232655463, -0.012502100139625353, 0.068274776777744017, 0.0098837779941813048, -0.053975950339310672, -0.0044201598939011847, 0.024138778821770304, 0.0076559415138151097, -0.041809591351973763, -0.010827136321572534, 0.059127691127238174, 0.013977772886855947, -0.076333521011829802, -0.017119205656653227, 0.093489088374500665]}
    - {mu0: 0, rank: 3, ndensity: 2, num_ms_combs: 8, mus: [0, 0, 0], ns: [1, 1, 2], ls: [1, 3, 2], ms_combs: [0, 0, 0, 0, 1, -1, 0, 2, -2, 1, -3, 2, 1, -2, 1, 1, -1, 0, 1, 0, -1, 1, 1, -2], ctildes: [0.00026238674687876449, 0.002333607161251174, -0.00049476119469720695, -0.0044002918622565194, 0.00039114306827729895, 0.0034787361635586268, -0.00067747966728466398, -0.0060253477814107758, 0.00055315983198598164, 0.0049196758624223584, -0.00042847576341451991, -0.0038107645367800812, 0.00030297811788448985, 0.0026946174454624081, -0.00017492449791917637, -0.0015557381075007829]}
    - {mu0: 0, rank: 3, ndensity: 2, num_ms_combs: 3, mus: [0, 0, 0], ns: [1, 1, 2], ls: [2, 2, 0], ms_combs: [0, 0, 0, 1, -1, 0, 2, -2, 0], ctildes: [-0.0028191534070101084, -0.06140470867709398, 0.0056383068140202176, 0.12280941735418797, -0.0056383068140202176, -0.12280941735418797]}
    - {mu0: 0, rank: 3, ndensity: 2, num_ms_combs: 8, mus: [0, 0, 0], ns: [1, 1, 2], ls: [2, 2, 2], ms_combs: [-2, 1, 1, -2, 2, 0, -1, 1, 0, -1, 2, -1, 0, 0, 0, 0, 1, -1, 0, 2, -2, 1, 1, -2], ctildes: [0.015749821817334218, -0.14322036577923719, -0.012859675664074288, 0.11693893897796541, -0.0064298378320371448, 0.058469469488982712, 0.015749821817334218, -0.14322036577923719, 0.0064298378320371448, -0.058469469488982712, -0.01285967566407429, 0.11693893897796542, -0.02571935132814859, 0.23387787795593093, 0.015749821817334215, -0.14322036577923716]}
    - {mu0: 0, rank: 3, ndensity: 2, num_ms_combs: 8, mus: [0, 0, 0], ns: [1, 1, 2], ls: [2, 3, 1], ms_combs: [0, 0, 0, 0, 1, -1, 1, -2, 1, 1, -1, 0, 1, 0, -1, 2, -3, 1, 2, -2, 0, 2, -1, -1], ctildes: [0.0080170849283950924, -0.051649358825277596, -0.013091844866083587, 0.084343049775896822, 0.016901499045824268, -0.10888640905013056, -0.015117160315244363, 0.097390964984776104, 0.0092573322830499915, -0.059639542442491159, -0.020700024275203108, 0.13335807104839409, 0.011951164587520305, -0.076994318218399582, -0.005344723285596726, 0.034432905883518383]}
    - {mu0: 0, rank: 3, ndensity: 2, num_ms_combs: 14, mus: [0, 0, 0], ns: [1, 1, 2], ls: [2, 3, 3], ms_combs: [0, 0, 0, 0, 1, -1, 0, 3, -3, 1, -3, 2, 1, -2, 1, 1, -1, 0, 1, 0, -1, 1, 1, -2, 1, 2, -3, 2, -3, 1, 2, -2, 0, 2, -1, -1, 2, 0, -2, 2, 1, -3], ctildes: [0.0018361871075774489, -0.012895911058097041, -0.0027542806613661728, 0.019343866587145556, 0.0045904677689436223, -0.0322397776452426, -0.0045904677689436223, 0.0322397776452426, 0.0035557610440841133, -0.024972824381090952, -0.0012983803552953262, 0.0091187861587589975, -0.0012983803552953273, 0.0091187861587590045, 0.0035557610440841137, -0.024972824381090955, -0.0045904677689436223, 0.0322397776452426, 0.0029032667350906796, -0.020390225723269317, -0.0041058391919518954, 0.028836133757696222, 0.004497721485841673, -0.031588401860652864, -0.0041058391919518945, 0.028836133757696218, 0.0029032667350906791, -0.020390225723269314]}
    - {mu0: 0, rank: 3, ndensity: 2, num_ms_combs: 4, mus: [0, 0, 0], ns: [1, 1, 2], ls: [3, 3, 0], ms_combs: [0, 0, 0, 1, -1, 0, 2, -2, 0, 3, -3, 0], ctildes: [-0.0088901405871721316, 0.046427233790203179, 0.017780281174344263, -0.092854467580406358, -0.01778028117434426, 0.092854467580406344, 0.01778028117434426, -0.092854467580406344]}
    - {mu0: 0, rank: 3, ndensity: 2, num_ms_combs: 12, mus: [0, 0, 0], ns: [1, 1, 2], ls: [3, 3, 2], ms_combs: [-3, 1, 2, -3, 2, 1, -3, 3, 0, -2, 1, 1, -2, 3, -1, -1, 1, 0, -1, 2, -1, -1, 3, -2, 0, 0, 0, 0, 1, -1, 0, 2, -2, 1, 1, -2], ctildes: [0.0044452117568358224, -0.027291177311398188, -0.0070284969166798782, 0.04315114016576431, 0.0070284969166798774, -0.043151140165764303, 0.0054442503014342693, -0.033424729446373425, -0.0070284969166798782, 0.04315114016576431, -0.0042170981500079252, 0.025890684099458577, 0.0054442503014342693, -0.033424729446373425, 0.0044452117568358224, -0.027291177311398188, 0.0028113987666719513, -0.017260456066305722, -0.0039759182650664681, 0.024409971061714525, -0.01257295750827511, 0.077191106173816457, 0.0068864924418362223, -0.042279310090175555]}
    - {mu0: 0, rank: 3, ndensity: 2, num_ms_combs: 1, mus: [0, 0, 0], ns: [1, 1, 3], ls: [0, 0, 0], ms_combs: [0, 0, 0], ctildes: [0.089537544522680923, -0.16558940472527292]}
    - {mu0: 0, rank: 3, ndensity: 2, num_ms_combs: 2, mus: [0, 0, 0], ns: [1, 1, 3], ls: [0, 1, 1], ms_combs: [0, 0, 0, 0, 1, -1], ctildes: [0.048235825974462535, -0.20750579497103844, -0.096471651948925055, 0.41501158994207676]}
    - {mu0: 0, rank: 3, ndensity: 2, num_ms_combs: 3, mus: [0, 0, 0], ns: [1, 1, 3], ls: [0, 2, 2], ms_combs: [0, 0, 0, 0, 1, -1, 0, 2, -2], ctildes: [0.021103672366877674, -0.066598826064582548, -0.042207344733755356, 0.13319765212916512, 0.042207344733755356, -0.13319765212916512]}
    - {mu0: 0, rank: 3, ndensity: 2, num_ms_combs: 4, mus: [0, 0, 0], ns: [1, 1, 3], ls: [0, 3, 3], ms_combs: [0, 0, 0, 0, 1, -1, 0, 2, -2, 0, 3, -3], ctildes: [0.0041854094816238712, -0.017840895760661217, -0.0083708189632477423, 0.035681791521322434, 0.0083708189632477406, -0.035681791521322427, -0.0083708189632477406, 0.035681791521322427]}
    - {mu0: 0, rank: 3, ndensity: 2, num_ms_combs: 2, mus: [0, 0, 0], ns: [1, 1, 3], ls: [1, 1, 0], ms_combs: [0, 0, 0, 1, -1, 0], ctildes: [0.031383654970615411, -0.033731734841355415, -0.062767309941230823, 0.067463469682710817]}
    - {mu0: 0, rank: 3, ndensity: 2, num_ms_combs: 4, mus: [0, 0, 0], ns: [1, 1, 3], ls: [1, 1, 2], ms_combs: [-1, 1, 0, 0, 0, 0, 0, 1, -1, 1, 1, -2], ctildes: [-0.009109794585468187, 0.016557473157382544, -0.0091097945854681853, 0.016557473157382541, 0.031557254137093524, -0.057356769507088894, -0.022314348395966056, 0.040557360665416341]}
    - {mu0: 0, rank: 3, ndensity: 2, num_ms_combs: 5, mus: [0, 0, 0], ns: [1, 1, 3], ls: [1, 2, 1], ms_combs: [0, 0, 0, 0, 1, -1, 1, -2, 1, 1, -1, 0, 1, 0, -1], ctildes: [-0.030445882090032416, -0.027277402888388813, 0.05273381466118747, 0.047245847701215475, -0.074576875889520472, -0.066815718584872633, 0.05273381466118747, 0.047245847701215475, -0.030445882090032413, -0.02727740288838881]}
    - {mu0: 0, rank: 3, ndensity: 2, num_ms_combs: 8, mus: [0, 0, 0], ns: [1, 1, 3], ls: [1, 2, 3], ms_combs: [0, 0, 0, 0, 1, -1, 0, 2, -2, 1, -2, 1, 1, -1, 0, 1, 0, -1, 1, 1, -2, 1, 2, -3], ctildes: [0.0043384156759199727, -0.023201436522841633, -0.0081805950507974189, 0.043749048262854799, 0.006467328244005169, -0.034586659493813482, -0.0028922771172799817, 0.015467624348561086, 0.0050095709166977764, -0.026790711244097258, -0.0070846031320638148, 0.037887787187023722, 0.0091461833149906833, -0.048912922933331188, -0.011201741107842163, 0.05990585150736942]}
    - {mu0: 0, rank: 3, ndensity: 2, num_ms_combs: 8, mus: [0, 0, 0], ns: [1, 1, 3], ls: [1, 3, 2], ms_combs: [0, 0, 0, 0, 1, -1, 0, 2, -2, 1, -3, 2, 1, -2, 1, 1, -1, 0, 1, 0, -1, 1, 1, -2], ctildes: [0.0087834317428416454, -0.038693913760146754, -0.016562197726540013, 0.072961943494525977, 0.013093566968482254, -0.057681480988801784, -0.02267872324171686, 0.099907255728422947, 0.018517099986667972, -0.081573932712129316, -0.014343283973684527, 0.06318689657574425, 0.010142233362276661, -0.0446798830508418, -0.005855621161894432, 0.025795942506764508]}
    - {mu0: 0, rank: 3, ndensity: 2, num_ms_combs: 3, mus: [0, 0, 0], ns: [1, 1, 3], ls: [2, 2, 0], ms_combs: [0, 0, 0, 1, -1, 0, 2, -2, 0], ctildes: [0.028609595417012686, -0.11737728915370481, -0.05721919083402538, 0.23475457830740964, 0.05721919083402538, -0.23475457830740964]}
    - {mu0: 0, rank: 3, ndensity: 2, num_ms_combs: 8, mus: [0, 0, 0], ns: [1, 1, 3], ls: [2, 2, 2], ms_combs: [-2, 1, 1, -2, 2, 0, -1, 1, 0, -1, 2, -1, 0, 0, 0, 0, 1, -1, 0, 2, -2, 1, 1, -2], ctildes: [0.020494474022894026, -0.071284443112144852, -0.016733667967605066, 0.058203504074403237, -0.0083668339838025331, 0.029101752037201622, 0.020494474022894026, -0.071284443112144852, 0.0083668339838025331, -0.029101752037201622, -0.016733667967605066, 0.058203504074403244, -0.033467335935210146, 0.11640700814880653, 0.020494474022894022, -0.071284443112144838]}
    - {mu0: 0, rank: 3, ndensity: 2, num_ms_combs: 8, mus: [0, 0, 0], ns: [1, 1, 3], ls: [2, 3, 1], ms_combs: [0, 0, 0, 0, 1, -1, 1, -2, 1, 1, -1, 0, 1, 0, -1, 2, -3, 1, 2, -2, 0, 2, -1, -1], ctildes: [-0.010691694500045291, 0.054845704000838789, 0.017459464007221502, -0.089562659590517915, -0.022540071111225565, 0.11562489634537332, 0.02016045248895184, -0.10341805124784871, -0.012345705395388776, 0.063330363937557588, 0.027605836494275227, -0.14161099880418004, -0.0159382371311746, 0.081759148279805127, 0.0071277963333635256, -0.036563802667225843]}
    - {mu0: 0, rank: 3, ndensity: 2, num_ms_combs: 14, mus: [0, 0, 0], ns: [1, 1, 3], ls: [2, 3, 3], ms_combs: [0, 0, 0, 0, 1, -1, 0, 3, -3, 1, -3, 2, 1, -2, 1, 1, -1, 0, 1, 0, -1, 1, 1, -2, 1, 2, -3, 2, -3, 1, 2, -2, 0, 2, -1, -1, 2, 0, -2, 2, 1, -3], ctildes: [-0.0013459713120378674, 0.0074773168912937579, 0.0020189569680568007, -0.011215975336940635, -0.0033649282800946685, 0.018693292228234393, 0.0033649282800946685, -0.018693292228234393, -0.0026064622379978037, 0.014479761897148068, 0.00095174544202453019, -0.0052872614789145284, 0.00095174544202453095, -0.0052872614789145327, -0.0026064622379978041, 0.014479761897148072, 0.0033649282800946685, -0.018693292228234393, -0.0021281675056424353, 0.011822676081668962, 0.0030096833494812529, -0.016719788858240249, -0.0032969429229171726, 0.018315611028763459, 0.0030096833494812525, -0.016719788858240249, -0.0021281675056424349, 0.011822676081668959]}
    - {mu0: 0, rank: 3, ndensity: 2, num_ms_combs: 4, mus: [0, 0, 0], ns: [1, 1, 3], ls: [3, 3, 0], ms_combs: [0, 0, 0, 1, -1, 0, 2, -2, 0, 3, -3, 0], ctildes: [0.011057893496180395, -0.058907252768037141, -0.022115786992360789, 0.11781450553607428, 0.022115786992360786, -0.11781450553607427, -0.022115786992360786, 0.11781450553607427]}
    - {mu0: 0, rank: 3, ndensity: 2, num_ms_combs: 12, mus: [0, 0, 0], ns: [1, 1, 3], ls: [3, 3, 2], ms_combs: [-3, 1, 2, -3, 2, 1, -3, 3, 0, -2, 1, 1, -2, 3, -1, -1, 1, 0, -1, 2, -1, -1, 3, -2, 0, 0, 0, 0, 1, -1, 0, 2, -2, 1, 1, -2], ctildes: [-0.0047051247603200185, 0.026977416737334437, 0.0074394554589325467, -0.04265504113876261, -0.0074394554589325458, 0.042655041138762603, -0.0057625774194595223, 0.033040452792443969, 0.0074394554589325467, -0.04265504113876261, 0.0044636732753595264, -0.025593024683257557, -0.0057625774194595223, 0.033040452792443969, -0.0047051247603200185, 0.026977416737334437, -0.0029757821835730185, 0.017062016455505043, 0.0042083915226771877, -0.024129335072808168, 0.013308102497404059, -0.07630365725545861, -0.0072891479354190375, 0.041793234298957399]}
    - {mu0: 0, rank: 3, ndensity: 2, num_ms_combs: 1, mus: [0, 0, 0], ns: [1, 1, 4], ls: [0, 0, 0], ms_combs: [0, 0, 0], ctildes: [-0.01104926307977137, 0.043065301951650717]}
    - {mu0: 0, rank: 3, ndensity: 2, num_ms_combs: 2, mus: [0, 0, 0], ns: [1, 1, 4], ls: [0, 1, 1], ms_combs: [0, 0, 0, 0, 1, -1], ctildes: [-0.0034180194399711658, 0.010519497383414156, 0.0068360388799423308, -0.021038994766828308]}
    - {mu0: 0, rank: 3, ndensity: 2, num_ms_combs: 3, mus: [0, 0, 0], ns: [1, 1, 4], ls: [0, 2, 2], ms_combs: [0, 0, 0, 0, 1, -1, 0, 2, -2], ctildes: [0.00097648767573013629, -0.023926994986892602, -0.0019529753514602728, 0.047853989973785212, 0.0019529753514602728, -0.047853989973785212]}
    - {mu0: 0, rank: 3, ndensity: 2, num_ms_combs: 4, mus: [0, 0, 0], ns: [1, 1, 4], ls: [0, 3, 3], ms_combs: [0, 0, 0, 0, 1, -1, 0, 2, -2, 0, 3, -3], ctildes: [-0.0025786896609678849, 0.0095673630002510533, 0.0051573793219357698, -0.019134726000502107, -0.0051573793219357698, 0.019134726000502103, 0.0051573793219357698, -0.019134726000502103]}
    - {mu0: 0, rank: 3, ndensity: 2, num_ms_combs: 2, mus: [0, 0, 0], ns: [1, 1, 4], ls: [1, 1, 0], ms_combs: [0, 0, 0, 1, -1, 0], ctildes: [-0.027003622511478885, 0.066075907946210238, 0.054007245022957756, -0.13215181589242045]}
    - {mu0: 0, rank: 3, ndensity: 2, num_ms_combs: 4, mus: [0, 0, 0], ns: [1, 1, 4], ls: [1, 1, 2], ms_combs: [-1, 1, 0, 0, 0, 0, 0, 1, -1, 1, 1, -2], ctildes: [0.020082693345427543, -0.09093781390770013, 0.020082693345427539, -0.090937813907700116, -0.06956849045421179, 0.31501782803476064, 0.049192351357084753, -0.2227512423980369]}
    - {mu0: 0, rank: 3, ndensity: 2, num_ms_combs: 5, mus: [0, 0, 0], ns: [1, 1, 4], ls: [1, 2, 1], ms_combs: [0, 0, 0, 0, 1, -1, 1, -2, 1, 1, -1, 0, 1, 0, -1], ctildes: [-0.0041760184779215739, -0.032976793388151279, 0.0072330761771066164, 0.057117481618979435, -0.010229114427341915, -0.080776317154156674, 0.0072330761771066164, 0.057117481618979435, -0.0041760184779215731, -0.032976793388151272]}
    - {mu0: 0, rank: 3, ndensity: 2, num_ms_combs: 8, mus: [0, 0, 0], ns: [1, 1, 4], ls: [1, 2, 3], ms_combs: [0, 0, 0, 0, 1, -1, 0, 2, -2, 1, -2, 1, 1, -1, 0, 1, 0, -1, 1, 1, -2, 1, 2, -3], ctildes: [-0.0049542100540232344, 0.029646503596877934, 0.0093417480656597367, -0.055901983284863357, -0.007385300303739236, 0.044194398225207376, 0.0033028067026821561, -0.019764335731251956, -0.0057206290166245287, 0.034232833664377363, 0.0080901911406154707, -0.048412537646624731, -0.010444391851746166, 0.06250031735100571, 0.012791715355230219, -0.076546943135990989]}
    - {mu0: 0, rank: 3, ndensity: 2, num_ms_combs: 8, mus: [0, 0, 0], ns: [1, 1, 4], ls: [1, 3, 2], ms_combs: [0, 0, 0, 0, 1, -1, 0, 2, -2, 1, -3, 2, 1, -2, 1, 1, -1, 0, 1, 0, -1, 1, 1, -2], ctildes: [0.0054838840770363665, -0.023484144974854737, -0.010340510981635593, 0.044282128432234065, 0.0081748917179880094, -0.035008096371490202, -0.014159327801929255, 0.060635801591688673, 0.011561042738510132, -0.04950892468142578, -0.0089551451982083866, 0.038349448155959878, 0.0063322438961632994, -0.027117154845841169, -0.0036559227180242449, 0.015656096649903164]}
    - {mu0: 0, rank: 3, ndensity: 2, num_ms_combs: 3, mus: [0, 0, 0], ns: [1, 1, 4], ls: [2, 2, 0], ms_combs: [0, 0, 0, 1, -1, 0, 2, -2, 0], ctildes: [0.0085425988787512525, -0.06802339051957855, -0.017085197757502505, 0.13604678103915713, 0.017085197757502505, -0.13604678103915713]}
    - {mu0: 0, rank: 3, ndensity: 2, num_ms_combs: 8, mus: [0, 0, 0], ns: [1, 1, 4], ls: [2, 2, 2], ms_combs: [-2, 1, 1, -2, 2, 0, -1, 1, 0, -1, 2, -1, 0, 0, 0, 0, 1, -1, 0, 2, -2, 1, 1, -2], ctildes: [0.0047268509645071169, -0.032684505267737286, -0.0038594576510749836, 0.026686786800421733, -0.001929728825537492, 0.013343393400210868, 0.0047268509645071169, -0.032684505267737286, 0.001929728825537492, -0.013343393400210868, -0.003859457651074984, 0.026686786800421736, -0.0077189153021499706, 0.053373573600843494, 0.004726850964507116, -0.032684505267737279]}
    - {mu0: 0, rank: 3, ndensity: 2, num_ms_combs: 8, mus: [0, 0, 0], ns: [1, 1, 4], ls: [2, 3, 1], ms_combs: [0, 0, 0, 0, 1, -1, 1, -2, 1, 1, -1, 0, 1, 0, -1, 2, -3, 1, 2, -2, 0, 2, -1, -1], ctildes: [-0.0082574355198198612, 0.046480848338550304, 0.013484335738328147, -0.075902907494092967, -0.017408202583071471, 0.097990232217781414, 0.0155703697367341, -0.087645128147979701, -0.0095348652403679443, 0.053671460600848354, 0.021320606833762596, -0.12001303435519864, -0.012309458094759012, 0.069289557691237749, 0.0055049570132132382, -0.030987232225700191]}
