DATE: 2024-04-25 CONTRIBUTOR: Paul Lafourcade
Generated from read_eam_file.py
XX
1 Sn
5000 2.000000000000e-03 5000 1.600000000000e-03 8.000000000000e+00
50 118.6900 5.4100 bcc
0.0000000000000000e+00
-1.5803283574879456e-01
-2.3721084806825832e-01
-2.9945619967856696e-01
-3.5246826374701451e-01
-3.9938188695877658e-01
-4.4185791542136715e-01
-4.8090722211664066e-01
-5.1720133690490722e-01
-5.5121427468769446e-01
-5.8329593547847658e-01
-6.1371364162314268e-01
-6.4267728082082054e-01
-6.7035534937463181e-01
-6.9688563331680264e-01
-7.2238257294895958e-01
-7.4694249199027873e-01
-7.7064740454491532e-01
-7.9356784710238570e-01
-8.1576502522416949e-01
-8.3729246786815004e-01
-8.5819732109052727e-01
-8.7852137305174904e-01
-8.9830187572788411e-01
-9.1757221067342309e-01
-9.3636243365217087e-01
-9.5469972410566317e-01
-9.7260875908178679e-01
-9.9011202662720477e-01
-1.0072300902407949e+00
-1.0239818134425569e+00
-1.0403845515929673e+00
-1.0564543166337230e+00
-1.0722059192932976e+00
-1.0876530924246368e+00
-1.1028085984558136e+00
-1.1176843233923148e+00
-1.1322913593783501e+00
-1.1466400774790888e+00
-1.1607401920671927e+00
-1.1746008179710736e+00
-1.1882305213579600e+00
-1.2016373651736265e+00
-1.2148289498359530e+00
-1.2278124497761351e+00
-1.2405946463353468e+00
-1.2531819574527101e+00
-1.2655804645200226e+00
-1.2777959367277456e+00
-1.2898338531836437e+00
-1.3016994230488415e+00
-1.3133976039048290e+00
-1.3249331185382500e+00
-1.3363104703073614e+00
-1.3475339572343423e+00
-1.3586076849505802e+00
-1.3695355786073087e+00
-1.3803213938511725e+00
-1.3909687269531315e+00
-1.4014810241693905e+00
-1.4118615904045300e+00
-1.4221135972395325e+00
-1.4322400903808523e+00
-1.4422439965808751e+00
-1.4521281300750271e+00
-1.4618951985762598e+00
-1.4715478088636484e+00
-1.4810884719982758e+00
-1.4905196081964145e+00
-1.4998435513872010e+00
-1.5090625534794717e+00
-1.5181787883601865e+00
-1.5271943556448395e+00
-1.5361112841984514e+00
-1.5449315354441051e+00
-1.5536570064745228e+00
-1.5622895329808661e+00
-1.5708308920117360e+00
-1.5792828045742910e+00
-1.5876469380884006e+00
-1.5959249087038909e+00
-1.6041182834901178e+00
-1.6122285825063865e+00
-1.6202572807610609e+00
-1.6282058100666124e+00
-1.6360755607972934e+00
-1.6438678835556362e+00
-1.6515840907534902e+00
-1.6592254581129200e+00
-1.6667932260918743e+00
-1.6742886012391995e+00
-1.6817127574832396e+00
-1.6890668373579634e+00
-1.6963519531702957e+00
-1.7035691881120651e+00
-1.7107195973197538e+00
-1.7178042088850203e+00
-1.7248240248187683e+00
-1.7317800219713526e+00
-1.7386731529113344e+00
-1.7455043467650593e+00
-1.7522745100191737e+00
-1.7589845272880578e+00
-1.7656352620480464e+00
-1.7722275573401709e+00
-1.7787622364430673e+00
-1.7852401035175831e+00
-1.7916619442245274e+00
-1.7980285263169258e+00
-1.8043406002080493e+00
-1.8105988995164319e+00
-1.8168041415889946e+00
-1.8229570280033542e+00
-1.8290582450503181e+00
-1.8351084641975117e+00
-1.8411083425350387e+00
-1.8470585232040184e+00
-1.8529596358087950e+00
-1.8588122968135807e+00
-1.8646171099242408e+00
-1.8703746664559022e+00
-1.8760855456870162e+00
-1.8817503152004957e+00
-1.8873695312124814e+00
-1.8929437388893016e+00
-1.8984734726531247e+00
-1.9039592564768058e+00
-1.9094016041683814e+00
-1.9148010196456640e+00
-1.9201579972013492e+00
-1.9254730217590319e+00
-1.9307465691205175e+00
-1.9359791062047809e+00
-1.9411710912789191e+00
-1.9463229741814254e+00
-1.9514351965380907e+00
-1.9565081919708303e+00
-1.9615423862997217e+00
-1.9665381977385121e+00
-1.9714960370838652e+00
-1.9764163078985773e+00
-1.9812994066890086e+00
-1.9861457230769417e+00
-1.9909556399660882e+00
-1.9957295337034404e+00
-2.0004677742356658e+00
-2.0051707252607258e+00
-2.0098387443748997e+00
-2.0144721832153811e+00
-2.0190713875986135e+00
-2.0236366976545077e+00
-2.0281684479567068e+00
-2.0326669676490270e+00
-2.0371325805682177e+00
-2.0415656053631697e+00
-2.0459663556106911e+00
-2.0503351399279874e+00
-2.0546722620819340e+00
-2.0589780210952799e+00
-2.0632527113498642e+00
-2.0674966226869671e+00
-2.0717100405048763e+00
-2.0758932458537718e+00
-2.0800465155280179e+00
-2.0841701221559448e+00
-2.0882643342872074e+00
-2.0923294164777966e+00
-2.0963656293727850e+00
-2.1003732297868747e+00
-2.1043524707828207e+00
-2.1083036017478043e+00
-2.1122268684678058e+00
-2.1161225132000601e+00
-2.1199907747436399e+00
-2.1238318885082323e+00
-2.1276460865811644e+00
-2.1314335977927317e+00
-2.1351946477798802e+00
-2.1389294590482963e+00
-2.1426382510329480e+00
-2.1463212401571283e+00
-2.1499786398900453e+00
-2.1536106608030017e+00
-2.1572175106242062e+00
-2.1607993942922530e+00
-2.1643565140083210e+00
-2.1678890692871162e+00
-2.1713972570065994e+00
-2.1748812714565382e+00
-2.1783413043859134e+00
-2.1817775450492101e+00
-2.1851901802516323e+00
-2.1885793943932668e+00
-2.1919453695122244e+00
-2.1952882853267925e+00
-2.1986083192766266e+00
-2.2019056465629960e+00
-2.2051804401881312e+00
-2.2084328709936734e+00
-2.2116631076982731e+00
-2.2148713169343419e+00
-2.2180576632839957e+00
-2.2212223093142001e+00
-2.2243654156111470e+00
-2.2274871408138797e+00
-2.2305876416471855e+00
-2.2336670729537751e+00
-2.2367255877257728e+00
-2.2397633371355292e+00
-2.2427804705657781e+00
-2.2457771356391496e+00
-2.2487534782470648e+00
-2.2517096425780192e+00
-2.2546457711452743e+00
-2.2575620048139751e+00
-2.2604584828277003e+00
-2.2633353428344707e+00
-2.2661927209122172e+00
-2.2690307515937311e+00
-2.2718495678911066e+00
-2.2746493013196876e+00
-2.2774300819215290e+00
-2.2801920382883902e+00
-2.2829352975842658e+00
-2.2856599855674724e+00
-2.2883662266122902e+00
-2.2910541437301863e+00
-2.2937238585906132e+00
-2.2963754915414043e+00
-2.2990091616287769e+00
-2.3016249866169356e+00
-2.3042230830073067e+00
-2.3068035660574031e+00
-2.3093665497993210e+00
-2.3119121470578903e+00
-2.3144404694684786e+00
-2.3169516274944604e+00
-2.3194457304443499e+00
-2.3219228864886277e+00
-2.3243832026762363e+00
-2.3268267849507827e+00
-2.3292537381664333e+00
-2.3316641661035176e+00
-2.3340581714838504e+00
-2.3364358559857639e+00
-2.3387973202588759e+00
-2.3411426639385855e+00
-2.3434719856603068e+00
-2.3457853830734483e+00
-2.3480829528551412e+00
-2.3503647907237237e+00
-2.3526309914519810e+00
-2.3548816488801587e+00
-2.3571168559287425e+00
-2.3593367046110094e+00
-2.3615412860453691e+00
-2.3637306904674786e+00
-2.3659050072421599e+00
-2.3680643248750983e+00
-2.3702087310243480e+00
-2.3723383125116380e+00
-2.3744531553334824e+00
-2.3765533446721059e+00
-2.3786389649061790e+00
-2.3807100996213766e+00
-2.3827668316207546e+00
-2.3848092429349559e+00
-2.3868374148322431e+00
-2.3888514278283655e+00
-2.3908513616962650e+00
-2.3928372954756139e+00
-2.3948093074822046e+00
-2.3967674753171813e+00
-2.3987118758761192e+00
-2.4006425853579567e+00
-2.4025596792737871e+00
-2.4044632324555013e+00
-2.4063533190642969e+00
-2.4082300125990455e+00
-2.4100933859045304e+00
-2.4119435111795524e+00
-2.4137804599849075e+00
-2.4156043032512309e+00
-2.4174151112867301e+00
-2.4192129537847857e+00
-2.4209978998314394e+00
-2.4227700179127605e+00
-2.4245293759221025e+00
-2.4262760411672457e+00
-2.4280100803774247e+00
-2.4297315597102567e+00
-2.4314405447585545e+00
-2.4331371005570439e+00
-2.4348212915889711e+00
-2.4364931817926148e+00
-2.4381528345676964e+00
-2.4398003127816974e+00
-2.4414356787760778e+00
-2.4430589943724050e+00
-2.4446703208783886e+00
-2.4462697190938250e+00
-2.4478572493164577e+00
-2.4494329713477456e+00
-2.4509969444985518e+00
-2.4525492275947434e+00
-2.4540898789827157e+00
-2.4556189565348268e+00
-2.4571365176547646e+00
-2.4586426192828252e+00
-2.4601373179011232e+00
-2.4616206695387208e+00
-2.4630927297766880e+00
-2.4645535537530878e+00
-2.4660031961678905e+00
-2.4674417112878193e+00
-2.4688691529511262e+00
-2.4702855745722996e+00
-2.4716910291467094e+00
-2.4730855692551801e+00
-2.4744692470685088e+00
-2.4758421143519103e+00
-2.4772042224694100e+00
-2.4785556223881668e+00
-2.4798963646827454e+00
-2.4812264995393201e+00
-2.4825460767598311e+00
-2.4838551457660722e+00
-2.4851537556037351e+00
-2.4864419549463883e+00
-2.4877197920994085e+00
-2.4889873150038562e+00
-2.4902445712402965e+00
-2.4914916080325771e+00
-2.4927284722515441e+00
-2.4939552104187173e+00
-2.4951718687099116e+00
-2.4963784929588115e+00
-2.4975751286605012e+00
-2.4987618209749400e+00
-2.4999386147304046e+00
-2.5011055544268705e+00
-2.5022626842393652e+00
-2.5034100480212635e+00
-2.5045476893075502e+00
-2.5056756513180356e+00
-2.5067939769605290e+00
-2.5079027088339729e+00
-2.5090018892315378e+00
-2.5100915601436746e+00
-2.5111717632611286e+00
-2.5122425399779176e+00
-2.5133039313942680e+00
-2.5143559783195166e+00
-2.5153987212749769e+00
-2.5164322004967636e+00
-2.5174564559385870e+00
-2.5184715272745093e+00
-2.5194774539016715e+00
-2.5204742749429765e+00
-2.5214620292497485e+00
-2.5224407554043551e+00
-2.5234104917227969e+00
-2.5243712762572632e+00
-2.5253231467986654e+00
-2.5262661408791240e+00
-2.5272002957744402e+00
-2.5281256485065287e+00
-2.5290422358458211e+00
-2.5299500943136470e+00
-2.5308492601845751e+00
-2.5317397694887362e+00
-2.5326216580141159e+00
-2.5334949613088122e+00
-2.5343597146832781e+00
-2.5352159532125267e+00
-2.5360637117383180e+00
-2.5369030248713131e+00
-2.5377339269932104e+00
-2.5385564522588480e+00
-2.5393706345982863e+00
-2.5401765077188680e+00
-2.5409741051072494e+00
-2.5417634600314094e+00
-2.5425446055426355e+00
-2.5433175744774874e+00
-2.5440823994597381e+00
-2.5448391129022885e+00
-2.5455877470090651e+00
-2.5463283337768936e+00
-2.5470609049973509e+00
-2.5477854922585923e+00
-2.5485021269471693e+00
-2.5492108402498110e+00
-2.5499116631551977e+00
-2.5506046264557067e+00
-2.5512897607491456e+00
-2.5519670964404568e+00
-2.5526366637434124e+00
-2.5532984926822819e+00
-2.5539526130934864e+00
-2.5545990546272330e+00
-2.5552378467491317e+00
-2.5558690187417898e+00
-2.5564925997063956e+00
-2.5571086185642793e+00
-2.5577171040584603e+00
-2.5583180847551716e+00
-2.5589115890453775e+00
-2.5594976451462634e+00
-2.5600762811027180e+00
-2.5606475247887932e+00
-2.5612114039091529e+00
-2.5617679460005034e+00
-2.5623171784330094e+00
-2.5628591284116928e+00
-2.5633938229778179e+00
-2.5639212890102647e+00
-2.5644415532268807e+00
-2.5649546421858247e+00
-2.5654605822868910e+00
-2.5659593997728245e+00
-2.5664511207306187e+00
-2.5669357710927998e+00
-2.5674133766386973e+00
-2.5678839629957051e+00
-2.5683475556405235e+00
-2.5688041799003911e+00
-2.5692538609543045e+00
-2.5696966238342247e+00
-2.5701324934262675e+00
-2.5705614944718893e+00
-2.5709836515690512e+00
-2.5713989891733786e+00
-2.5718075315993039e+00
-2.5722093030212028e+00
-2.5726043274745107e+00
-2.5729926288568370e+00
-2.5733742309290606e+00
-2.5737491573164184e+00
-2.5741174315095807e+00
-2.5744790768657171e+00
-2.5748341166095496e+00
-2.5751825738343990e+00
-2.5755244715032144e+00
-2.5758598324495985e+00
-2.5761886793788191e+00
-2.5765110348688132e+00
-2.5768269213711754e+00
-2.5771363612121441e+00
-2.5774393765935710e+00
-2.5777359895938901e+00
-2.5780262221690595e+00
-2.5783100961535186e+00
-2.5785876332611144e+00
-2.5788588550860272e+00
-2.5791237831036913e+00
-2.5793824386716993e+00
-2.5796348430306999e+00
-2.5798810173052886e+00
-2.5801209825048899e+00
-2.5803547595246279e+00
-2.5805823691461907e+00
-2.5808038320386859e+00
-2.5810191687594886e+00
-2.5812283997550800e+00
-2.5814315453618772e+00
-2.5816286258070593e+00
-2.5818196612093809e+00
-2.5820046715799778e+00
-2.5821836768231705e+00
-2.5823566967372518e+00
-2.5825237510152754e+00
-2.5826848592458305e+00
-2.5828400409138128e+00
-2.5829893154011865e+00
-2.5831327019877399e+00
-2.5832702198518325e+00
-2.5834018880711378e+00
-2.5835277256233775e+00
-2.5836477513870468e+00
-2.5837619841421362e+00
-2.5838704425708481e+00
-2.5839731452582995e+00
-2.5840701106932249e+00
-2.5841613572686724e+00
-2.5842469032826858e+00
-2.5843267669389940e+00
-2.5844009663476797e+00
-2.5844695195258529e+00
-2.5845324443983086e+00
-2.5845897587981903e+00
-2.5846414804676354e+00
-2.5846876270584223e+00
-2.5847282161326106e+00
-2.5847632651631725e+00
-2.5847927915346203e+00
-2.5848168125436297e+00
-2.5848353453996569e+00
-2.5848484072255458e+00
-2.5848560150581363e+00
-2.5848581858488635e+00
-2.5848549364643527e+00
-2.5848462836870065e+00
-2.5848322442155909e+00
-2.5848128346658141e+00
-2.5847880715708991e+00
-2.5847579713821514e+00
-2.5847225504695253e+00
-2.5846818251221810e+00
-2.5846358115490373e+00
-2.5845845258793219e+00
-2.5845279841631146e+00
-2.5844662023718867e+00
-2.5843991963990365e+00
-2.5843269820604182e+00
-2.5842495750948653e+00
-2.5841669911647163e+00
-2.5840792458563260e+00
-2.5839863546805790e+00
-2.5838883330733990e+00
-2.5837851963962475e+00
-2.5836769599366272e+00
-2.5835636389085730e+00
-2.5834452484531427e+00
-2.5833218036389041e+00
-2.5831933194624161e+00
-2.5830598108487064e+00
-2.5829212926517444e+00
-2.5827777796549123e+00
-2.5826292865714700e+00
-2.5824758280450162e+00
-2.5823174186499473e+00
-2.5821540728919117e+00
-2.5819858052082560e+00
-2.5818126299684780e+00
-2.5816345614746643e+00
-2.5814516139619301e+00
-2.5812638015988560e+00
-2.5810711384879190e+00
-2.5808736386659183e+00
-2.5806713161044046e+00
-2.5804641847100958e+00
-2.5802522583252987e+00
-2.5800355507283204e+00
-2.5798140756338803e+00
-2.5795878466935172e+00
-2.5793568774959921e+00
-2.5791211815676909e+00
-2.5788807723730196e+00
-2.5786356633148011e+00
-2.5783858677346632e+00
-2.5781313989134267e+00
-2.5778722700714929e+00
-2.5776084943692217e+00
-2.5773400849073114e+00
-2.5770670547271752e+00
-2.5767894168113101e+00
-2.5765071840836704e+00
-2.5762203694100307e+00
-2.5759289855983516e+00
-2.5756330453991381e+00
-2.5753325615057987e+00
-2.5750275465550008e+00
-2.5747180131270198e+00
-2.5744039737460915e+00
-2.5740854408807570e+00
-2.5737624269442057e+00
-2.5734349442946165e+00
-2.5731030052354984e+00
-2.5727666220160228e+00
-2.5724258068313577e+00
-2.5720805718229984e+00
-2.5717309290790942e+00
-2.5713768906347751e+00
-2.5710184684724742e+00
-2.5706556745222460e+00
-2.5702885206620860e+00
-2.5699170187182432e+00
-2.5695411804655381e+00
-2.5691610176276676e+00
-2.5687765418775141e+00
-2.5683877648374538e+00
-2.5679946980796564e+00
-2.5675973531263878e+00
-2.5671957414503099e+00
-2.5667898744747717e+00
-2.5663797635741106e+00
-2.5659654200739377e+00
-2.5655468552514304e+00
-2.5651240803356208e+00
-2.5646971065076771e+00
-2.5642659449011900e+00
-2.5638306066024517e+00
-2.5633911026507357e+00
-2.5629474440385720e+00
-2.5624996417120234e+00
-2.5620477065709557e+00
-2.5615916494693107e+00
-2.5611314812153725e+00
-2.5606672125720347e+00
-2.5601988542570644e+00
-2.5597264169433651e+00
-2.5592499112592373e+00
-2.5587693477886360e+00
-2.5582847370714283e+00
-2.5577960896036482e+00
-2.5573034158377479e+00
-2.5568067261828493e+00
-2.5563060310049956e+00
-2.5558013406273949e+00
-2.5552926653306671e+00
-2.5547800153530895e+00
-2.5542634008908340e+00
-2.5537428320982132e+00
-2.5532183190879119e+00
-2.5526898719312308e+00
-2.5521575006583159e+00
-2.5516212152583937e+00
-2.5510810256800043e+00
-2.5505369418312269e+00
-2.5499889735799126e+00
-2.5494371307539079e+00
-2.5488814231412809e+00
-2.5483218604905447e+00
-2.5477584525108763e+00
-2.5471912088723423e+00
-2.5466201392061096e+00
-2.5460452531046704e+00
-2.5454665601220512e+00
-2.5448840697740311e+00
-2.5442977915383507e+00
-2.5437077348549235e+00
-2.5431139091260486e+00
-2.5425163237166144e+00
-2.5419149879543066e+00
-2.5413099111298125e+00
-2.5407011024970259e+00
-2.5400885712732464e+00
-2.5394723266393839e+00
-2.5388523777401537e+00
-2.5382287336842775e+00
-2.5376014035446772e+00
-2.5369703963586718e+00
-2.5363357211281703e+00
-2.5356973868198636e+00
-2.5350554023654168e+00
-2.5344097766616582e+00
-2.5337605185707663e+00
-2.5331076369204597e+00
-2.5324511405041794e+00
-2.5317910380812756e+00
-2.5311273383771908e+00
-2.5304600500836409e+00
-2.5297891818587965e+00
-2.5291147423274616e+00
-2.5284367400812529e+00
-2.5277551836787748e+00
-2.5270700816457974e+00
-2.5263814424754312e+00
-2.5256892746282977e+00
-2.5249935865327053e+00
-2.5242943865848164e+00
-2.5235916831488203e+00
-2.5228854845571025e+00
-2.5221757991104079e+00
-2.5214626350780129e+00
-2.5207460006978857e+00
-2.5200259041768551e+00
-2.5193023536907688e+00
-2.5185753573846608e+00
-2.5178449233729077e+00
-2.5171110597393915e+00
-2.5163737745376560e+00
-2.5156330757910674e+00
-2.5148889714929683e+00
-2.5141414696068360e+00
-2.5133905780664341e+00
-2.5126363047759686e+00
-2.5118786576102394e+00
-2.5111176444147922e+00
-2.5103532730060691e+00
-2.5095855511715568e+00
-2.5088144866699382e+00
-2.5080400872312367e+00
-2.5072623605569659e+00
-2.5064813143202720e+00
-2.5056969561660813e+00
-2.5049092937112438e+00
-2.5041183345446734e+00
-2.5033240862274928e+00
-2.5025265562931742e+00
-2.5017257522476770e+00
-2.5009216815695892e+00
-2.5001143517102657e+00
-2.4993037700939635e+00
-2.4984899441179813e+00
-2.4976728811527931e+00
-2.4968525885421822e+00
-2.4960290736033786e+00
-2.4952023436271871e+00
-2.4943724058781234e+00
-2.4935392675945445e+00
-2.4927029359887780e+00
-2.4918634182472519e+00
-2.4910207215306253e+00
-2.4901748529739138e+00
-2.4893258196866199e+00
-2.4884736287528555e+00
-2.4876182872314700e+00
-2.4867598021561745e+00
-2.4858981805356666e+00
-2.4850334293537517e+00
-2.4841655555694673e+00
-2.4832945661172028e+00
-2.4824204679068229e+00
-2.4815432678237852e+00
-2.4806629727292626e+00
-2.4797795894602572e+00
-2.4788931248297232e+00
-2.4780035856266815e+00
-2.4771109786163352e+00
-2.4762153105401890e+00
-2.4753165881161596e+00
-2.4744148180386940e+00
-2.4735100069788798e+00
-2.4726021615845588e+00
-2.4716912884804438e+00
-2.4707773942682216e+00
-2.4698604855266715e+00
-2.4689405688117696e+00
-2.4680176506568019e+00
-2.4670917375724741e+00
-2.4661628360470140e+00
-2.4652309525462850e+00
-2.4642960935138887e+00
-2.4633582653712738e+00
-2.4624174745178404e+00
-2.4614737273310441e+00
-2.4605270301665012e+00
-2.4595773893580923e+00
-2.4586248112180646e+00
-2.4576693020371341e+00
-2.4567108680845884e+00
-2.4557495156083866e+00
-2.4547852508352599e+00
-2.4538180799708122e+00
-2.4528480091996192e+00
-2.4518750446853259e+00
-2.4508991925707448e+00
-2.4499204589779571e+00
-2.4489388500084024e+00
-2.4479543717429824e+00
-2.4469670302421518e+00
-2.4459768315460146e+00
-2.4449837816744218e+00
-2.4439878866270588e+00
-2.4429891523835452e+00
-2.4419875849035253e+00
-2.4409831901267611e+00
-2.4399759739732216e+00
-2.4389659423431769e+00
-2.4379531011172877e+00
-2.4369374561566977e+00
-2.4359190133031183e+00
-2.4348977783789238e+00
-2.4338737571872353e+00
-2.4328469555120109e+00
-2.4318173791181334e+00
-2.4307850337514973e+00
-2.4297499251390935e+00
-2.4287120589890980e+00
-2.4276714409909568e+00
-2.4266280768154691e+00
-2.4255819721148733e+00
-2.4245331325229338e+00
-2.4234815636550175e+00
-2.4224272711081847e+00
-2.4213702604612668e+00
-2.4203105372749496e+00
-2.4192481070918568e+00
-2.4181829754366282e+00
-2.4171151478160020e+00
-2.4160446297188956e+00
-2.4149714266164848e+00
-2.4138955439622825e+00
-2.4128169871922189e+00
-2.4117357617247186e+00
-2.4106518729607802e+00
-2.4095653262840520e+00
-2.4084761270609119e+00
-2.4073842806405392e+00
-2.4062897923549968e+00
-2.4051926675193025e+00
-2.4040929114315062e+00
-2.4029905293727651e+00
-2.4018855266074173e+00
-2.4007779083830565e+00
-2.3996676799306051e+00
-2.3985548464643895e+00
-2.3974394131822097e+00
-2.3963213852654137e+00
-2.3952007678789702e+00
-2.3940775661715383e+00
-2.3929517852755398e+00
-2.3918234303072317e+00
-2.3906925063667721e+00
-2.3895590185382964e+00
-2.3884229718899808e+00
-2.3872843714741165e+00
-2.3861432223271746e+00
-2.3849995294698787e+00
-2.3838532979072689e+00
-2.3827045326287744e+00
-2.3815532386082743e+00
-2.3803994208041708e+00
-2.3792430841594530e+00
-2.3780842336017636e+00
-2.3769228740434638e+00
-2.3757590103817012e+00
-2.3745926474984729e+00
-2.3734237902606905e+00
-2.3722524435202463e+00
-2.3710786121140748e+00
-2.3699023008642186e+00
-2.3687235145778915e+00
-2.3675422580475414e+00
-2.3663585360509107e+00
-2.3651723533511033e+00
-2.3639837146966429e+00
-2.3627926248215365e+00
-2.3615990884453342e+00
-2.3604031102731926e+00
-2.3592046949959329e+00
-2.3580038472901053e+00
-2.3568005718180425e+00
-2.3555948732279264e+00
-2.3543867561538430e+00
-2.3531762252158437e+00
-2.3519632850200018e+00
-2.3507479401584752e+00
-2.3495301952095589e+00
-2.3483100547377491e+00
-2.3470875232937942e+00
-2.3458626054147569e+00
-2.3446353056240699e+00
-2.3434056284315909e+00
-2.3421735783336612e+00
-2.3409391598131601e+00
-2.3397023773395618e+00
-2.3384632353689900e+00
-2.3372217383442728e+00
-2.3359778906949984e+00
-2.3347316968375695e+00
-2.3334831611752573e+00
-2.3322322880982558e+00
-2.3309790819837342e+00
-2.3297235471958917e+00
-2.3284656880860117e+00
-2.3272055089925119e+00
-2.3259430142409983e+00
-2.3246782081443178e+00
-2.3234110950026094e+00
-2.3221416791033587e+00
-2.3208699647214428e+00
-2.3195959561191906e+00
-2.3183196575464255e+00
-2.3170410732405218e+00
-2.3157602074264512e+00
-2.3144770643168373e+00
-2.3131916481119994e+00
-2.3119039630000091e+00
-2.3106140131567345e+00
-2.3093218027458913e+00
-2.3080273359190913e+00
-2.3067306168158930e+00
-2.3054316495638454e+00
-2.3041304382785412e+00
-2.3028269870636624e+00
-2.3015213000110264e+00
-2.3002133812006367e+00
-2.2989032347007274e+00
-2.2975908645678120e+00
-2.2962762748467282e+00
-2.2949594695706859e+00
-2.2936404527613128e+00
-2.2923192284287004e+00
-2.2909958005714492e+00
-2.2896701731767162e+00
-2.2883423502202578e+00
-2.2870123356664749e+00
-2.2856801334684596e+00
-2.2843457475680395e+00
-2.2830091818958205e+00
-2.2816704403712307e+00
-2.2803295269025678e+00
-2.2789864453870385e+00
-2.2776411997108057e+00
-2.2762937937490273e+00
-2.2749442313659047e+00
-2.2735925164147210e+00
-2.2722386527378866e+00
-2.2708826441669800e+00
-2.2695244945227904e+00
-2.2681642076153596e+00
-2.2668017872440243e+00
-2.2654372371974580e+00
-2.2640705612537095e+00
-2.2627017631802482e+00
-2.2613308467340025e+00
-2.2599578156614011e+00
-2.2585826736984131e+00
-2.2572054245705893e+00
-2.2558260719931016e+00
-2.2544446196707839e+00
-2.2530610712981689e+00
-2.2516754305595339e+00
-2.2502877011289324e+00
-2.2488978866702389e+00
-2.2475059908371859e+00
-2.2461120172734019e+00
-2.2447159696124528e+00
-2.2433178514778751e+00
-2.2419176664832210e+00
-2.2405154182320910e+00
-2.2391111103181744e+00
-2.2377047463252846e+00
-2.2362963298274008e+00
-2.2348858643887004e+00
-2.2334733535636002e+00
-2.2320588008967888e+00
-2.2306422099232690e+00
-2.2292235841683907e+00
-2.2278029271478861e+00
-2.2263802423679122e+00
-2.2249555333250770e+00
-2.2235288035064866e+00
-2.2221000563897699e+00
-2.2206692954431242e+00
-2.2192365241253427e+00
-2.2178017458858541e+00
-2.2163649641647578e+00
-2.2149261823928534e+00
-2.2134854039916831e+00
-2.2120426323735618e+00
-2.2105978709416108e+00
-2.2091511230897942e+00
-2.2077023922029526e+00
-2.2062516816568358e+00
-2.2047989948181370e+00
-2.2033443350445268e+00
-2.2018877056846873e+00
-2.2004291100783431e+00
-2.1989685515562956e+00
-2.1975060334404573e+00
-2.1960415590438833e+00
-2.1945751316708018e+00
-2.1931067546166494e+00
-2.1916364311681051e+00
-2.1901641646031176e+00
-2.1886899581909400e+00
-2.1872138151921616e+00
-2.1857357388587406e+00
-2.1842557324340319e+00
-2.1827737991528235e+00
-2.1812899422413645e+00
-2.1798041649173965e+00
-2.1783164703901861e+00
-2.1768268618605542e+00
-2.1753353425209068e+00
-2.1738419155552671e+00
-2.1723465841393046e+00
-2.1708493514403648e+00
-2.1693502206175008e+00
-2.1678491948215015e+00
-2.1663462771949238e+00
-2.1648414708721204e+00
-2.1633347789792707e+00
-2.1618262046344086e+00
-2.1603157509474533e+00
-2.1588034210202367e+00
-2.1572892179465359e+00
-2.1557731448120974e+00
-2.1542552046946706e+00
-2.1527354006640311e+00
-2.1512137357820151e+00
-2.1496902131025446e+00
-2.1481648356716527e+00
-2.1466376065275199e+00
-2.1451085287004918e+00
-2.1435776052131179e+00
-2.1420448390801683e+00
-2.1405102333086701e+00
-2.1389737908979307e+00
-2.1374355148395652e+00
-2.1358954081175257e+00
-2.1343534737081247e+00
-2.1328097145800684e+00
-2.1312641336944753e+00
-2.1297167340049099e+00
-2.1281675184574063e+00
-2.1266164899904942e+00
-2.1250636515352266e+00
-2.1235090060152055e+00
-2.1219525563466091e+00
-2.1203943054382162e+00
-2.1188342561914313e+00
-2.1172724115003150e+00
-2.1157087742516043e+00
-2.1141433473247413e+00
-2.1125761335918964e+00
-2.1110071359179972e+00
-2.1094363571607500e+00
-2.1078638001706675e+00
-2.1062894677910915e+00
-2.1047133628582206e+00
-2.1031354882011315e+00
-2.1015558466418072e+00
-2.0999744409951595e+00
-2.0983912740690540e+00
-2.0968063486643334e+00
-2.0952196675748436e+00
-2.0936312335874585e+00
-2.0920410494820980e+00
-2.0904491180317608e+00
-2.0888554420025414e+00
-2.0872600241536570e+00
-2.0856628672374700e+00
-2.0840639739995108e+00
-2.0824633471785048e+00
-2.0808609895063905e+00
-2.0792569037083464e+00
-2.0776510925028120e+00
-2.0760435586015129e+00
-2.0744343047094822e+00
-2.0728233335250832e+00
-2.0712106477400334e+00
-2.0695962500394245e+00
-2.0679801431017482e+00
-2.0663623295989160e+00
-2.0647428121962825e+00
-2.0631215935526690e+00
-2.0614986763203822e+00
-2.0598740631452390e+00
-2.0582477566665887e+00
-2.0566197595173312e+00
-2.0549900743239435e+00
-2.0533587037064986e+00
-2.0517256502786871e+00
-2.0500909166478389e+00
-2.0484545054149454e+00
-2.0468164191746796e+00
-2.0451766605154180e+00
-2.0435352320192615e+00
-2.0418921362620557e+00
-2.0402473758134123e+00
-2.0386009532367324e+00
-2.0369528710892220e+00
-2.0353031319219173e+00
-2.0336517382797021e+00
-2.0319986927013307e+00
-2.0303439977194464e+00
-2.0286876558606046e+00
-2.0270296696452870e+00
-2.0253700415879297e+00
-2.0237087741969364e+00
-2.0220458699747033e+00
-2.0203813314176355e+00
-2.0187151610161678e+00
-2.0170473612547868e+00
-2.0153779346120460e+00
-2.0137068835605882e+00
-2.0120342105671662e+00
-2.0103599180926581e+00
-2.0086840085920903e+00
-2.0070064845146551e+00
-2.0053273483037306e+00
-2.0036466023968975e+00
-2.0019642492259613e+00
-2.0002802912169697e+00
-1.9985947307902294e+00
-1.9969075703603290e+00
-1.9952188123361554e+00
-1.9935284591209095e+00
-1.9918365131121305e+00
-1.9901429767017111e+00
-1.9884478522759139e+00
-1.9867511422153945e+00
-1.9850528488952162e+00
-1.9833529746848679e+00
-1.9816515219482842e+00
-1.9799484930438624e+00
-1.9782438903244806e+00
-1.9765377161375135e+00
-1.9748299728248546e+00
-1.9731206627229292e+00
-1.9714097881627151e+00
-1.9696973514697571e+00
-1.9679833549641896e+00
-1.9662678009607473e+00
-1.9645506917687880e+00
-1.9628320296923076e+00
-1.9611118170299564e+00
-1.9593900560750581e+00
-1.9576667491156254e+00
-1.9559418984343782e+00
-1.9542155063087587e+00
-1.9524875750109514e+00
-1.9507581068078950e+00
-1.9490271039613034e+00
-1.9472945687276810e+00
-1.9455605033583374e+00
-1.9438249100994076e+00
-1.9420877911918653e+00
-1.9403491488715401e+00
-1.9386089853691331e+00
-1.9368673029102350e+00
-1.9351241037153426e+00
-1.9333793899998692e+00
-1.9316331639741695e+00
-1.9298854278435480e+00
-1.9281361838082784e+00
-1.9263854340636206e+00
-1.9246331807998314e+00
-1.9228794262021867e+00
-1.9211241724509913e+00
-1.9193674217215997e+00
-1.9176091761844269e+00
-1.9158494380049667e+00
-1.9140882093438059e+00
-1.9123254923566415e+00
-1.9105612891942922e+00
-1.9087956020027184e+00
-1.9070284329230340e+00
-1.9052597840915211e+00
-1.9034896576396476e+00
-1.9017180556940807e+00
-1.8999449803767019e+00
-1.8981704338046215e+00
-1.8963944180901939e+00
-1.8946169353410323e+00
-1.8928379876600239e+00
-1.8910575771453426e+00
-1.8892757058904652e+00
-1.8874923759841868e+00
-1.8857075895106328e+00
-1.8839213485492741e+00
-1.8821336551749424e+00
-1.8803445114578443e+00
-1.8785539194635732e+00
-1.8767618812531282e+00
-1.8749683988829227e+00
-1.8731734744048019e+00
-1.8713771098660568e+00
-1.8695793073094358e+00
-1.8677800687731612e+00
-1.8659793962909414e+00
-1.8641772918919854e+00
-1.8623737576010160e+00
-1.8605687954382835e+00
-1.8587624074195803e+00
-1.8569545955562534e+00
-1.8551453618552181e+00
-1.8533347083189708e+00
-1.8515226369456048e+00
-1.8497091497288221e+00
-1.8478942486579442e+00
-1.8460779357179296e+00
-1.8442602128893857e+00
-1.8424410821485799e+00
-1.8406205454674553e+00
-1.8387986048136422e+00
-1.8369752621504711e+00
-1.8351505194369879e+00
-1.8333243786279629e+00
-1.8314968416739059e+00
-1.8296679105210807e+00
-1.8278375871115138e+00
-1.8260058733830107e+00
-1.8241727712691664e+00
-1.8223382826993790e+00
-1.8205024095988624e+00
-1.8186651538886573e+00
-1.8168265174856453e+00
-1.8149865023025615e+00
-1.8131451102480043e+00
-1.8113023432264510e+00
-1.8094582031382684e+00
-1.8076126918797248e+00
-1.8057658113430024e+00
-1.8039175634162108e+00
-1.8020679499833960e+00
-1.8002169729245561e+00
-1.7983646341156507e+00
-1.7965109354286124e+00
-1.7946558787313633e+00
-1.7927994658878215e+00
-1.7909416987579125e+00
-1.7890825791975880e+00
-1.7872221090588301e+00
-1.7853602901896664e+00
-1.7834971244341820e+00
-1.7816326136325291e+00
-1.7797667596209408e+00
-1.7778995642317397e+00
-1.7760310292933534e+00
-1.7741611566303217e+00
-1.7722899480633107e+00
-1.7704174054091242e+00
-1.7685435304807122e+00
-1.7666683250871864e+00
-1.7647917910338267e+00
-1.7629139301220964e+00
-1.7610347441496519e+00
-1.7591542349103519e+00
-1.7572724041942716e+00
-1.7553892537877114e+00
-1.7535047854732098e+00
-1.7516190010295507e+00
-1.7497319022317797e+00
-1.7478434908512106e+00
-1.7459537686554376e+00
-1.7440627374083453e+00
-1.7421703988701225e+00
-1.7402767547972677e+00
-1.7383818069426042e+00
-1.7364855570552884e+00
-1.7345880068808226e+00
-1.7326891581610617e+00
-1.7307890126342274e+00
-1.7288875720349162e+00
-1.7269848380941115e+00
-1.7250808125391943e+00
-1.7231754970939492e+00
-1.7212688934785823e+00
-1.7193610034097231e+00
-1.7174518286004414e+00
-1.7155413707602538e+00
-1.7136296315951347e+00
-1.7117166128075274e+00
-1.7098023160963527e+00
-1.7078867431570193e+00
-1.7059698956814351e+00
-1.7040517753580144e+00
-1.7021323838716922e+00
-1.7002117229039275e+00
-1.6982897941327224e+00
-1.6963665992326211e+00
-1.6944421398747291e+00
-1.6925164177267178e+00
-1.6905894344528338e+00
-1.6886611917139127e+00
-1.6867316911673853e+00
-1.6848009344672876e+00
-1.6828689232642715e+00
-1.6809356592056144e+00
-1.6790011439352255e+00
-1.6770653790936609e+00
-1.6751283663181282e+00
-1.6731901072424977e+00
-1.6712506034973134e+00
-1.6693098567097988e+00
-1.6673678685038671e+00
-1.6654246405001345e+00
-1.6634801743159242e+00
-1.6615344715652778e+00
-1.6595875338589654e+00
-1.6576393628044936e+00
-1.6556899600061130e+00
-1.6537393270648317e+00
-1.6517874655784199e+00
-1.6498343771414199e+00
-1.6478800633451580e+00
-1.6459245257777504e+00
-1.6439677660241119e+00
-1.6420097856659670e+00
-1.6400505862818584e+00
-1.6380901694471510e+00
-1.6361285367340506e+00
-1.6341656897116017e+00
-1.6322016299457043e+00
-1.6302363589991178e+00
-1.6282698784314724e+00
-1.6263021897992767e+00
-1.6243332946559257e+00
-1.6223631945517094e+00
-1.6203918910338251e+00
-1.6184193856463787e+00
-1.6164456799303988e+00
-1.6144707754238452e+00
-1.6124946736616135e+00
-1.6105173761755467e+00
-1.6085388844944424e+00
-1.6065592001440610e+00
-1.6045783246471343e+00
-1.6025962595233738e+00
-1.6006130062894799e+00
-1.5986285664591473e+00
-1.5966429415430763e+00
-1.5946561330489786e+00
-1.5926681424815883e+00
-1.5906789713426657e+00
-1.5886886211310103e+00
-1.5866970933424649e+00
-1.5847043894699249e+00
-1.5827105110033475e+00
-1.5807154594297583e+00
-1.5787192362332594e+00
-1.5767218428950374e+00
-1.5747232808933731e+00
-1.5727235517036446e+00
-1.5707226567983397e+00
-1.5687205976470640e+00
-1.5667173757165420e+00
-1.5647129924706353e+00
-1.5627074493703412e+00
-1.5607007478738062e+00
-1.5586928894363274e+00
-1.5566838755103685e+00
-1.5546737075455612e+00
-1.5526623869887139e+00
-1.5506499152838207e+00
-1.5486362938720692e+00
-1.5466215241918446e+00
-1.5446056076787427e+00
-1.5425885457655699e+00
-1.5405703398823598e+00
-1.5385509914563733e+00
-1.5365305019121072e+00
-1.5345088726713056e+00
-1.5324861051529637e+00
-1.5304622007733337e+00
-1.5284371609459371e+00
-1.5264109870815672e+00
-1.5243836805883002e+00
-1.5223552428714984e+00
-1.5203256753338192e+00
-1.5182949793752250e+00
-1.5162631563929858e+00
-1.5142302077816889e+00
-1.5121961349332462e+00
-1.5101609392368980e+00
-1.5081246220792253e+00
-1.5060871848441535e+00
-1.5040486289129575e+00
-1.5020089556642746e+00
-1.4999681664741058e+00
-1.4979262627158261e+00
-1.4958832457601878e+00
-1.4938391169753338e+00
-1.4917938777267952e+00
-1.4897475293775089e+00
-1.4877000732878138e+00
-1.4856515108154669e+00
-1.4836018433156426e+00
-1.4815510721409435e+00
-1.4794991986414086e+00
-1.4774462241645134e+00
-1.4753921500551830e+00
-1.4733369776557987e+00
-1.4712807083061985e+00
-1.4692233433436899e+00
-1.4671648841030542e+00
-1.4651053319165523e+00
-1.4630446881139332e+00
-1.4609829540224382e+00
-1.4589201309668098e+00
-1.4568562202692958e+00
-1.4547912232496585e+00
-1.4527251412251772e+00
-1.4506579755106594e+00
-1.4485897274184425e+00
-1.4465203982584049e+00
-1.4444499893379670e+00
-1.4423785019621034e+00
-1.4403059374333433e+00
-1.4382322970517833e+00
-1.4361575821150852e+00
-1.4340817939184918e+00
-1.4320049337548253e+00
-1.4299270029144981e+00
-1.4278480026855176e+00
-1.4257679343534906e+00
-1.4236867992016335e+00
-1.4216045985107744e+00
-1.4195213335593613e+00
-1.4174370056234686e+00
-1.4153516159767998e+00
-1.4132651658906987e+00
-1.4111776566341518e+00
-1.4090890894737942e+00
-1.4069994656739182e+00
-1.4049087864964782e+00
-1.4028170532010933e+00
-1.4007242670450588e+00
-1.3986304292833485e+00
-1.3965355411686207e+00
-1.3944396039512268e+00
-1.3923426188792123e+00
-1.3902445871983291e+00
-1.3881455101520341e+00
-1.3860453889815010e+00
-1.3839442249256244e+00
-1.3818420192210210e+00
-1.3797387731020434e+00
-1.3776344878007805e+00
-1.3755291645470618e+00
-1.3734228045684693e+00
-1.3713154090903370e+00
-1.3692069793357593e+00
-1.3670975165255983e+00
-1.3649870218784834e+00
-1.3628754966108267e+00
-1.3607629419368170e+00
-1.3586493590684352e+00
-1.3565347492154542e+00
-1.3544191135854462e+00
-1.3523024533837869e+00
-1.3501847698136635e+00
-1.3480660640760813e+00
-1.3459463373698599e+00
-1.3438255908916525e+00
-1.3417038258359393e+00
-1.3395810433950401e+00
-1.3374572447591178e+00
-1.3353324311161809e+00
-1.3332066036520922e+00
-1.3310797635505756e+00
-1.3289519119932158e+00
-1.3268230501594687e+00
-1.3246931792266643e+00
-1.3225623003700120e+00
-1.3204304147626078e+00
-1.3182975235754346e+00
-1.3161636279773765e+00
-1.3140287291352128e+00
-1.3118928282136308e+00
-1.3097559263752310e+00
-1.3076180247805271e+00
-1.3054791245879556e+00
-1.3033392269538779e+00
-1.3011983330325907e+00
-1.2990564439763230e+00
-1.2969135609352487e+00
-1.2947696850574868e+00
-1.2926248174891080e+00
-1.2904789593741410e+00
-1.2883321118545774e+00
-1.2861842760703719e+00
-1.2840354531594531e+00
-1.2818856442577287e+00
-1.2797348504990851e+00
-1.2775830730153945e+00
-1.2754303129365243e+00
-1.2732765713903353e+00
-1.2711218495026910e+00
-1.2689661483974604e+00
-1.2668094691965239e+00
-1.2646518130197788e+00
-1.2624931809851414e+00
-1.2603335742085546e+00
-1.2581729938039905e+00
-1.2560114408834580e+00
-1.2538489165570044e+00
-1.2516854219327229e+00
-1.2495209581167532e+00
-1.2473555262132927e+00
-1.2451891273245954e+00
-1.2430217625509794e+00
-1.2408534329908303e+00
-1.2386841397406065e+00
-1.2365138838948448e+00
-1.2343426665461632e+00
-1.2321704887852676e+00
-1.2299973517009524e+00
-1.2278232563801106e+00
-1.2256482039077339e+00
-1.2234721953669205e+00
-1.2212952318388763e+00
-1.2191173144029233e+00
-1.2169384441364994e+00
-1.2147586221151698e+00
-1.2125778494126216e+00
-1.2103961271006791e+00
-1.2082134562493008e+00
-1.2060298379265859e+00
-1.2038452731987797e+00
-1.2016597631302772e+00
-1.1994733087836273e+00
-1.1972859112195378e+00
-1.1950975714968799e+00
-1.1929082906726909e+00
-1.1907180698021813e+00
-1.1885269099387379e+00
-1.1863348121339257e+00
-1.1841417774374956e+00
-1.1819478068973890e+00
-1.1797529015597383e+00
-1.1775570624688756e+00
-1.1753602906673331e+00
-1.1731625871958498e+00
-1.1709639530933751e+00
-1.1687643893970732e+00
-1.1665638971423267e+00
-1.1643624773627415e+00
-1.1621601310901504e+00
-1.1599568593546166e+00
-1.1577526631844428e+00
-1.1555475436061646e+00
-1.1533415016445683e+00
-1.1511345383226834e+00
-1.1489266546617942e+00
-1.1467178516814396e+00
-1.1445081303994189e+00
-1.1422974918317965e+00
-1.1400859369929044e+00
-1.1378734668953470e+00
-1.1356600825500065e+00
-1.1334457849660440e+00
-1.1312305751509060e+00
-1.1290144541103257e+00
-1.1267974228483328e+00
-1.1245794823672490e+00
-1.1223606336676994e+00
-1.1201408777486130e+00
-1.1179202156072261e+00
-1.1156986482390874e+00
-1.1134761766380632e+00
-1.1112528017963388e+00
-1.1090285247044225e+00
-1.1068033463511540e+00
-1.1045772677237014e+00
-1.1023502898075692e+00
-1.1001224135866023e+00
-1.0978936400429895e+00
-1.0956639701572632e+00
-1.0934334049083121e+00
-1.0912019452733750e+00
-1.0889695922280511e+00
-1.0867363467463027e+00
-1.0845022098004586e+00
-1.0822671823612138e+00
-1.0800312653976423e+00
-1.0777944598771907e+00
-1.0755567667656907e+00
-1.0733181870273565e+00
-1.0710787216247903e+00
-1.0688383715189893e+00
-1.0665971376693431e+00
-1.0643550210336454e+00
-1.0621120225680876e+00
-1.0598681432272730e+00
-1.0576233839642131e+00
-1.0553777457303339e+00
-1.0531312294754791e+00
-1.0508838361479143e+00
-1.0486355666943294e+00
-1.0463864220598438e+00
-1.0441364031880078e+00
-1.0418855110208103e+00
-1.0396337464986771e+00
-1.0373811105604760e+00
-1.0351276041435238e+00
-1.0328732281835868e+00
-1.0306179836148828e+00
-1.0283618713700882e+00
-1.0261048923803391e+00
-1.0238470475752373e+00
-1.0215883378828507e+00
-1.0193287642297162e+00
-1.0170683275408496e+00
-1.0148070287397395e+00
-1.0125448687483600e+00
-1.0102818484871672e+00
-1.0080179688751074e+00
-1.0057532308296153e+00
-1.0034876352666238e+00
-1.0012211831005620e+00
-9.9895387524436174e-01
-9.9668571260945915e-01
-9.9441669610579964e-01
-9.9214682664183895e-01
-9.8987610512454993e-01
-9.8760453245942181e-01
-9.8533210955046746e-01
-9.8305883730022281e-01
-9.8078471660975364e-01
-9.7850974837865656e-01
-9.7623393350506371e-01
-9.7395727288564538e-01
-9.7167976741561191e-01
-9.6940141798872148e-01
-9.6712222549727644e-01
-9.6484219083213385e-01
-9.6256131488270269e-01
-9.6027959853694966e-01
-9.5799704268140473e-01
-9.5571364820115967e-01
-9.5342941597987430e-01
-9.5114434689977823e-01
-9.4885844184167512e-01
-9.4657170168494598e-01
-9.4428412730755085e-01
-9.4199571958603445e-01
-9.3970647939552499e-01
-9.3741640760974099e-01
-9.3512550510099579e-01
-9.3283377274019530e-01
-9.3054121139684542e-01
-9.2824782193905353e-01
-9.2595360523353265e-01
-9.2365856214560182e-01
-9.2136269353919320e-01
-9.1906600027685093e-01
-9.1676848321973936e-01
-9.1447014322763887e-01
-9.1217098115895745e-01
-9.0987099787072490e-01
-9.0757019421860341e-01
-9.0526857105688507e-01
-9.0296612923850006e-01
-9.0066286961501385e-01
-8.9835879303663568e-01
-8.9605390035221666e-01
-8.9374819240925552e-01
-8.9144167005390273e-01
-8.8913433413095999e-01
-8.8682618548388559e-01
-8.8451722495479801e-01
-8.8220745338447404e-01
-8.7989687161235919e-01
-8.7758548047656570e-01
-8.7527328081387334e-01
-8.7296027345973870e-01
-8.7064645924829354e-01
-8.6833183901234912e-01
-8.6601641358339909e-01
-8.6370018379162017e-01
-8.6138315046588054e-01
-8.5906531443373413e-01
-8.5674667652143111e-01
-8.5442723755392003e-01
-8.5210699835484327e-01
-8.4978595974655124e-01
-8.4746412255009429e-01
-8.4514148758523233e-01
-8.4281805567043433e-01
-8.4049382762288571e-01
-8.3816880425848372e-01
-8.3584298639184662e-01
-8.3351637483631302e-01
-8.3118897040394757e-01
-8.2886077390553836e-01
-8.2653178615060541e-01
-8.2420200794740295e-01
-8.2187144010291535e-01
-8.1954008342286966e-01
-8.1720793871173136e-01
-8.1487500677270808e-01
-8.1254128840775586e-01
-8.1020678441757676e-01
-8.0787149560162563e-01
-8.0553542275811196e-01
-8.0319856668400069e-01
-8.0086092817501575e-01
-7.9852250802564273e-01
-7.9618330702913398e-01
-7.9384332597750740e-01
-7.9150256566154942e-01
-7.8916102687082124e-01
-7.8681871039365925e-01
-7.8447561701717516e-01
-7.8213174752726200e-01
-7.7978710270859619e-01
-7.7744168334464014e-01
-7.7509549021764224e-01
-7.7274852410864359e-01
-7.7040078579747640e-01
-7.6805227606277049e-01
-7.6570299568195199e-01
-7.6335294543124921e-01
-7.6100212608569406e-01
-7.5865053841912378e-01
-7.5629818320418274e-01
-7.5394506121232807e-01
-7.5159117321382929e-01
-7.4923651997777330e-01
-7.4688110227206250e-01
-7.4452492086342181e-01
-7.4216797651740019e-01
-7.3981026999837296e-01
-7.3745180206954120e-01
-7.3509257349293811e-01
-7.3273258502943095e-01
-7.3037183743872069e-01
-7.2801033147934824e-01
-7.2564806790869585e-01
-7.2328504748298572e-01
-7.2092127095728564e-01
-7.1855673908551609e-01
-7.1619145262044215e-01
-7.1382541231368390e-01
-7.1145861891571704e-01
-7.0909107317587339e-01
-7.0672277584234389e-01
-7.0435372766218540e-01
-7.0198392938131438e-01
-6.9961338174451804e-01
-6.9724208549545130e-01
-6.9487004137664110e-01
-6.9249725012948804e-01
-6.9012371249426796e-01
-6.8774942921013782e-01
-6.8537440101513369e-01
-6.8299862864617622e-01
-6.8062211283907004e-01
-6.7824485432850912e-01
-6.7586685384807643e-01
-6.7348811213025073e-01
-6.7110862990639908e-01
-6.6872840790679322e-01
-6.6634744686059877e-01
-6.6396574749588522e-01
-6.6158331053962671e-01
-6.5920013671770228e-01
-6.5681622675489826e-01
-6.5443158137491431e-01
-6.5204620130036217e-01
-6.4966008725276736e-01
-6.4727323995257346e-01
-6.4488566011914605e-01
-6.4249734847076889e-01
-6.4010830572465238e-01
-6.3771853259693123e-01
-6.3532802980266956e-01
-6.3293679805586389e-01
-6.3054483806944206e-01
-6.2815215055526419e-01
-6.2575873622413281e-01
-6.2336459578578662e-01
-6.2096972994890542e-01
-6.1857413942111628e-01
-6.1617782490898698e-01
-6.1378078711803852e-01
-6.1138302675273981e-01
-6.0898454451650952e-01
-6.0658534111172679e-01
-6.0418541723972008e-01
-6.0178477360078286e-01
-5.9938341089416525e-01
-5.9698132981808372e-01
-5.9457853106971725e-01
-5.9217501534521144e-01
-5.8977078333968458e-01
-5.8736583574722234e-01
-5.8496017326088701e-01
-5.8255379657271356e-01
-5.8014670637371735e-01
-5.7773890335389011e-01
-5.7533038820220961e-01
-5.7292116160663320e-01
-5.7051122425410605e-01
-5.6810057683056225e-01
-5.6568922002092248e-01
-5.6327715450910276e-01
-5.6086438097801106e-01
-5.5845090010955367e-01
-5.5603671258462983e-01
-5.5362181908314589e-01
-5.5120622028400446e-01
-5.4878991686511447e-01
-5.4637290950339190e-01
-5.4395519887475818e-01
-5.4153678565414842e-01
-5.3911767051550696e-01
-5.3669785413179205e-01
-5.3427733717497949e-01
-5.3185612031606255e-01
-5.2943420422505372e-01
-5.2701158957098682e-01
-5.2458827702192279e-01
-5.2216426724494436e-01
-5.1973956090616569e-01
-5.1731415867072761e-01
-5.1488806120280295e-01
-5.1246126916560009e-01
-5.1003378322136173e-01
-5.0760560403136734e-01
-5.0517673225593596e-01
-5.0274716855442791e-01
-5.0031691358524810e-01
-4.9788596800584500e-01
-4.9545433247271409e-01
-4.9302200764139881e-01
-4.9058899416649687e-01
-4.8815529270165225e-01
-4.8572090389957046e-01
-4.8328582841201029e-01
-4.8085006688978599e-01
-4.7841361998277648e-01
-4.7597648833991940e-01
-4.7353867260921850e-01
-4.7110017343774152e-01
-4.6866099147162404e-01
-4.6622112735607174e-01
-4.6378058173536013e-01
-4.6133935525283815e-01
-4.5889744855093079e-01
-4.5645486227113802e-01
-4.5401159705404048e-01
-4.5156765353929573e-01
-4.4912303236564627e-01
-4.4667773417091611e-01
-4.4423175959201855e-01
-4.4178510926494996e-01
-4.3933778382480027e-01
-4.3688978390574557e-01
-4.3444111014105974e-01
-4.3199176316310889e-01
-4.2954174360335495e-01
-4.2709105209235831e-01
-4.2463968925978079e-01
-4.2218765573438310e-01
-4.1973495214403406e-01
-4.1728157911570141e-01
-4.1482753727546412e-01
-4.1237282724850888e-01
-4.0991744965913407e-01
-4.0746140513074652e-01
-4.0500469428587044e-01
-4.0254731774614388e-01
-4.0008927613232326e-01
-3.9763057006428204e-01
-3.9517120016101676e-01
-3.9271116704064574e-01
-3.9025047132041135e-01
-3.8778911361668073e-01
-3.8532709454494951e-01
-3.8286441471984328e-01
-3.8040107475511753e-01
-3.7793707526365916e-01
-3.7547241685749305e-01
-3.7300710014777583e-01
-3.7054112574480430e-01
-3.6807449425801358e-01
-3.6560720629597998e-01
-3.6313926246642281e-01
-3.6067066337620629e-01
-3.5820140963133656e-01
-3.5573150183697339e-01
-3.5326094059742125e-01
-3.5078972651613727e-01
-3.4831786019572952e-01
-3.4584534223796243e-01
-3.4337217324375363e-01
-3.4089835381318118e-01
-3.3842388454547989e-01
-3.3594876603904417e-01
-3.3347299889143300e-01
-3.3099658369936746e-01
-3.2851952105873600e-01
-3.2604181156459106e-01
-3.2356345581115781e-01
-3.2108445439182648e-01
-3.1860480789916401e-01
-3.1612451692490579e-01
-3.1364358205996601e-01
-3.1116200389443477e-01
-3.0867978301757865e-01
-3.0619692001784510e-01
-3.0371341548286240e-01
-3.0122926999943911e-01
-2.9874448415357435e-01
-2.9625905853044654e-01
-2.9377299371442600e-01
-2.9128629028906766e-01
-2.8879894883712176e-01
-2.8631096994052802e-01
-2.8382235418041835e-01
-2.8133310213712354e-01
-2.7884321439016785e-01
-2.7635269151827324e-01
-2.7386153409936498e-01
-2.7136974271056513e-01
-2.6887731792820230e-01
-2.6638426032780721e-01
-2.6389057048411463e-01
-2.6139624897107039e-01
-2.5890129636182735e-01
-2.5640571322874539e-01
-2.5390950014340330e-01
-2.5141265767658405e-01
-2.4891518639829383e-01
-2.4641708687774827e-01
-2.4391835968338413e-01
-2.4141900538285554e-01
-2.3891902454303920e-01
-2.3641841773003203e-01
-2.3391718550915402e-01
-2.3141532844495197e-01
-2.2891284710119852e-01
-2.2640974204089345e-01
-2.2390601382626452e-01
-2.2140166301877207e-01
-2.1889669017910937e-01
-2.1639109586720034e-01
-2.1388488064220815e-01
-2.1137804506252694e-01
-2.0887058968579322e-01
-2.0636251506888142e-01
-2.0385382176790573e-01
-2.0134451033822340e-01
-1.9883458133443538e-01
-1.9632403531038742e-01
-1.9381287281917031e-01
-1.9130109441312498e-01
-1.8878870064383965e-01
-1.8627569206215414e-01
-1.8376206921815930e-01
-1.8124783266119887e-01
-1.7873298293987275e-01
-1.7621752060203819e-01
-1.7370144619480676e-01
-1.7118476026454946e-01
-1.6866746335690036e-01
-1.6614955601675122e-01
-1.6363103878825952e-01
-1.6111191221484605e-01
-1.5859217683919774e-01
-1.5607183320326745e-01
-1.5355088184827823e-01
-1.5102932331472155e-01
-1.4850715814236015e-01
-1.4598438687022988e-01
-1.4346101003664111e-01
-1.4093702817917519e-01
-1.3841244183469412e-01
-1.3588725153933787e-01
-1.3336145782852399e-01
-1.3083506123694888e-01
-1.2830806229859332e-01
-1.2578046154672068e-01
-1.2325225951387865e-01
-1.2072345673189819e-01
-1.1819405373190287e-01
-1.1566405104429853e-01
-1.1313344919878349e-01
-1.1060224872434804e-01
-1.0807045014927394e-01
-1.0553805400113463e-01
-1.0300506080680082e-01
-1.0047147109243612e-01
-9.7937285383506434e-02
-9.5402504204772393e-02
-9.2867128080296513e-02
-9.0331157533440246e-02
-8.7794593086871764e-02
-8.5257435262558426e-02
-8.2719684581775338e-02
-8.0181341565103106e-02
-7.7642406732430280e-02
-7.5102880602952587e-02
-7.2562763695179916e-02
-7.0022056526930249e-02
-6.7480759615333466e-02
-6.4938873476834469e-02
-6.2396398627195489e-02
-5.9853335581491397e-02
-5.7309684854116701e-02
-5.4765446958784630e-02
-5.2220622408527116e-02
-4.9675211715699365e-02
-4.7129215391978958e-02
-4.4582633948363468e-02
-4.2035467895180360e-02
-3.9487717742081471e-02
-3.6939383998043626e-02
-3.4390467171376990e-02
-3.1840967769717954e-02
-2.9290886300033570e-02
-2.6740223268625227e-02
-2.4188979181127696e-02
-2.1637154542508866e-02
-1.9084749857073400e-02
-1.6531765628462498e-02
-1.3978202359656713e-02
-1.1424060552974126e-02
-8.8693407100739526e-03
-6.3140433319593273e-03
-3.7581689189723302e-03
-1.2017179708037706e-03
1.3553090135133903e-03
3.9129115355997258e-03
6.4710890977273767e-03
9.0298412028180907e-03
1.1589167354447536e-02
1.4149067056835553e-02
1.6709539814853611e-02
1.9270585134018220e-02
2.1832202520489032e-02
2.4394391481074782e-02
2.6957151523223585e-02
2.9520482155025798e-02
3.2084382885215278e-02
3.4648853223162863e-02
3.7213892678877696e-02
3.9779500763008527e-02
4.2345676986838769e-02
4.4912420862286320e-02
4.7479731901904916e-02
5.0047609618880752e-02
5.2616053527032372e-02
5.5185063140805728e-02
5.7754637975278779e-02
6.0324777546158163e-02
6.2895481369779127e-02
6.5466748963097440e-02
6.8038579843700431e-02
7.0610973529795770e-02
7.3183929540214548e-02
7.5757447394411301e-02
7.8331526612459040e-02
8.0906166715049410e-02
8.3481367223497208e-02
8.6057127659729477e-02
8.8633447546294805e-02
9.1210326406350808e-02
9.3787763763670387e-02
9.6365759142648166e-02
9.8944312068278292e-02
1.0152342206617510e-01
1.0410308866255732e-01
1.0668331138425294e-01
1.0926408975870082e-01
1.1184542331394608e-01
1.1442731157863385e-01
1.1700975408202204e-01
1.1959275035396408e-01
1.2217629992492170e-01
1.2476040232595401e-01
1.2734505708872401e-01
1.2993026374548922e-01
1.3251602182911143e-01
1.3510233087304091e-01
1.3768919041133584e-01
1.4027659997863862e-01
1.4286455911018872e-01
1.4545306734182473e-01
1.4804212420996685e-01
1.5063172925163337e-01
1.5322188200443113e-01
1.5581258200655590e-01
1.5840382879678958e-01
1.6099562191450034e-01
1.6358796089964475e-01
1.6618084529276467e-01
1.6877427463498149e-01
1.7136824846800414e-01
1.7396276633411706e-01
1.7655782777619461e-01
1.7915343233768405e-01
1.8174957956260915e-01
1.8434626899558013e-01
1.8694350018177497e-01
1.8954127266695403e-01
1.9213958599744640e-01
1.9473843972016130e-01
1.9733783338257591e-01
1.9993776653274212e-01
2.0253823871927903e-01
2.0513924949137829e-01
2.0774079839879991e-01
2.1034288499186923e-01
2.1294550882148433e-01
2.1554866943910325e-01
2.1815236639675134e-01
2.2075659924701840e-01
2.2336136754305286e-01
2.2596667083857208e-01
2.2857250868785003e-01
2.3117888064572109e-01
2.3378578626757895e-01
2.3639322510937594e-01
2.3900119672762007e-01
2.4160970067937759e-01
2.4421873652227022e-01
2.4682830381447107e-01
2.4943840211471011e-01
2.5204903098226517e-01
2.5466018997697087e-01
2.5727187865920931e-01
2.5988409658991107e-01
2.6249684333055923e-01
2.6511011844318144e-01
2.6772392149035162e-01
2.7033825203519141e-01
2.7295310964137004e-01
2.7556849387309151e-01
2.7818440429511387e-01
2.8080084047273163e-01
2.8341780197177668e-01
2.8603528835863096e-01
2.8865329920020710e-01
2.9127183406396101e-01
2.9389089251788636e-01
2.9651047413050680e-01
2.9913057847089053e-01
3.0175120510863757e-01
3.0437235361387599e-01
3.0699402355727445e-01
3.0961621451003285e-01
3.1223892604387887e-01
3.1486215773107162e-01
3.1748590914439989e-01
3.2011017985718271e-01
3.2273496944326219e-01
3.2536027747701285e-01
3.2798610353333268e-01
3.3061244718763910e-01
3.3323930801588658e-01
3.3586668559453625e-01
3.3849457950058848e-01
3.4112298931154894e-01
3.4375191460545795e-01
3.4638135496086669e-01
3.4901130995684504e-01
3.5164177917298728e-01
3.5427276218939868e-01
3.5690425858670305e-01
3.5953626794603866e-01
3.6216878984906159e-01
3.6480182387793469e-01
3.6743536961534062e-01
3.7006942664446807e-01
3.7270399454902114e-01
3.7533907291321389e-01
3.7797466132176644e-01
3.8061075935990657e-01
3.8324736661337688e-01
3.8588448266842018e-01
3.8852210711178659e-01
3.9116023953073192e-01
3.9379887951301562e-01
3.9643802664690331e-01
3.9907768052115661e-01
4.0171784072504624e-01
4.0435850684833791e-01
4.0699967848130397e-01
4.0964135521470613e-01
4.1228353663981510e-01
4.1492622234839377e-01
4.1756941193269831e-01
4.2021310498548975e-01
4.2285730110001485e-01
4.2550199987002285e-01
4.2814720088974861e-01
4.3079290375392670e-01
4.3343910805777847e-01
4.3608581339701785e-01
4.3873301936784975e-01
4.4138072556696634e-01
4.4402893159155177e-01
4.4667763703927532e-01
4.4932684150829266e-01
4.5197654459724923e-01
4.5462674590526958e-01
4.5727744503196915e-01
4.5992864157744406e-01
4.6258033514227059e-01
4.6523252532751547e-01
4.6788521173471687e-01
4.7053839396590091e-01
4.7319207162356874e-01
4.7584624431070405e-01
4.7850091163076625e-01
4.8115607318769266e-01
4.8381172858589766e-01
4.8646787743027270e-01
4.8912451932617979e-01
4.9178165387945955e-01
4.9443928069642590e-01
4.9709739938386460e-01
4.9975600954903121e-01
5.0241511079965462e-01
5.0507470274393340e-01
5.0773478499053726e-01
5.1039535714860440e-01
5.1305641882773678e-01
5.1571796963801009e-01
5.1838000918996374e-01
5.2104253709460013e-01
5.2370555296339294e-01
5.2636905640827503e-01
5.2903304704164322e-01
5.3169752447636109e-01
5.3436248832574751e-01
5.3702793820358963e-01
5.3969387372412847e-01
5.4236029450207124e-01
5.4502720015258144e-01
5.4769459029127854e-01
5.5036246453424287e-01
5.5303082249800806e-01
5.5569966379956703e-01
5.5836898805636770e-01
5.6103879488631248e-01
5.6370908390775354e-01
5.6637985473950314e-01
5.6905110700081818e-01
5.7172284031141296e-01
5.7439505429145132e-01
5.7706774856154786e-01
5.7974092274276412e-01
5.8241457645660877e-01
5.8508870932504653e-01
5.8776332097048101e-01
5.9043841101576677e-01
5.9311397908420149e-01
5.9579002479953080e-01
5.9846654778594510e-01
6.0114354766807288e-01
6.0382102407099159e-01
6.0649897662021723e-01
6.0917740494170969e-01
6.1185630866186969e-01
6.1453568740753572e-01
6.1721554080598751e-01
6.1989586848494260e-01
6.2257667007255735e-01
6.2525794519742495e-01
6.2793969348857381e-01
6.3062191457547356e-01
6.3330460808801947e-01
6.3598777365655013e-01
6.3867141091183555e-01
6.4135551948507585e-01
6.4404009900790682e-01
6.4672514911239332e-01
6.4941066943103276e-01
6.5209665959675434e-01
6.5478311924291366e-01
6.5747004800330033e-01
6.6015744551212407e-01
6.6284531140402947e-01
6.6553364531408588e-01
6.6822244687778720e-01
6.7091171573105490e-01
6.7360145151023443e-01
6.7629165385209544e-01
6.7898232239383105e-01
6.8167345677305957e-01
6.8436505662781488e-01
6.8705712159656351e-01
6.8974965131817989e-01
6.9244264543196554e-01
6.9513610357764422e-01
6.9783002539535555e-01
7.0052441052565195e-01
7.0321925860951129e-01
7.0591456928832574e-01
7.0861034220390096e-01
7.1130657699846334e-01
7.1400327331464886e-01
7.1670043079550960e-01
7.1939804908451388e-01
7.2209612782553823e-01
7.2479466666287640e-01
7.2749366524123016e-01
7.3019312320571184e-01
7.3289304020184665e-01
7.3559341587556859e-01
7.3829424987321812e-01
7.4099554184155103e-01
7.4369729142771979e-01
7.4639949827929586e-01
7.4910216204424995e-01
7.5180528237095856e-01
7.5450885890820651e-01
7.5721289130517999e-01
7.5991737921147262e-01
7.6262232227707916e-01
7.6532772015239636e-01
7.6803357248822479e-01
7.7073987893576312e-01
7.7344663914661682e-01
7.7615385277278370e-01
7.7886151946666826e-01
7.8156963888106690e-01
7.8427821066918191e-01
7.8698723448460906e-01
7.8969670998133734e-01
7.9240663681375945e-01
7.9511701463666118e-01
7.9782784310521870e-01
8.0053912187501053e-01
8.0325085060200463e-01
8.0596302894256233e-01
8.0867565655343820e-01
8.1138873309177739e-01
8.1410225821512172e-01
8.1681623158139671e-01
8.1953065284892390e-01
8.2224552167640819e-01
8.2496083772295270e-01
8.2767660064803950e-01
8.3039281011154520e-01
8.3310946577373102e-01
8.3582656729524130e-01
8.3854411433711407e-01
8.4126210656076672e-01
8.4398054362800479e-01
8.4669942520101515e-01
8.4941875094236852e-01
8.5213852051502115e-01
8.5485873358231246e-01
8.5757938980796034e-01
8.6030048885606447e-01
8.6302203039110414e-01
8.6574401407794621e-01
8.6846643958182590e-01
8.7118930656836469e-01
8.7391261470356141e-01
8.7663636365379327e-01
8.7936055308581040e-01
8.8208518266674085e-01
8.8481025206409447e-01
8.8753576094574727e-01
8.9026170897995960e-01
8.9298809583535910e-01
8.9571492118094675e-01
8.9844218468610659e-01
9.0116988602058068e-01
9.0389802485449200e-01
9.0662660085833624e-01
9.0935561370297402e-01
9.1208506305964065e-01
9.1481494859993640e-01
9.1754526999583819e-01
9.2027602691968324e-01
9.2300721904418292e-01
9.2573884604241330e-01
9.2847090758781969e-01
9.3120340335420804e-01
9.3393633301575429e-01
9.3666969624700058e-01
9.3940349272285395e-01
9.4213772211857860e-01
9.4487238410981167e-01
9.4760747837254911e-01
9.5034300458314591e-01
9.5307896241832357e-01
9.5581535155516462e-01
9.5855217167110929e-01
9.6128942244396076e-01
9.6402710355188315e-01
9.6676521467339394e-01
9.6950375548737588e-01
9.7224272567306380e-01
9.7498212491005576e-01
9.7772195287830121e-01
9.8046220925810779e-01
9.8320289373014580e-01
9.8594400597542753e-01
9.8868554567533407e-01
9.9142751251158934e-01
9.9416990616627721e-01
9.9691272632183348e-01
9.9965597266104578e-01
1.0023996448670547e+00
1.0051437426233525e+00
1.0078882656137815e+00
1.0106332135225344e+00
1.0133785860341544e+00
1.0161243828335362e+00
1.0188706036059219e+00
1.0216172480368995e+00
1.0243643158124052e+00
1.0271118066187277e+00
1.0298597201424973e+00
1.0326080560706954e+00
1.0353568140906417e+00
1.0381059938900095e+00
1.0408555951568099e+00
1.0436056175794020e+00
1.0463560608464875e+00
1.0491069246471159e+00
1.0518582086706707e+00
1.0546099126068798e+00
1.0573620361458220e+00
1.0601145789779045e+00
1.0628675407938835e+00
1.0656209212848504e+00
1.0683747201422380e+00
1.0711289370578225e+00
1.0738835717237123e+00
1.0766386238323573e+00
1.0793940930765420e+00
1.0821499791493892e+00
1.0849062817443611e+00
1.0876630005552552e+00
1.0904201352761989e+00
1.0931776856016620e+00
1.0959356512264460e+00
1.0986940318456864e+00
1.1014528271548487e+00
1.1042120368497383e+00
1.1069716606264886e+00
1.1097316981815648e+00
1.1124921492117688e+00
1.1152530134142256e+00
1.1180142904863983e+00
1.1207759801260744e+00
1.1235380820313754e+00
1.1263005959007493e+00
1.1290635214329736e+00
1.1318268583271529e+00
1.1345906062827209e+00
1.1373547649994367e+00
1.1401193341773888e+00
1.1428843135169899e+00
1.1456497027189771e+00
1.1484155014844175e+00
1.1511817095146990e+00
1.1539483265115318e+00
1.1567153521769569e+00
1.1594827862133323e+00
1.1622506283233418e+00
1.1650188782099897e+00
1.1677875355766052e+00
1.1705566001268359e+00
1.1733260715646503e+00
1.1760959495943399e+00
1.1788662339205125e+00
1.1816369242481033e+00
1.1844080202823548e+00
1.1871795217288386e+00
1.1899514282934351e+00
1.1927237396823531e+00
1.1954964556021097e+00
1.1982695757595416e+00
1.2010430998617996e+00
1.2038170276163582e+00
1.2065913587309973e+00
1.2093660929138175e+00
1.2121412298732313e+00
1.2149167693179679e+00
1.2176927109570661e+00
1.2204690544998806e+00
1.2232457996560777e+00
1.2260229461356364e+00
1.2288004936488446e+00
1.2315784419063063e+00
1.2343567906189310e+00
1.2371355394979444e+00
1.2399146882548742e+00
1.2426942366015652e+00
1.2454741842501671e+00
1.2482545309131374e+00
1.2510352763032444e+00
1.2538164201335615e+00
1.2565979621174714e+00
1.2593799019686620e+00
1.2621622394011249e+00
1.2649449741291636e+00
1.2677281058673850e+00
1.2705116343306944e+00
1.2732955592343105e+00
1.2760798802937516e+00
1.2788645972248374e+00
1.2816497097436967e+00
1.2844352175667555e+00
1.2872211204107460e+00
1.2900074179926999e+00
1.2927941100299509e+00
1.2955811962401320e+00
1.2983686763411790e+00
1.3011565500513280e+00
1.3039448170891128e+00
1.3067334771733665e+00
1.3095225300232243e+00
1.3123119753581145e+00
1.3151018128977667e+00
1.3178920423622069e+00
1.3206826634717592e+00
1.3234736759470442e+00
1.3262650795089739e+00
1.3290568738787658e+00
1.3318490587779219e+00
1.3346416339282490e+00
1.3374345990518395e+00
1.3402279538710864e+00
1.3430216981086724e+00
1.3458158314875770e+00
1.3486103537310667e+00
1.3514052645627082e+00
1.3542005637063546e+00
1.3569962508861497e+00
1.3597923258265319e+00
1.3625887882522278e+00
1.3653856378882581e+00
1.3681828744599280e+00
1.3709804976928359e+00
1.3737785073128690e+00
1.3765769030461990e+00
1.3793756846192931e+00
1.3821748517589012e+00
1.3849744041920584e+00
1.3877743416460901e+00
1.3905746638486112e+00
1.3933753705275189e+00
1.3961764614109951e+00
1.3989779362275081e+00
1.4017797947058142e+00
1.4045820365749473e+00
1.4073846615642347e+00
1.4101876694032798e+00
1.4129910598219733e+00
1.4157948325504843e+00
1.4185989873192704e+00
1.4214035238590670e+00
1.4242084419008951e+00
1.4270137411760488e+00
1.4298194214161155e+00
1.4326254823529501e+00
1.4354319237186963e+00
1.4382387452457761e+00
1.4410459466668866e+00
1.4438535277150091e+00
1.4466614881233997e+00
1.4494698276255951e+00
1.4522785459554057e+00
1.4550876428469255e+00
1.4578971180345193e+00
1.4607069712528333e+00
1.4635172022367846e+00
1.4663278107215718e+00
1.4691387964426639e+00
1.4719501591358073e+00
1.4747618985370226e+00
1.4775740143826066e+00
1.4803865064091244e+00
1.4831993743534218e+00
1.4860126179526103e+00
1.4888262369440795e+00
1.4916402310654890e+00
1.4944546000547696e+00
1.4972693436501252e+00
1.5000844615900315e+00
1.5028999536132295e+00
1.5057158194587403e+00
1.5085320588658437e+00
1.5113486715740991e+00
1.5141656573233253e+00
1.5169830158536197e+00
1.5198007469053432e+00
1.5226188502191225e+00
1.5254373255358582e+00
1.5282561725967114e+00
1.5310753911431156e+00
1.5338949809167686e+00
1.5367149416596331e+00
1.5395352731139380e+00
1.5423559750221834e+00
1.5451770471271251e+00
1.5479984891717888e+00
1.5508203008994672e+00
1.5536424820537085e+00
1.5564650323783331e+00
1.5592879516174214e+00
1.5621112395153145e+00
1.5649348958166196e+00
1.5677589202662032e+00
1.5705833126091941e+00
1.5734080725909858e+00
1.5762331999572270e+00
1.5790586944538312e+00
1.5818845558269732e+00
1.5847107838230818e+00
1.5875373781888513e+00
1.5903643386712343e+00
1.5931916650174398e+00
1.5960193569749372e+00
1.5988474142914508e+00
1.6016758367149684e+00
1.6045046239937333e+00
1.6073337758762403e+00
1.6101632921112483e+00
1.6129931724477664e+00
1.6158234166350660e+00
1.6186540244226728e+00
1.6214849955603599e+00
1.6243163297981642e+00
1.6271480268863736e+00
1.6299800865755349e+00
1.6328125086164411e+00
1.6356452927601415e+00
1.6384784387579405e+00
1.6413119463613943e+00
1.6441458153223121e+00
1.6469800453927552e+00
1.6498146363250341e+00
1.6526495878717145e+00
1.6554848997856113e+00
1.6583205718197864e+00
1.6611566037275631e+00
1.6639929952625008e+00
1.6668297461784181e+00
1.6696668562293817e+00
1.6725043251697032e+00
1.6753421527539440e+00
1.6781803387369210e+00
1.6810188828736885e+00
1.6838577849195542e+00
1.6866970446300711e+00
1.6895366617610434e+00
1.6923766360685164e+00
1.6952169673087847e+00
1.6980576552383881e+00
1.7008986996141111e+00
1.7037401001929842e+00
1.7065818567322866e+00
1.7094239689895343e+00
1.7122664367224945e+00
1.7151092596891737e+00
1.7179524376478255e+00
1.7207959703569429e+00
1.7236398575752674e+00
1.7264840990617756e+00
1.7293286945756932e+00
1.7321736438764863e+00
1.7350189467238586e+00
1.7378646028777600e+00
1.7407106120983766e+00
1.7435569741461425e+00
1.7464036887817231e+00
1.7492507557660286e+00
1.7520981748602094e+00
1.7549459458256533e+00
1.7577940684239899e+00
1.7606425424170833e+00
1.7634913675670363e+00
1.7663405436361945e+00
1.7691900703871364e+00
1.7720399475826820e+00
1.7748901749858812e+00
1.7777407523600304e+00
1.7805916794686534e+00
1.7834429560755165e+00
1.7862945819446177e+00
1.7891465568401907e+00
1.7919988805267093e+00
1.7948515527688733e+00
1.7977045733316264e+00
1.8005579419801392e+00
1.8034116584798225e+00
1.8062657225963128e+00
1.8091201340954868e+00
1.8119748927434502e+00
1.8148299983065421e+00
1.8176854505513371e+00
1.8205412492446331e+00
1.8233973941534714e+00
1.8262538850451164e+00
1.8291107216870646e+00
1.8319679038470444e+00
1.8348254312930163e+00
1.8376833037931684e+00
1.8405415211159182e+00
1.8434000830299138e+00
1.8462589893040358e+00
1.8491182397073851e+00
1.8519778340092969e+00
1.8548377719793381e+00
1.8576980533872962e+00
1.8605586780031915e+00
1.8634196455972649e+00
1.8662809559399940e+00
1.8691426088020766e+00
1.8720046039544385e+00
1.8748669411682297e+00
1.8777296202148284e+00
1.8805926408658407e+00
1.8834560028930916e+00
1.8863197060686336e+00
1.8891837501647470e+00
1.8920481349539326e+00
1.8949128602089138e+00
1.8977779257026450e+00
1.9006433312082947e+00
1.9035090764992622e+00
1.9063751613491651e+00
1.9092415855318436e+00
1.9121083488213615e+00
1.9149754509920069e+00
1.9178428918182824e+00
1.9207106710749209e+00
1.9235787885368694e+00
1.9264472439792948e+00
1.9293160371775913e+00
1.9321851679073696e+00
1.9350546359444587e+00
1.9379244410649099e+00
1.9407945830449891e+00
1.9436650616611877e+00
1.9465358766902081e+00
1.9494070279089823e+00
1.9522785150946456e+00
1.9551503380245658e+00
1.9580224964763195e+00
1.9608949902276978e+00
1.9637678190567178e+00
1.9666409827416087e+00
1.9695144810608149e+00
1.9723883137929974e+00
1.9752624807170363e+00
1.9781369816120213e+00
1.9810118162572621e+00
1.9838869844322808e+00
1.9867624859168156e+00
1.9896383204908192e+00
1.9925144879344578e+00
1.9953909880281087e+00
1.9982678205523670e+00
2.0011449852880432e+00
2.0040224820161487e+00
2.0069003105179228e+00
2.0097784705748074e+00
2.0126569619684571e+00
2.0155357844807438e+00
2.0184149378937462e+00
2.0212944219897540e+00
2.0241742365512732e+00
2.0270543813610118e+00
2.0299348562018995e+00
2.0328156608570640e+00
2.0356967951098510e+00
2.0385782587438159e+00
2.0414600515427161e+00
2.0443421732905254e+00
2.0472246237714273e+00
2.0501074027698047e+00
2.0529905100702583e+00
2.0558739454575914e+00
2.0587577087168185e+00
2.0616417996331569e+00
2.0645262179920358e+00
2.0674109635790865e+00
2.0702960361801526e+00
2.0731814355812794e+00
2.0760671615687207e+00
2.0789532139289326e+00
2.0818395924485840e+00
2.0847262969145404e+00
2.0876133271138793e+00
2.0905006828338752e+00
2.0933883638620157e+00
2.0962763699859890e+00
2.0991647009936845e+00
2.1020533566731983e+00
2.1049423368128308e+00
2.1078316412010807e+00
2.1107212696266551e+00
2.1136112218784593e+00
2.1165014977456065e+00
2.1193920970174043e+00
2.1222830194833668e+00
2.1251742649332135e+00
2.1280658331568545e+00
2.1309577239444120e+00
2.1338499370862012e+00
2.1367424723727404e+00
2.1396353295947494e+00
2.1425285085431467e+00
2.1454220090090508e+00
2.1483158307837797e+00
2.1512099736588497e+00
2.1541044374259797e+00
2.1569992218770802e+00
2.1598943268042672e+00
2.1627897519998505e+00
2.1656854972563400e+00
2.1685815623664415e+00
2.1714779471230612e+00
2.1743746513192979e+00
2.1772716747484515e+00
2.1801690172040176e+00
2.1830666784796855e+00
2.1859646583693437e+00
2.1888629566670748e+00
2.1917615731671583e+00
2.1946605076640706e+00
2.1975597599524748e+00
2.2004593298272388e+00
2.2033592170834240e+00
2.2062594215162790e+00
2.2091599429212523e+00
2.2120607810939878e+00
2.2149619358303170e+00
2.2178634069262695e+00
2.2207651941780653e+00
2.2236672973821210e+00
2.2265697163350411e+00
2.2294724508336237e+00
2.2323755006748636e+00
2.2352788656559404e+00
2.2381825455742304e+00
2.2410865402272977e+00
2.2439908494129011e+00
2.2468954729289909e+00
2.2498004105737017e+00
2.2527056621453663e+00
2.2556112274425000e+00
2.2585171062638163e+00
2.2614232984082108e+00
2.2643298036747748e+00
2.2672366218627826e+00
2.2701437527717019e+00
2.2730511962011888e+00
2.2759589519510857e+00
2.2788670198214271e+00
2.2817753996124281e+00
2.2846840911245017e+00
2.2875930941582374e+00
2.2905024085144219e+00
2.2934120339940240e+00
2.2963219703981985e+00
2.2992322175282864e+00
2.3021427751858208e+00
2.3050536431725162e+00
2.3079648212902710e+00
2.3108763093411722e+00
2.3137881071274942e+00
2.3167002144516933e+00
2.3196126311164083e+00
2.3225253569244702e+00
2.3254383916788863e+00
2.3283517351828547e+00
2.3312653872397542e+00
2.3341793476531474e+00
2.3370936162267797e+00
2.3400081927645799e+00
2.3429230770706644e+00
2.3458382689493251e+00
2.3487537682050443e+00
2.3516695746424774e+00
2.3545856880664684e+00
2.3575021082820444e+00
2.3604188350944098e+00
2.3633358683089494e+00
2.3662532077312366e+00
2.3691708531670179e+00
2.3720888044222241e+00
2.3750070613029677e+00
2.3779256236155373e+00
2.3808444911664051e+00
2.3837636637622235e+00
2.3866831412098195e+00
2.3896029233162044e+00
2.3925230098885715e+00
2.3954434007342829e+00
2.3983640956608867e+00
2.4012850944761102e+00
2.4042063969878567e+00
2.4071280030042050e+00
2.4100499123334140e+00
2.4129721247839235e+00
2.4158946401643453e+00
2.4188174582834723e+00
2.4217405789502711e+00
2.4246640019738845e+00
2.4275877271636390e+00
2.4305117543290287e+00
2.4334360832797266e+00
2.4363607138255809e+00
2.4392856457766219e+00
2.4422108789430443e+00
2.4451364131352253e+00
2.4480622481637151e+00
2.4509883838392401e+00
2.4539148199726952e+00
2.4568415563751591e+00
2.4597685928578770e+00
2.4626959292322708e+00
2.4656235653099352e+00
2.4685515009026391e+00
2.4714797358223248e+00
2.4744082698811050e+00
2.4773371028912705e+00
2.4802662346652773e+00
2.4831956650157587e+00
2.4861253937555188e+00
2.4890554206975377e+00
2.4919857456549575e+00
2.4949163684411020e+00
2.4978472888694578e+00
2.5007785067536887e+00
2.5037100219076263e+00
2.5066418341452747e+00
2.5095739432808073e+00
2.5125063491285653e+00
2.5154390515030678e+00
2.5183720502189901e+00
2.5213053450911898e+00
2.5242389359346866e+00
2.5271728225646761e+00
2.5301070047965153e+00
2.5330414824457317e+00
2.5359762553280256e+00
2.5389113232592613e+00
2.5418466860554738e+00
2.5447823435328627e+00
2.5477182955077988e+00
2.5506545417968178e+00
2.5535910822166223e+00
2.5565279165840864e+00
2.5594650447162492e+00
2.5624024664303096e+00
2.5653401815436436e+00
2.5682781898737850e+00
2.5712164912384381e+00
2.5741550854554713e+00
2.5770939723429187e+00
2.5800331517189847e+00
2.5829726234020285e+00
2.5859123872105849e+00
2.5888524429633448e+00
2.5917927904791709e+00
2.5947334295770843e+00
2.5976743600762751e+00
2.6006155817960961e+00
2.6035570945560615e+00
2.6064988981758490e+00
2.6094409924753048e+00
2.6123833772744316e+00
2.6153260523934017e+00
2.6182690176525458e+00
2.6212122728723570e+00
2.6241558178734912e+00
2.6270996524767702e+00
2.6300437765031717e+00
2.6329881897738412e+00
2.6359328921100809e+00
2.6388778833333584e+00
2.6418231632652969e+00
2.6447687317276878e+00
2.6477145885424762e+00
2.6506607335317725e+00
2.6536071665178476e+00
2.6565538873231289e+00
2.6595008957702064e+00
2.6624481916818343e+00
2.6653957748809161e+00
2.6683436451905203e+00
2.6712918024338776e+00
2.6742402464343762e+00
2.6771889770155561e+00
2.6801379940011256e+00
2.6830872972149464e+00
2.6860368864810402e+00
2.6889867616235854e+00
2.6919369224669181e+00
2.6948873688355346e+00
2.6978381005540859e+00
2.7007891174473815e+00
2.7037404193403867e+00
2.7066920060582289e+00
2.7096438774261835e+00
2.7125960332696906e+00
2.7155484734143420e+00
2.7185011976858857e+00
2.7214542059102280e+00
2.7244074979134298e+00
2.7273610735217066e+00
2.7303149325614311e+00
2.7332690748591322e+00
2.7362235002414881e+00
2.7391782085353400e+00
2.7421331995676756e+00
2.7450884731656418e+00
2.7480440291565413e+00
2.7509998673678249e+00
2.7539559876271049e+00
2.7569123897621397e+00
2.7598690736008460e+00
2.7628260389712951e+00
2.7657832857017053e+00
2.7687408136204543e+00
2.7716986225560691e+00
2.7746567123372290e+00
2.7776150827927681e+00
2.7805737337516709e+00
2.7835326650430736e+00
2.7864918764962683e+00
2.7894513679406923e+00
2.7924111392059392e+00
2.7953711901217515e+00
2.7983315205180235e+00
2.8012921302248048e+00
2.8042530190722870e+00
2.8072141868908180e+00
2.8101756335108989e+00
2.8131373587631709e+00
2.8160993624784374e+00
2.8190616444876424e+00
2.8220242046218815e+00
2.8249870427124071e+00
2.8279501585906108e+00
2.8309135520880395e+00
2.8338772230363891e+00
2.8368411712674964e+00
2.8398053966133596e+00
2.8427698989061150e+00
2.8457346779780517e+00
2.8486997336616082e+00
2.8516650657893647e+00
2.8546306741940555e+00
2.8575965587085599e+00
2.8605627191659067e+00
2.8635291553992648e+00
2.8664958672419605e+00
2.8694628545274616e+00
2.8724301170893800e+00
2.8753976547614766e+00
2.8783654673776615e+00
2.8813335547719854e+00
2.8843019167786510e+00
2.8872705532320038e+00
2.8902394639665303e+00
2.8932086488168709e+00
2.8961781076178097e+00
2.8991478402042659e+00
2.9021178464113198e+00
2.9050881260741814e+00
2.9080586790282155e+00
2.9110295051089268e+00
2.9140006041519655e+00
2.9169719759931243e+00
2.9199436204683429e+00
2.9229155374137012e+00
2.9258877266654233e+00
2.9288601880598817e+00
2.9318329214335854e+00
2.9348059266231856e+00
2.9377792034654906e+00
2.9407527517974295e+00
2.9437265714560916e+00
2.9467006622786984e+00
2.9496750241026235e+00
2.9526496567653684e+00
2.9556245601045901e+00
2.9585997339580823e+00
2.9615751781637769e+00
2.9645508925597479e+00
2.9675268769842180e+00
2.9705031312755423e+00
2.9734796552722202e+00
2.9764564488128902e+00
2.9794335117363371e+00
2.9824108438814791e+00
2.9853884450873758e+00
2.9883663151932303e+00
2.9913444540383813e+00
2.9943228614623103e+00
2.9973015373046406e+00
3.0002804814051274e+00
3.0032596936036704e+00
3.0062391737403082e+00
3.0092189216552185e+00
3.0121989371887152e+00
3.0151792201812526e+00
3.0181597704734222e+00
3.0211405879059567e+00
3.0241216723197231e+00
3.0271030235557266e+00
3.0300846414551170e+00
3.0330665258591702e+00
3.0360486766093095e+00
3.0390310935470888e+00
3.0420137765142048e+00
3.0449967253524850e+00
3.0479799399039011e+00
3.0509634200105524e+00
3.0539471655146828e+00
3.0569311762586677e+00
3.0599154520850202e+00
3.0628999928363916e+00
3.0658847983555639e+00
3.0688698684854585e+00
3.0718552030691311e+00
3.0748408019497737e+00
3.0778266649707113e+00
3.0808127919754096e+00
3.0837991828074607e+00
3.0867858373105976e+00
3.0897727553286867e+00
3.0927599367057259e+00
3.0957473812858511e+00
3.0987350889133332e+00
3.1017230594325711e+00
3.1047112926881031e+00
3.1076997885245961e+00
3.1106885467868572e+00
3.1136775673198205e+00
3.1166668499685604e+00
3.1196563945782732e+00
3.1226462009942959e+00
3.1256362690621038e+00
3.1286265986272892e+00
3.1316171895355889e+00
3.1346080416328670e+00
3.1375991547651250e+00
3.1405905287784885e+00
3.1435821635192216e+00
3.1465740588337154e+00
3.1495662145684946e+00
3.1525586305702160e+00
3.1555513066856666e+00
3.1585442427617614e+00
3.1615374386455533e+00
3.1645308941842183e+00
3.1675246092250697e+00
3.1705185836155425e+00
3.1735128172032137e+00
3.1765073098357823e+00
3.1795020613610796e+00
3.1824970716270617e+00
3.1854923404818254e+00
3.1884878677735848e+00
3.1914836533506925e+00
3.1944796970616243e+00
3.1974759987549901e+00
3.2004725582795275e+00
3.2034693754840968e+00
3.2064664502176949e+00
3.2094637823294434e+00
3.2124613716685930e+00
3.2154592180845194e+00
3.2184573214267331e+00
3.2214556815448678e+00
3.2244542982886846e+00
3.2274531715080759e+00
3.2304523010530568e+00
3.2334516867737690e+00
3.2364513285204914e+00
3.2394512261436152e+00
3.2424513794936711e+00
3.2454517884213097e+00
3.2484524527773098e+00
3.2514533724125769e+00
3.2544545471781414e+00
3.2574559769251641e+00
3.2604576615049243e+00
3.2634596007688321e+00
3.2664617945684271e+00
3.2694642427553640e+00
3.2724669451814332e+00
3.2754699016985449e+00
3.2784731121587347e+00
3.2814765764141636e+00
3.2844802943171207e+00
3.2874842657200150e+00
3.2904884904753819e+00
3.2934929684358805e+00
3.2964976994542963e+00
3.2995026833835377e+00
3.3025079200766374e+00
3.3055134093867493e+00
3.3085191511671543e+00
3.3115251452712573e+00
3.3145313915525838e+00
3.3175378898647820e+00
3.3205446400616303e+00
3.3235516419970197e+00
3.3265588955249714e+00
3.3295664004996266e+00
3.3325741567752494e+00
3.3355821642062273e+00
3.3385904226470706e+00
3.3415989319524062e+00
3.3446076919769911e+00
3.3476167025756989e+00
3.3506259636035285e+00
3.3536354749155972e+00
3.3566452363671426e+00
3.3596552478135284e+00
3.3626655091102355e+00
3.3656760201128693e+00
3.3686867806771530e+00
3.3716977906589327e+00
3.3747090499141708e+00
3.3777205582989573e+00
3.3807323156695017e+00
3.3837443218821210e+00
3.3867565767932719e+00
3.3897690802595184e+00
3.3927818321375431e+00
3.3957948322841571e+00
3.3988080805562881e+00
3.4018215768109750e+00
3.4048353209053901e+00
3.4078493126968104e+00
3.4108635520426436e+00
3.4138780388004073e+00
3.4168927728277474e+00
3.4199077539824181e+00
3.4229229821222993e+00
3.4259384571053890e+00
3.4289541787897959e+00
3.4319701470337565e+00
3.4349863616956204e+00
3.4380028226338539e+00
3.4410195297070438e+00
3.4440364827738943e+00
3.4470536816932245e+00
3.4500711263239729e+00
3.4530888165251956e+00
3.4561067521560642e+00
3.4591249330758673e+00
3.4621433591440076e+00
3.4651620302200148e+00
3.4681809461635194e+00
3.4712001068342833e+00
3.4742195120921746e+00
3.4772391617971818e+00
3.4802590558094071e+00
3.4832791939890733e+00
3.4862995761965125e+00
3.4893202022921761e+00
3.4923410721366288e+00
3.4953621855905563e+00
3.4983835425147509e+00
3.5014051427701269e+00
3.5044269862177080e+00
3.5074490727186403e+00
3.5104714021341787e+00
3.5134939743256903e+00
3.5165167891546627e+00
3.5195398464826964e+00
3.5225631461715032e+00
3.5255866880829139e+00
3.5286104720788662e+00
3.5316344980214160e+00
3.5346587657727349e+00
3.5376832751951053e+00
3.5407080261509196e+00
3.5437330185026896e+00
3.5467582521130367e+00
3.5497837268446988e+00
3.5528094425605232e+00
3.5558353991234690e+00
3.5588615963966137e+00
3.5618880342431387e+00
3.5649147125263485e+00
3.5679416311096492e+00
3.5709687898565674e+00
3.5739961886307365e+00
3.5770238272959021e+00
3.5800517057159280e+00
3.5830798237547792e+00
3.5861081812765403e+00
3.5891367781454080e+00
3.5921656142256815e+00
3.5951946893817777e+00
3.5982240034782298e+00
3.6012535563796675e+00
3.6042833479508434e+00
3.6073133780566189e+00
3.6103436465619576e+00
3.6133741533319461e+00
3.6164048982317740e+00
3.6194358811267380e+00
3.6224671018822532e+00
3.6254985603638397e+00
3.6285302564371271e+00
3.6315621899678581e+00
3.6345943608218780e+00
3.6376267688651520e+00
3.6406594139637436e+00
3.6436922959838367e+00
3.6467254147917103e+00
3.6497587702537668e+00
3.6527923622365099e+00
3.6558261906065517e+00
3.6588602552306146e+00
3.6618945559755312e+00
3.6649290927082383e+00
3.6679638652957851e+00
3.6709988736053263e+00
3.6740341175041222e+00
3.6770695968595510e+00
3.6801053115390872e+00
3.6831412614103192e+00
3.6861774463409378e+00
3.6892138661987510e+00
3.6922505208516636e+00
3.6952874101676936e+00
3.6983245340149624e+00
3.7013618922617026e+00
3.7043994847762503e+00
3.7074373114270522e+00
3.7104753720826524e+00
3.7135136666117119e+00
3.7165521948829956e+00
3.7195909567653707e+00
3.7226299521278152e+00
3.7256691808394087e+00
3.7287086427693388e+00
3.7317483377869012e+00
3.7347882657614924e+00
3.7378284265626163e+00
3.7408688200598874e+00
3.7439094461230185e+00
3.7469503046218304e+00
3.7499913954262514e+00
3.7530327184063057e+00
3.7560742734321342e+00
3.7591160603739771e+00
3.7621580791021780e+00
3.7652003294871870e+00
3.7682428113995585e+00
3.7712855247099513e+00
3.7743284692891250e+00
3.7773716450079493e+00
3.7804150517373931e+00
3.7834586893485302e+00
3.7865025577125411e+00
3.7895466567007046e+00
3.7925909861844080e+00
3.7956355460351410e+00
3.7986803361244896e+00
3.8017253563241553e+00
3.8047706065059326e+00
3.8078160865417243e+00
3.8108617963035347e+00
3.8139077356634683e+00
3.8169539044937340e+00
3.8200003026666480e+00
3.8230469300546197e+00
3.8260937865301652e+00
3.8291408719659068e+00
3.8321881862345646e+00
3.8352357292089567e+00
3.8382835007620146e+00
3.8413315007667577e+00
3.8443797290963153e+00
3.8474281856239201e+00
3.8504768702228978e+00
3.8535257827666869e+00
3.8565749231288127e+00
3.8596242911829144e+00
3.8626738868027273e+00
3.8657237098620847e+00
3.8687737602349261e+00
3.8718240377952857e+00
3.8748745424173032e+00
3.8779252739752192e+00
3.8809762323433676e+00
3.8840274173961888e+00
3.8870788290082241e+00
3.8901304670541097e+00
3.8931823314085841e+00
3.8962344219464882e+00
3.8992867385427585e+00
3.9023392810724333e+00
3.9053920494106533e+00
3.9084450434326472e+00
3.9114982630137556e+00
3.9145517080294123e+00
3.9176053783551539e+00
3.9206592738666091e+00
3.9237133944395093e+00
3.9267677399496899e+00
3.9298223102730763e+00
3.9328771052856961e+00
3.9359321248636765e+00
3.9389873688832386e+00
3.9420428372207073e+00
3.9450985297525007e+00
3.9481544463551392e+00
3.9512105869052365e+00
3.9542669512795108e+00
3.9573235393547712e+00
3.9603803510079256e+00
3.9634373861159800e+00
3.9664946445560418e+00
3.9695521262053086e+00
3.9726098309410789e+00
3.9756677586407529e+00
3.9787259091818159e+00
3.9817842824418594e+00
3.9848428782985708e+00
3.9879016966297285e+00
3.9909607373132170e+00
3.9940200002270072e+00
3.9970794852491722e+00
4.0001391922578806e+00
4.0031991211313915e+00
4.0062592717480721e+00
4.0093196439863714e+00
4.0123802377248410e+00
4.0154410528421360e+00
4.0185020892169891e+00
4.0215633467282466e+00
4.0246248252548353e+00
4.0276865246757909e+00
4.0307484448702340e+00
4.0338105857173812e+00
4.0368729470965494e+00
4.0399355288871499e+00
4.0429983309686852e+00
4.0460613532207468e+00
4.0491245955230388e+00
4.0521880577553411e+00
4.0552517397975363e+00
4.0583156415296067e+00
4.0613797628316153e+00
4.0644441035837291e+00
4.0675086636662074e+00
4.0705734429594003e+00
4.0736384413437561e+00
4.0767036586998140e+00
4.0797690949082073e+00
4.0828347498496624e+00
4.0859006234049984e+00
4.0889667154551343e+00
4.0920330258810660e+00
4.0950995545639008e+00
4.0981663013848326e+00
4.1012332662251429e+00
4.1043004489662129e+00
4.1073678494895081e+00
4.1104354676766004e+00
4.1135033034091384e+00
4.1165713565688797e+00
4.1196396270376532e+00
4.1227081146974012e+00
4.1257768194301461e+00
4.1288457411180035e+00
4.1319148796431868e+00
4.1349842348879919e+00
4.1380538067348125e+00
4.1411235950661363e+00
4.1441935997645345e+00
4.1472638207126762e+00
4.1503342577933235e+00
4.1534049108893170e+00
4.1564757798836061e+00
4.1595468646592222e+00
4.1626181650992820e+00
4.1656896810870085e+00
4.1687614125056962e+00
4.1718333592387484e+00
4.1749055211696398e+00
4.1779778981819646e+00
4.1810504901593708e+00
4.1841232969856286e+00
4.1871963185445802e+00
4.1902695547201603e+00
4.1933430053964003e+00
4.1964166704574133e+00
4.1994905497874120e+00
4.2025646432706854e+00
4.2056389507916245e+00
4.2087134722347033e+00
4.2117882074844930e+00
4.2148631564256380e+00
4.2179383189428910e+00
4.2210136949210781e+00
4.2240892842451245e+00
4.2271650868000439e+00
4.2302411024709299e+00
4.2333173311429766e+00
4.2363937727014616e+00
4.2394704270317458e+00
4.2425472940192863e+00
4.2456243735496288e+00
4.2487016655084009e+00
4.2517791697813259e+00
4.2548568862542036e+00
4.2579348148129377e+00
4.2610129553435110e+00
4.2640913077319889e+00
4.2671698718645370e+00
4.2702486476274011e+00
4.2733276349069138e+00
4.2764068335894949e+00
4.2794862435616574e+00
4.2825658647100013e+00
4.2856456969212031e+00
4.2887257400820369e+00
4.2918059940793620e+00
4.2948864588001259e+00
4.2979671341313574e+00
4.3010480199601728e+00
4.3041291161737814e+00
4.3072104226594758e+00
4.3102919393046282e+00
4.3133736659967150e+00
4.3164556026232752e+00
4.3195377490719551e+00
4.3226201052304738e+00
4.3257026709866464e+00
4.3287854462283581e+00
4.3318684308436026e+00
4.3349516247204392e+00
4.3380350277470239e+00
4.3411186398115982e+00
4.3442024608024781e+00
4.3472864906080826e+00
4.3503707291169063e+00
4.3534551762175182e+00
4.3565398317985977e+00
4.3596246957488853e+00
4.3627097679572193e+00
4.3657950483125267e+00
4.3688805367038057e+00
4.3719662330201485e+00
4.3750521371507256e+00
4.3781382489848042e+00
4.3812245684117226e+00
4.3843110953209115e+00
4.3873978296018805e+00
4.3904847711442301e+00
4.3935719198376413e+00
4.3966592755718708e+00
4.3997468382367773e+00
4.4028346077222880e+00
4.4059225839184197e+00
4.4090107667152729e+00
4.4120991560030340e+00
4.4151877516719686e+00
4.4182765536124249e+00
4.4213655617148397e+00
4.4244547758697301e+00
4.4275441959676973e+00
4.4306338218994243e+00
4.4337236535556759e+00
4.4368136908273028e+00
4.4399039336052422e+00
4.4429943817804984e+00
4.4460850352441810e+00
4.4491758938874613e+00
4.4522669576016076e+00
4.4553582262779612e+00
4.4584496998079546e+00
4.4615413780830950e+00
4.4646332609949759e+00
4.4677253484352679e+00
4.4708176402957340e+00
4.4739101364682039e+00
4.4770028368446049e+00
4.4800957413169318e+00
4.4831888497772718e+00
4.4862821621177922e+00
4.4893756782307381e+00
4.4924693980084331e+00
4.4955633213432886e+00
4.4986574481277986e+00
4.5017517782545307e+00
4.5048463116161406e+00
4.5079410481053586e+00
4.5110359876150019e+00
4.5141311300379652e+00
4.5172264752672229e+00
4.5203220231958339e+00
4.5234177737169370e+00
4.5265137267237456e+00
4.5296098821095629e+00
4.5327062397677658e+00
4.5358027995918153e+00
4.5388995614752430e+00
4.5419965253116779e+00
4.5450936909948148e+00
4.5481910584184320e+00
4.5512886274763895e+00
4.5543863980626291e+00
4.5574843700711662e+00
4.5605825433960971e+00
4.5636809179316060e+00
4.5667794935719419e+00
4.5698782702114480e+00
4.5729772477445376e+00
4.5760764260657067e+00
4.5791758050695304e+00
4.5822753846506554e+00
4.5853751647038230e+00
4.5884751451238390e+00
4.5915753258055965e+00
4.5946757066440629e+00
4.5977762875342805e+00
4.6008770683713811e+00
4.6039780490505704e+00
4.6070792294671250e+00
4.6101806095164086e+00
4.6132821890938640e+00
4.6163839680950058e+00
4.6194859464154305e+00
4.6225881239508109e+00
4.6256905005968978e+00
4.6287930762495213e+00
4.6318958508045913e+00
4.6349988241580906e+00
4.6381019962060819e+00
4.6412053668447060e+00
4.6443089359701846e+00
4.6474127034788042e+00
4.6505166692669384e+00
4.6536208332310443e+00
4.6567251952676383e+00
4.6598297552733392e+00
4.6629345131448137e+00
4.6660394687788234e+00
4.6691446220722064e+00
4.6722499729218683e+00
4.6753555212248044e+00
4.6784612668780747e+00
4.6815672097788230e+00
4.6846733498242612e+00
4.6877796869116937e+00
4.6908862209384807e+00
4.6939929518020769e+00
4.6970998794000005e+00
4.7002070036298509e+00
4.7033143243893027e+00
4.7064218415761072e+00
4.7095295550880962e+00
4.7126374648231648e+00
4.7157455706792923e+00
4.7188538725545373e+00
4.7219623703470290e+00
4.7250710639549656e+00
4.7281799532766344e+00
4.7312890382103836e+00
4.7343983186546508e+00
4.7375077945079420e+00
4.7406174656688336e+00
4.7437273320359870e+00
4.7468373935081285e+00
4.7499476499840636e+00
4.7530581013626811e+00
4.7561687475429260e+00
4.7592795884238388e+00
4.7623906239045164e+00
4.7655018538841434e+00
4.7686132782619692e+00
4.7717248969373252e+00
4.7748367098096089e+00
4.7779487167783046e+00
4.7810609177429582e+00
4.7841733126031940e+00
4.7872859012587092e+00
4.7903986836092844e+00
4.7935116595547598e+00
4.7966248289950544e+00
4.7997381918301638e+00
4.8028517479601591e+00
4.8059654972851762e+00
4.8090794397054344e+00
4.8121935751212215e+00
4.8153079034328901e+00
4.8184224245408860e+00
4.8215371383457137e+00
4.8246520447479524e+00
4.8277671436482548e+00
4.8308824349473509e+00
4.8339979185460402e+00
4.8371135943451948e+00
4.8402294622457580e+00
4.8433455221487502e+00
4.8464617739552622e+00
4.8495782175664575e+00
4.8526948528835687e+00
4.8558116798079087e+00
4.8589286982408542e+00
4.8620459080838625e+00
4.8651633092384534e+00
4.8682809016062230e+00
4.8713986850888444e+00
4.8745166595880551e+00
4.8776348250056722e+00
4.8807531812435760e+00
4.8838717282037249e+00
4.8869904657881484e+00
4.8901093938989435e+00
4.8932285124382853e+00
4.8963478213084093e+00
4.8994673204116381e+00
4.9025870096503530e+00
4.9057068889270079e+00
4.9088269581441386e+00
4.9119472172043359e+00
4.9150676660102741e+00
4.9181883044646924e+00
4.9213091324704044e+00
4.9244301499302914e+00
4.9275513567473093e+00
4.9306727528244823e+00
4.9337943380649021e+00
4.9369161123717360e+00
4.9400380756482223e+00
4.9431602277976605e+00
4.9462825687234355e+00
4.9494050983289926e+00
4.9525278165178426e+00
4.9556507231935791e+00
4.9587738182598589e+00
4.9618971016204059e+00
4.9650205731790216e+00
4.9681442328395731e+00
4.9712680805059968e+00
4.9743921160822948e+00
4.9775163394725546e+00
4.9806407505809123e+00
4.9837653493115859e+00
4.9868901355688573e+00
4.9900151092570928e+00
4.9931402702807031e+00
4.9962656185441858e+00
4.9993911539521090e+00
5.0025168764090981e+00
5.0056427858198509e+00
5.0087688820891438e+00
5.0118951651218131e+00
5.0150216348227623e+00
5.0181482910969688e+00
5.0212751338494819e+00
5.0244021629854103e+00
5.0275293784099402e+00
5.0306567800283135e+00
5.0337843677458594e+00
5.0369121414679601e+00
5.0400401011000744e+00
5.0431682465477214e+00
5.0462965777164968e+00
5.0494250945120580e+00
5.0525537968401357e+00
5.0556826846065297e+00
5.0588117577170983e+00
5.0619410160777756e+00
5.0650704595945584e+00
5.0682000881735201e+00
5.0713299017207945e+00
5.0744599001425836e+00
5.0775900833451555e+00
5.0807204512348507e+00
5.0838510037180704e+00
5.0869817407012938e+00
5.0901126620910588e+00
5.0932437677939708e+00
5.0963750577167053e+00
5.0995065317660000e+00
5.1026381898486690e+00
5.1057700318715789e+00
5.1089020577416839e+00
5.1120342673659858e+00
5.1151666606515569e+00
5.1182992375055463e+00
5.1214319978351588e+00
5.1245649415476731e+00
5.1276980685504290e+00
5.1308313787508375e+00
5.1339648720563709e+00
5.1370985483745715e+00
5.1402324076130421e+00
5.1433664496794647e+00
5.1465006744815733e+00
5.1496350819271743e+00
5.1527696719241423e+00
5.1559044443804094e+00
5.1590393992039854e+00
5.1621745363029330e+00
5.1653098555853942e+00
5.1684453569595625e+00
5.1715810403337095e+00
5.1747169056161635e+00
5.1778529527153259e+00
5.1809891815396556e+00
5.1841255919976792e+00
5.1872621839979951e+00
5.1903989574492586e+00
5.1935359122601934e+00
5.1966730483395898e+00
5.1998103655963019e+00
5.2029478639392472e+00
5.2060855432774069e+00
5.2092234035198306e+00
5.2123614445756372e+00
5.2154996663539972e+00
5.2186380687641591e+00
5.2217766517154276e+00
5.2249154151171728e+00
5.2280543588788353e+00
5.2311934829099149e+00
5.2343327871199712e+00
5.2374722714186417e+00
5.2406119357156138e+00
5.2437517799206486e+00
5.2468918039435657e+00
5.2500320076942506e+00
5.2531723910826598e+00
5.2563129540187967e+00
5.2594536964127450e+00
5.2625946181746466e+00
5.2657357192147076e+00
5.2688769994431910e+00
5.2720184587704395e+00
5.2751600971068395e+00
5.2783019143628520e+00
5.2814439104490072e+00
5.2845860852758824e+00
5.2877284387541303e+00
5.2908709707944706e+00
5.2940136813076677e+00
5.2971565702045709e+00
5.3002996373960771e+00
5.3034428827931510e+00
5.3065863063068264e+00
5.3097299078481912e+00
5.3128736873283993e+00
5.3160176446586647e+00
5.3191617797502762e+00
5.3223060925145615e+00
5.3254505828629419e+00
5.3285952507068739e+00
5.3317400959578869e+00
5.3348851185275805e+00
5.3380303183276014e+00
5.3411756952696736e+00
5.3443212492655707e+00
5.3474669802271348e+00
5.3506128880662720e+00
5.3537589726949468e+00
5.3569052340251853e+00
5.3600516719690781e+00
5.3631982864387799e+00
5.3663450773464962e+00
5.3694920446045087e+00
5.3726391881251461e+00
5.3757865078208162e+00
5.3789340036039768e+00
5.3820816753871439e+00
5.3852295230829048e+00
5.3883775466039054e+00
5.3915257458628441e+00
5.3946741207724962e+00
5.3978226712456872e+00
5.4009713971952991e+00
5.4041202985342931e+00
5.4072693751756784e+00
5.4104186270325245e+00
5.4135680540179649e+00
5.4167176560451971e+00
5.4198674330274725e+00
5.4230173848781096e+00
5.4261675115104930e+00
5.4293178128380424e+00
5.4324682887742703e+00
5.4356189392327341e+00
5.4387697641270467e+00
5.4419207633708915e+00
5.4450719368780049e+00
5.4482232845621938e+00
5.4513748063373164e+00
5.4545265021172922e+00
5.4576783718160975e+00
5.4608304153477834e+00
5.4639826326264478e+00
5.4671350235662448e+00
5.4702875880814030e+00
5.4734403260862017e+00
5.4765932374949822e+00
5.4797463222221383e+00
5.4828995801821376e+00
5.4860530112895010e+00
5.4892066154588059e+00
5.4923603926046862e+00
5.4955143426418429e+00
5.4986684654850420e+00
5.5018227610490875e+00
5.5049772292488699e+00
5.5081318699993123e+00
5.5112866832154168e+00
5.5144416688122364e+00
5.5175968267048843e+00
5.5207521568085323e+00
5.5239076590384153e+00
5.5270633333098145e+00
5.5302191795380908e+00
5.5333751976386436e+00
5.5365313875269431e+00
5.5396877491185146e+00
5.5428442823289403e+00
5.5460009870738620e+00
5.5491578632689853e+00
5.5523149108300700e+00
5.5554721296729284e+00
5.5586295197134392e+00
5.5617870808675436e+00
5.5649448130512260e+00
5.5681027161805394e+00
5.5712607901716007e+00
5.5744190349405693e+00
5.5775774504036733e+00
5.5807360364771972e+00
5.5838947930774809e+00
5.5870537201209283e+00
5.5902128175239918e+00
5.5933720852031845e+00
5.5965315230750896e+00
5.5996911310563284e+00
5.6028509090635898e+00
5.6060108570136249e+00
5.6091709748232299e+00
5.6123312624092732e+00
5.6154917196886647e+00
5.6186523465783855e+00
5.6218131429954656e+00
5.6249741088569971e+00
5.6281352440801262e+00
5.6312965485820596e+00
5.6344580222800547e+00
5.6376196650914343e+00
5.6407814769335696e+00
5.6439434577238936e+00
5.6471056073798991e+00
5.6502679258191293e+00
5.6534304129591852e+00
5.6565930687177364e+00
5.6597558930124858e+00
5.6629188857612123e+00
5.6660820468817468e+00
5.6692453762919754e+00
5.6724088739098359e+00
5.6755725396533308e+00
5.6787363734405147e+00
5.6819003751894996e+00
5.6850645448184558e+00
5.6882288822455989e+00
5.6913933873892182e+00
5.6945580601676449e+00
5.6977229004992740e+00
5.7008879083025485e+00
5.7040530834959799e+00
5.7072184259981205e+00
5.7103839357275925e+00
5.7135496126030665e+00
5.7167154565432661e+00
5.7198814674669762e+00
5.7230476452930423e+00
5.7262139899403479e+00
5.7293805013278485e+00
5.7325471793745493e+00
5.7357140239995079e+00
5.7388810351218451e+00
5.7420482126607313e+00
5.7452155565353884e+00
5.7483830666651050e+00
5.7515507429692150e+00
5.7547185853671108e+00
5.7578865937782373e+00
5.7610547681221016e+00
5.7642231083182613e+00
5.7673916142863204e+00
5.7705602859459537e+00
5.7737291232168806e+00
5.7768981260188781e+00
5.7800672942717810e+00
5.7832366278954659e+00
5.7864061268098830e+00
5.7895757909350243e+00
5.7927456201909395e+00
5.7959156144977309e+00
5.7990857737755617e+00
5.8022560979446389e+00
5.8054265869252379e+00
5.8085972406376705e+00
5.8117680590023184e+00
5.8149390419396152e+00
5.8181101893700342e+00
5.8212815012141252e+00
5.8244529773924718e+00
5.8276246178257241e+00
5.8307964224345845e+00
5.8339683911398028e+00
5.8371405238621845e+00
5.8403128205225974e+00
5.8434852810419518e+00
5.8466579053412220e+00
5.8498306933414304e+00
5.8530036449636418e+00
5.8561767601290011e+00
5.8593500387586843e+00
5.8625234807739277e+00
5.8656970860960236e+00
5.8688708546463131e+00
5.8720447863461906e+00
5.8752188811171147e+00
5.8783931388805799e+00
5.8815675595581425e+00
5.8847421430714206e+00
5.8879168893420681e+00
5.8910917982918027e+00
5.8942668698423928e+00
5.8974421039156564e+00
5.9006175004334755e+00
5.9037930593177697e+00
5.9069687804905202e+00
5.9101446638737620e+00
5.9133207093895788e+00
5.9164969169601047e+00
5.9196732865075345e+00
5.9228498179541100e+00
5.9260265112221235e+00
5.9292033662339261e+00
5.9323803829119157e+00
5.9355575611785429e+00
5.9387349009563133e+00
5.9419124021677874e+00
5.9450900647355711e+00
5.9482678885823237e+00
5.9514458736307621e+00
5.9546240198036502e+00
5.9578023270238045e+00
5.9609807952140939e+00
5.9641594242974394e+00
5.9673382141968139e+00
5.9705171648352433e+00
5.9736962761358061e+00
5.9768755480216242e+00
5.9800549804158827e+00
5.9832345732418100e+00
5.9864143264226906e+00
5.9895942398818613e+00
5.9927743135427036e+00
5.9959545473286591e+00
5.9991349411632147e+00
6.0023154949699107e+00
6.0054962086723380e+00
6.0086770821941435e+00
6.0118581154590132e+00
6.0150393083906977e+00
6.0182206609129967e+00
6.0214021729497489e+00
6.0245838444248569e+00
6.0277656752622715e+00
6.0309476653859919e+00
6.0341298147200693e+00
6.0373121231886069e+00
6.0404945907157517e+00
6.0436772172257136e+00
6.0468600026427408e+00
6.0500429468911454e+00
6.0532260498952786e+00
6.0564093115795474e+00
6.0595927318684062e+00
6.0627763106863650e+00
6.0659600479579803e+00
6.0691439436078563e+00
6.0723279975606594e+00
6.0755122097410865e+00
6.0786965800739106e+00
6.0818811084839259e+00
6.0850657948960043e+00
6.0882506392350448e+00
6.0914356414260107e+00
6.0946208013939112e+00
6.0978061190638080e+00
6.1009915943608037e+00
6.1041772272100658e+00
6.1073630175367963e+00
6.1105489652662595e+00
6.1137350703237567e+00
6.1169213326346483e+00
6.1201077521243494e+00
6.1232943287183064e+00
6.1264810623420329e+00
6.1296679529210882e+00
6.1328550003810705e+00
6.1360422046476399e+00
6.1392295656464970e+00
6.1424170833034024e+00
6.1456047575441559e+00
6.1487925882946088e+00
6.1519805754806693e+00
6.1551687190282820e+00
6.1583570188634473e+00
6.1615454749122200e+00
6.1647340871006966e+00
6.1679228553550196e+00
6.1711117796013930e+00
6.1743008597660562e+00
6.1774900957753047e+00
6.1806794875554818e+00
6.1838690350329806e+00
6.1870587381342403e+00
6.1902485967857510e+00
6.1934386109140487e+00
6.1966287804457263e+00
6.1998191053074079e+00
6.2030095854257876e+00
6.2062002207275890e+00
6.2093910111396005e+00
6.2125819565886449e+00
6.2157730570016048e+00
6.2189643123053981e+00
6.2221557224270043e+00
6.2253472872934479e+00
6.2285390068317943e+00
6.2317308809691649e+00
6.2349229096327194e+00
6.2381150927496813e+00
6.2413074302473115e+00
6.2444999220529169e+00
6.2476925680938553e+00
6.2508853682975358e+00
6.2540783225914183e+00
6.2572714309029900e+00
6.2604646931598147e+00
6.2636581092894845e+00
6.2668516792196414e+00
6.2700454028779813e+00
6.2732392801922474e+00
6.2764333110902237e+00
6.2796274954997449e+00
6.2828218333487005e+00
6.2860163245650114e+00
6.2892109690766578e+00
6.2924057668116733e+00
6.2956007176981181e+00
6.2987958216641182e+00
6.3019910786378412e+00
6.3051864885474966e+00
6.3083820513213489e+00
6.3115777668877087e+00
6.3147736351749257e+00
6.3179696561114005e+00
6.3211658296255875e+00
6.3243621556459839e+00
6.3275586341011305e+00
6.3307552649196142e+00
6.3339520480300759e+00
6.3371489833611951e+00
6.3403460708417061e+00
6.3435433104003787e+00
6.3467407019660484e+00
6.3499382454675741e+00
6.3531359408338739e+00
6.3563337879939139e+00
6.3595317868767056e+00
6.3627299374112987e+00
6.3659282395268022e+00
6.3691266931523591e+00
6.3723252982171648e+00
6.3755240546504668e+00
6.3787229623815449e+00
6.3819220213397347e+00
6.3851212314544181e+00
6.3883205926550231e+00
6.3915201048710166e+00
6.3947197680319201e+00
6.3979195820672956e+00
6.4011195469067514e+00
6.4043196624799474e+00
6.4075199287165825e+00
6.4107203455464035e+00
6.4139209128992070e+00
6.4171216307048322e+00
6.4203224988931558e+00
6.4235235173941190e+00
6.4267246861376908e+00
6.4299260050538969e+00
6.4331274740727995e+00
6.4363290931245176e+00
6.4395308621392022e+00
6.4427327810470638e+00
6.4459348497783466e+00
6.4491370682633438e+00
6.4523394364324016e+00
6.4555419542159003e+00
6.4587446215442688e+00
6.4619474383479822e+00
6.4651504045575630e+00
6.4683535201035784e+00
6.4715567849166336e+00
6.4747601989273882e+00
6.4779637620665431e+00
6.4811674742648409e+00
6.4843713354530736e+00
6.4875753455620782e+00
6.4907795045227274e+00
6.4939838122659586e+00
6.4971882687227316e+00
6.5003928738240617e+00
6.5035976275010139e+00
6.5068025296846832e+00
6.5100075803062261e+00
6.5132127792968335e+00
6.5164181265877383e+00
6.5196236221102248e+00
6.5228292657956235e+00
6.5260350575752994e+00
6.5292409973806702e+00
6.5324470851431951e+00
6.5356533207943759e+00
6.5388597042657643e+00
6.5420662354889476e+00
6.5452729143955661e+00
6.5484797409172995e+00
6.5516867149858742e+00
6.5548938365330534e+00
6.5581011054906533e+00
6.5613085217905311e+00
6.5645160853645903e+00
6.5677237961447643e+00
6.5709316540630525e+00
6.5741396590514833e+00
6.5773478110421300e+00
6.5805561099671168e+00
6.5837645557586066e+00
6.5869731483488057e+00
6.5901818876699663e+00
6.5933907736543764e+00
6.5965998062343818e+00
6.5998089853423592e+00
6.6030183109107341e+00
6.6062277828719802e+00
6.6094374011586030e+00
6.6126471657031622e+00
6.6158570764382496e+00
6.6190671332965190e+00
6.6222773362106420e+00
6.6254876851133542e+00
6.6286981799374258e+00
6.6319088206156751e+00
6.6351196070809557e+00
6.6383305392661720e+00
6.6415416171042629e+00
6.6447528405282172e+00
6.6479642094710671e+00
6.6511757238658831e+00
6.6543873836457861e+00
6.6575991887439274e+00
6.6608111390935161e+00
6.6640232346277859e+00
6.6672354752800338e+00
6.6704478609835869e+00
6.6736603916718167e+00
6.6768730672781365e+00
6.6800858877360065e+00
6.6832988529789281e+00
6.6865119629404388e+00
6.6897252175541269e+00
6.6929386167536249e+00
6.6961521604725966e+00
