DATE: 2024-04-25 CONTRIBUTOR: Paul Lafourcade
Generated from read_eam_file.py
XX
1 Cu
10000 2.000000000000e-02 5000 1.458000000000e-03 7.290000000000e+00
29 63.5460 3.2700 fcc
-0.0000000000000000e+00
-1.0555374689486563e-01
-1.4927554041801591e-01
-1.8282445255117286e-01
-2.1110749378973126e-01
-2.3602535333672689e-01
-2.5855282033130506e-01
-2.7926896423487069e-01
-2.9855108083603182e-01
-3.1666124068459683e-01
-3.3379025575270099e-01
-3.5008217366641065e-01
-3.6564890510234571e-01
-3.8057944674678584e-01
-3.9494595677084093e-01
-4.0880790385360738e-01
-4.2221498757946252e-01
-4.3520924762724311e-01
-4.4782662125404776e-01
-4.6009811582678939e-01
-4.7205070667345378e-01
-4.8370803503193160e-01
-4.9509095794409103e-01
-5.0621798676216867e-01
-5.1710564066261011e-01
-5.2776873447432815e-01
-5.3822061514975361e-01
-5.4847335765351857e-01
-5.5853792846974137e-01
-5.6842432303941326e-01
-5.7814168203508787e-01
-5.8769839032441284e-01
-5.9710216167206365e-01
-6.0636011161437442e-01
-6.1547882046463798e-01
-6.2446438803512838e-01
-6.3332248136919367e-01
-6.4205837654467068e-01
-6.5067699542455271e-01
-6.5918293808188688e-01
-6.6758051150540199e-01
-6.7587375509436631e-01
-6.8406646337099786e-01
-6.9216220627281455e-01
-7.0016434733282129e-01
-7.0807606001018053e-01
-7.1590034239626277e-01
-7.2364003048935288e-01
-7.3129781020469142e-01
-7.3887622826405930e-01
-7.4637770209007970e-01
-7.5380452881420990e-01
-7.6115889349357169e-01
-7.6844287661992405e-01
-7.7565846099391511e-01
-7.8280753802898095e-01
-7.8989191354168187e-01
-7.9691331307870938e-01
-8.0387338682508347e-01
-8.1077371413309640e-01
-8.1761580770721476e-01
-8.2440111747635725e-01
-8.3113103418162171e-01
-8.3780689270461195e-01
-8.4442997515892504e-01
-8.5100151376507427e-01
-8.5752269352711208e-01
-8.6399465472741122e-01
-8.7041849525448622e-01
-8.7679527277730540e-01
-8.8312600677829356e-01
-8.8941168045608676e-01
-8.9565324250809553e-01
-9.0185160880203052e-01
-9.0800766394472476e-01
-9.1412226275586417e-01
-9.2019623165357878e-01
-9.2623036995824770e-01
-9.3222545112034860e-01
-9.3818222387768724e-01
-9.4410141334690756e-01
-9.4998372205379056e-01
-9.5582983090648455e-01
-9.6164040011548202e-01
-9.6741607006386321e-01
-9.7315746213105470e-01
-9.7886517947309803e-01
-9.8453980776220795e-01
-9.9018191588818205e-01
-9.9579205662404047e-01
-1.0013707672581029e+00
-1.0069185701945451e+00
-1.0124359735243373e+00
-1.0179234715683285e+00
-1.0233815453941228e+00
-1.0288106633082730e+00
-1.0342112813252202e+00
-1.0395838436143086e+00
-1.0449287829261114e+00
-1.0502465209992320e+00
-1.0555374689486563e+00
-1.0608020276366747e+00
-1.0660405880273160e+00
-1.0712535315251808e+00
-1.0764412302995072e+00
-1.0816040475942488e+00
-1.0867423380248915e+00
-1.0918564478627000e+00
-1.0969467153070371e+00
-1.1020134707463622e+00
-1.1070570370084771e+00
-1.1120777296005591e+00
-1.1170758569394827e+00
-1.1220517205729088e+00
-1.1270056153915871e+00
-1.1319378298332976e+00
-1.1368486460788265e+00
-1.1417383402403574e+00
-1.1466071825426316e+00
-1.1514554374972126e+00
-1.1562833640701757e+00
-1.1610912158435218e+00
-1.1658792411705996e+00
-1.1706476833258068e+00
-1.1753967806488257e+00
-1.1801267666836344e+00
-1.1848378703125226e+00
-1.1895303158853328e+00
-1.1942043233441273e+00
-1.1988601083434842e+00
-1.2034978823666023e+00
-1.2081178528373964e+00
-1.2127202232287488e+00
-1.2173051931670760e+00
-1.2218729585333648e+00
-1.2264237115608221e+00
-1.2309576409292760e+00
-1.2354749318564555e+00
-1.2399757661862825e+00
-1.2444603224742861e+00
-1.2489287760702568e+00
-1.2533812991982505e+00
-1.2578180610340433e+00
-1.2622392277801326e+00
-1.2666449627383873e+00
-1.2710354263804280e+00
-1.2754107764158265e+00
-1.2797711678582100e+00
-1.2841167530893414e+00
-1.2884476819212558e+00
-1.2927641016565254e+00
-1.2970661571467155e+00
-1.3013539908491054e+00
-1.3056277428817291e+00
-1.3098875510768031e+00
-1.3141335510325918e+00
-1.3183658761637738e+00
-1.3225846577503537e+00
-1.3267900249851767e+00
-1.3309821050200905e+00
-1.3351610230108040e+00
-1.3393269021604852e+00
-1.3434798637621432e+00
-1.3476200272398347e+00
-1.3517475101887326e+00
-1.3558624284141010e+00
-1.3599648959692043e+00
-1.3640550251921928e+00
-1.3681329267419957e+00
-1.3721987096332531e+00
-1.3762524812703192e+00
-1.3802943474803682e+00
-1.3843244125456291e+00
-1.3883427792347776e+00
-1.3923495488335145e+00
-1.3963448211743534e+00
-1.4003286946656426e+00
-1.4043012663198475e+00
-1.4082626317811151e+00
-1.4122128853521405e+00
-1.4161521200203611e+00
-1.4200804274834962e+00
-1.4239978981744510e+00
-1.4279046212856092e+00
-1.4318006847925255e+00
-1.4356861754770400e+00
-1.4395611789498339e+00
-1.4434257796724363e+00
-1.4472800609787058e+00
-1.4511241050957948e+00
-1.4549579931646195e+00
-1.4587818052598416e+00
-1.4625956204093828e+00
-1.4663995166134818e+00
-1.4701935708633058e+00
-1.4739778591591339e+00
-1.4777524565281186e+00
-1.4815174370416415e+00
-1.4852728738322731e+00
-1.4890188391103469e+00
-1.4927554041801594e+00
-1.4964826394558057e+00
-1.5002006144766644e+00
-1.5039093979225300e+00
-1.5076090576284198e+00
-1.5112996605990479e+00
-1.5149812730229846e+00
-1.5186539602865059e+00
-1.5223177869871434e+00
-1.5259728169469398e+00
-1.5296191132254211e+00
-1.5332567381322899e+00
-1.5368857532398481e+00
-1.5405062193951571e+00
-1.5441181967319424e+00
-1.5477217446822447e+00
-1.5513169219878302e+00
-1.5549037867113649e+00
-1.5584823962473517e+00
-1.5620528073328481e+00
-1.5656150760579619e+00
-1.5691692578761296e+00
-1.5727154076141903e+00
-1.5762535794822525e+00
-1.5797838270833637e+00
-1.5833062034229843e+00
-1.5868207609182741e+00
-1.5903275514071920e+00
-1.5938266261574188e+00
-1.5973180358750996e+00
-1.6008018307134182e+00
-1.6042780602810025e+00
-1.6077467736501669e+00
-1.6112080193649942e+00
-1.6146618454492607e+00
-1.6181082994142135e+00
-1.6215474282661928e+00
-1.6249792785141135e+00
-1.6284038961768035e+00
-1.6318213267902033e+00
-1.6352316154144295e+00
-1.6386348066407079e+00
-1.6420309445981751e+00
-1.6454200729605557e+00
-1.6488022349527145e+00
-1.6521774733570880e+00
-1.6555458305199999e+00
-1.6589073483578587e+00
-1.6622620683632434e+00
-1.6656100316108788e+00
-1.6689512787635048e+00
-1.6722858500776365e+00
-1.6756137854092239e+00
-1.6789351242192099e+00
-1.6822499055789897e+00
-1.6855581681757721e+00
-1.6888599503178501e+00
-1.6921552899397727e+00
-1.6954442246074333e+00
-1.6987267915230648e+00
-1.7020030275301485e+00
-1.7052729691182398e+00
-1.7085366524277090e+00
-1.7117941132544030e+00
-1.7150453870542242e+00
-1.7182905089476337e+00
-1.7215295137240791e+00
-1.7247624358463427e+00
-1.7279893094548224e+00
-1.7312101683717376e+00
-1.7344250461052633e+00
-1.7376339758536004e+00
-1.7408369905089724e+00
-1.7440341226615610e+00
-1.7472254046033748e+00
-1.7504108683320529e+00
-1.7535905455546108e+00
-1.7567644676911196e+00
-1.7599326658783307e+00
-1.7630951709732383e+00
-1.7662520135565871e+00
-1.7694032239363204e+00
-1.7725488321509761e+00
-1.7756888679730285e+00
-1.7788233609121735e+00
-1.7819523402185664e+00
-1.7850758348860059e+00
-1.7881938736550678e+00
-1.7913064850161911e+00
-1.7944136972127154e+00
-1.7975155382438708e+00
-1.8006120358677205e+00
-1.8037032176040610e+00
-1.8067891107372738e+00
-1.8098697423191354e+00
-1.8129451391715854e+00
-1.8160153278894495e+00
-1.8190803348431233e+00
-1.8221401861812154e+00
-1.8251949078331497e+00
-1.8282445255117283e+00
-1.8312890647156586e+00
-1.8343285507320373e+00
-1.8373630086388053e+00
-1.8403924633071576e+00
-1.8434169394039246e+00
-1.8464364613939137e+00
-1.8494510535422188e+00
-1.8524607399164954e+00
-1.8554655443892010e+00
-1.8584654906398070e+00
-1.8614606021569742e+00
-1.8644509022406972e+00
-1.8674364140044222e+00
-1.8704171603771287e+00
-1.8733931641053849e+00
-1.8763644477553745e+00
-1.8793310337148901e+00
-1.8822929441953029e+00
-1.8852502012335040e+00
-1.8882028266938151e+00
-1.8911508422698751e+00
-1.8940942694865015e+00
-1.8970331297015213e+00
-1.8999674441075811e+00
-1.9028972337339292e+00
-1.9058225194481739e+00
-1.9087433219580181e+00
-1.9116596618129691e+00
-1.9145715594060257e+00
-1.9174790349753412e+00
-1.9203821086058657e+00
-1.9232808002309640e+00
-1.9261751296340117e+00
-1.9290651164499728e+00
-1.9319507801669518e+00
-1.9348321401277264e+00
-1.9377092155312632e+00
-1.9405820254342070e+00
-1.9434505887523548e+00
-1.9463149242621094e+00
-1.9491750506019117e+00
-1.9520309862736580e+00
-1.9548827496440946e+00
-1.9577303589461961e+00
-1.9605738322805257e+00
-1.9634131876165781e+00
-1.9662484427941036e+00
-1.9690796155244159e+00
-1.9719067233916840e+00
-1.9747297838542046e+00
-1.9775488142456605e+00
-1.9803638317763641e+00
-1.9831748535344809e+00
-1.9859818964872400e+00
-1.9887849774821309e+00
-1.9915841132480809e+00
-1.9943793203966218e+00
-1.9971706154230380e+00
-1.9999580147075042e+00
-2.0027415345162058e+00
-2.0055211910024466e+00
-2.0082970002077425e+00
-2.0110689780629016e+00
-2.0138371403890902e+00
-2.0166015028988880e+00
-2.0193620811973267e+00
-2.0221188907829193e+00
-2.0248719470486747e+00
-2.0276212652830989e+00
-2.0303668606711893e+00
-2.0331087482954096e+00
-2.0358469431366570e+00
-2.0385814600752203e+00
-2.0413123138917184e+00
-2.0440395192680367e+00
-2.0467630907882457e+00
-2.0494830429395110e+00
-2.0521993901129938e+00
-2.0549121466047371e+00
-2.0576213266165460e+00
-2.0603269442568521e+00
-2.0630290135415752e+00
-2.0657275483949644e+00
-2.0684225626504404e+00
-2.0711140700514203e+00
-2.0738020842521365e+00
-2.0764866188184437e+00
-2.0791676872286171e+00
-2.0818453028741457e+00
-2.0845194790605071e+00
-2.0871902290079438e+00
-2.0898575658522227e+00
-2.0925215026453907e+00
-2.0951820523565172e+00
-2.0978392278724352e+00
-2.1004930419984640e+00
-2.1031435074591331e+00
-2.1057906368988943e+00
-2.1084344428828219e+00
-2.1110749378973126e+00
-2.1137121343507697e+00
-2.1163460445742874e+00
-2.1189766808223203e+00
-2.1216040552733495e+00
-2.1242281800305416e+00
-2.1268490671223979e+00
-2.1294667285033966e+00
-2.1320811760546321e+00
-2.1346924215844423e+00
-2.1373004768290289e+00
-2.1399053534530772e+00
-2.1425070630503615e+00
-2.1451056171443472e+00
-2.1477010271887882e+00
-2.1502933045683141e+00
-2.1528824605990144e+00
-2.1554685065290125e+00
-2.1580514535390387e+00
-2.1606313127429915e+00
-2.1632080951884975e+00
-2.1657818118574625e+00
-2.1683524736666175e+00
-2.1709200914680586e+00
-2.1734846760497830e+00
-2.1760462381362156e+00
-2.1786047883887338e+00
-2.1811603374061854e+00
-2.1837128957253999e+00
-2.1862624738216945e+00
-2.1888090821093789e+00
-2.1913527309422474e+00
-2.1938934306140743e+00
-2.1964311913590961e+00
-2.1989660233524946e+00
-2.2014979367108722e+00
-2.2040269414927245e+00
-2.2065530476989035e+00
-2.2090762652730813e+00
-2.2115966041022062e+00
-2.2141140740169543e+00
-2.2166286847921781e+00
-2.2191404461473470e+00
-2.2216493677469882e+00
-2.2241554592011181e+00
-2.2266587300656746e+00
-2.2291591898429388e+00
-2.2316568479819590e+00
-2.2341517138789655e+00
-2.2366437968777828e+00
-2.2391331062702386e+00
-2.2416196512965696e+00
-2.2441034411458176e+00
-2.2465844849562289e+00
-2.2490627918156463e+00
-2.2515383707618963e+00
-2.2540112307831741e+00
-2.2564813808184252e+00
-2.2589488297577196e+00
-2.2614135864426297e+00
-2.2638756596665952e+00
-2.2663350581752928e+00
-2.2687917906669957e+00
-2.2712458657929346e+00
-2.2736972921576530e+00
-2.2761460783193570e+00
-2.2785922327902672e+00
-2.2810357640369605e+00
-2.2834766804807147e+00
-2.2859149904978469e+00
-2.2883507024200456e+00
-2.2907838245347074e+00
-2.2932143650852632e+00
-2.2956423322715045e+00
-2.2980677342499058e+00
-2.3004905791339469e+00
-2.3029108749944251e+00
-2.3053286298597717e+00
-2.3077438517163640e+00
-2.3101565485088287e+00
-2.3125667281403515e+00
-2.3149743984729754e+00
-2.3173795673279032e+00
-2.3197822424857910e+00
-2.3221824316870436e+00
-2.3245801426321049e+00
-2.3269753829817454e+00
-2.3293681603573506e+00
-2.3317584823411992e+00
-2.3341463564767477e+00
-2.3365317902689071e+00
-2.3389147911843149e+00
-2.3412953666516136e+00
-2.3436735240617153e+00
-2.3460492707680727e+00
-2.3484226140869429e+00
-2.3507935612976514e+00
-2.3531621196428523e+00
-2.3555282963287842e+00
-2.3578920985255309e+00
-2.3602535333672687e+00
-2.3626126079525229e+00
-2.3649693293444143e+00
-2.3673237045709046e+00
-2.3696757406250453e+00
-2.3720254444652156e+00
-2.3743728230153640e+00
-2.3767178831652473e+00
-2.3790606317706655e+00
-2.3814010756536970e+00
-2.3837392216029274e+00
-2.3860750763736824e+00
-2.3884086466882546e+00
-2.3907399392361284e+00
-2.3930689606742033e+00
-2.3953957176270180e+00
-2.3977202166869684e+00
-2.4000424644145255e+00
-2.4023624673384516e+00
-2.4046802319560157e+00
-2.4069957647332045e+00
-2.4093090721049322e+00
-2.4116201604752505e+00
-2.4139290362175561e+00
-2.4162357056747927e+00
-2.4185401751596580e+00
-2.4208424509548023e+00
-2.4231425393130306e+00
-2.4254404464574977e+00
-2.4277361785819092e+00
-2.4300297418507117e+00
-2.4323211423992888e+00
-2.4346103863341519e+00
-2.4368974797331284e+00
-2.4391824286455530e+00
-2.4414652390924521e+00
-2.4437459170667295e+00
-2.4460244685333494e+00
-2.4483008994295208e+00
-2.4505752156648741e+00
-2.4528474231216442e+00
-2.4551175276548447e+00
-2.4573855350924450e+00
-2.4596514512355458e+00
-2.4619152818585519e+00
-2.4641770327093417e+00
-2.4664367095094417e+00
-2.4686943179541911e+00
-2.4709498637129110e+00
-2.4732033524290715e+00
-2.4754547897204553e+00
-2.4777041811793210e+00
-2.4799515323725649e+00
-2.4821968488418844e+00
-2.4844401361039323e+00
-2.4866813996504802e+00
-2.4889206449485721e+00
-2.4911578774406817e+00
-2.4933931025448648e+00
-2.4956263256549152e+00
-2.4978575521405135e+00
-2.5000867873473798e+00
-2.5023140365974230e+00
-2.5045393051888873e+00
-2.5067625983965010e+00
-2.5089839214716232e+00
-2.5112032796423849e+00
-2.5134206781138357e+00
-2.5156361220680865e+00
-2.5178496166644475e+00
-2.5200611670395721e+00
-2.5222707783075942e+00
-2.5244784555602653e+00
-2.5266842038670934e+00
-2.5288880282754778e+00
-2.5310899338108430e+00
-2.5332899254767747e+00
-2.5354880082551503e+00
-2.5376841871062705e+00
-2.5398784669689922e+00
-2.5420708527608560e+00
-2.5442613493782140e+00
-2.5464499616963603e+00
-2.5486366945696557e+00
-2.5508215528316529e+00
-2.5530045412952229e+00
-2.5551856647526763e+00
-2.5573649279758888e+00
-2.5595423357164200e+00
-2.5617178927056377e+00
-2.5638916036548345e+00
-2.5660634732553484e+00
-2.5682335061786827e+00
-2.5704017070766185e+00
-2.5725680805813358e+00
-2.5747326313055274e+00
-2.5768953638425116e+00
-2.5790562827663486e+00
-2.5812153926319517e+00
-2.5833726979752005e+00
-2.5855282033130509e+00
-2.5876819131436455e+00
-2.5898338319464247e+00
-2.5919839641822335e+00
-2.5941323142934309e+00
-2.5962788867039954e+00
-2.5984236858196326e+00
-2.6005667160278794e+00
-2.6027079816982108e+00
-2.6048474871821421e+00
-2.6069852368133319e+00
-2.6091212349076867e+00
-2.6112554857634582e+00
-2.6133879936613509e+00
-2.6155187628646153e+00
-2.6176477976191510e+00
-2.6197751021536062e+00
-2.6219006806794729e+00
-2.6240245373911861e+00
-2.6261466764662202e+00
-2.6282671020651835e+00
-2.6303858183319160e+00
-2.6325028293935810e+00
-2.6346181393607604e+00
-2.6367317523275475e+00
-2.6388436723716406e+00
-2.6409539035544318e+00
-2.6430624499211017e+00
-2.6451693155007074e+00
-2.6472745043062740e+00
-2.6493780203348809e+00
-2.6514798675677547e+00
-2.6535800499703535e+00
-2.6556785714924551e+00
-2.6577754360682455e+00
-2.6598706476164020e+00
-2.6619642100401810e+00
-2.6640561272275005e+00
-2.6661464030510280e+00
-2.6682350413682601e+00
-2.6703220460216079e+00
-2.6724074208384789e+00
-2.6744911696313594e+00
-2.6765732961978945e+00
-2.6786538043209704e+00
-2.6807326977687929e+00
-2.6828099802949699e+00
-2.6848856556385865e+00
-2.6869597275242865e+00
-2.6890321996623494e+00
-2.6911030757487682e+00
-2.6931723594653247e+00
-2.6952400544796693e+00
-2.6973061644453926e+00
-2.6993706930021042e+00
-2.7014336437755055e+00
-2.7034950203774653e+00
-2.7055548264060914e+00
-2.7076130654458077e+00
-2.7096697410674215e+00
-2.7117248568282020e+00
-2.7137784162719472e+00
-2.7158304229290575e+00
-2.7178808803166059e+00
-2.7199297919384087e+00
-2.7219771612850940e+00
-2.7240229918341741e+00
-2.7260672870501104e+00
-2.7281100503843856e+00
-2.7301512852755687e+00
-2.7321909951493852e+00
-2.7342291834187806e+00
-2.7362658534839914e+00
-2.7383010087326087e+00
-2.7403346525396430e+00
-2.7423667882675926e+00
-2.7443974192665062e+00
-2.7464265488740462e+00
-2.7484541804155569e+00
-2.7504803172041234e+00
-2.7525049625406384e+00
-2.7545281197138620e+00
-2.7565497920004876e+00
-2.7585699826651986e+00
-2.7605886949607363e+00
-2.7626059321279550e+00
-2.7646216973958864e+00
-2.7666359939817990e+00
-2.7686488250912582e+00
-2.7706601939181836e+00
-2.7726701036449133e+00
-2.7746785574422561e+00
-2.7766855584695551e+00
-2.7786911098747424e+00
-2.7806952147944002e+00
-2.7826978763538128e+00
-2.7846990976670289e+00
-2.7866988818369145e+00
-2.7886972319552110e+00
-2.7906941511025893e+00
-2.7926896423487069e+00
-2.7946837087522609e+00
-2.7966763533610459e+00
-2.7986675792120046e+00
-2.8006573893312852e+00
-2.8026457867342911e+00
-2.8046327744257389e+00
-2.8066183553997086e+00
-2.8086025326396951e+00
-2.8105853091186637e+00
-2.8125666877990998e+00
-2.8145466716330616e+00
-2.8165252635622302e+00
-2.8185024665179621e+00
-2.8204782834213389e+00
-2.8224527171832174e+00
-2.8244257707042810e+00
-2.8263974468750881e+00
-2.8283677485761221e+00
-2.8303366786778401e+00
-2.8323042400407221e+00
-2.8342704355153199e+00
-2.8362352679423024e+00
-2.8381987401525093e+00
-2.8401608549669923e+00
-2.8421216151970663e+00
-2.8440810236443554e+00
-2.8460390831008402e+00
-2.8479957963489020e+00
-2.8499511661613717e+00
-2.8519051953015735e+00
-2.8538578865233730e+00
-2.8558092425712185e+00
-2.8577592661801909e+00
-2.8597079600760442e+00
-2.8616553269752516e+00
-2.8636013695850511e+00
-2.8655460906034862e+00
-2.8674894927194536e+00
-2.8694315786127427e+00
-2.8713723509540801e+00
-2.8733118124051740e+00
-2.8752499656187549e+00
-2.8771868132386187e+00
-2.8791223578996679e+00
-2.8810566022279551e+00
-2.8829895488407224e+00
-2.8849212003464459e+00
-2.8868515593448727e+00
-2.8887806284270652e+00
-2.8907084101754390e+00
-2.8926349071638060e+00
-2.8945601219574115e+00
-2.8964840571129771e+00
-2.8984067151787372e+00
-2.9003280986944806e+00
-2.9022482101915896e+00
-2.9041670521930780e+00
-2.9060846272136289e+00
-2.9080009377596361e+00
-2.9099159863292390e+00
-2.9118297754123632e+00
-2.9137423074907565e+00
-2.9156535850380276e+00
-2.9175636105196832e+00
-2.9194723863931635e+00
-2.9213799151078828e+00
-2.9232861991052612e+00
-2.9251912408187657e+00
-2.9270950426739435e+00
-2.9289976070884594e+00
-2.9308989364721310e+00
-2.9327990332269636e+00
-2.9346978997471882e+00
-2.9365955384192941e+00
-2.9384919516220642e+00
-2.9403871417266116e+00
-2.9422811110964124e+00
-2.9441738620873399e+00
-2.9460653970477013e+00
-2.9479557183182679e+00
-2.9498448282323126e+00
-2.9517327291156401e+00
-2.9536194232866246e+00
-2.9555049130562372e+00
-2.9573892007280849e+00
-2.9592722885984397e+00
-2.9611541789562721e+00
-2.9630348740832830e+00
-2.9649143762539389e+00
-2.9667926877354995e+00
-2.9686698107880529e+00
-2.9705457476645463e+00
-2.9724205006108178e+00
-2.9742940718656268e+00
-2.9761664636606864e+00
-2.9780376782206939e+00
-2.9799077177633615e+00
-2.9817765844994479e+00
-2.9836442806327863e+00
-2.9855108083603188e+00
-2.9873761698721215e+00
-2.9892403673514401e+00
-2.9911034029747143e+00
-2.9929652789116115e+00
-2.9948259973250551e+00
-2.9966855603712501e+00
-2.9985439701997203e+00
-3.0004012289533288e+00
-3.0022573387683127e+00
-3.0041123017743088e+00
-3.0059661200943832e+00
-3.0078187958450600e+00
-3.0096703311363475e+00
-3.0115207280717691e+00
-3.0133699887483880e+00
-3.0152181152568396e+00
-3.0170651096813530e+00
-3.0189109740997830e+00
-3.0207557105836353e+00
-3.0225993211980957e+00
-3.0244418080020541e+00
-3.0262831730481334e+00
-3.0281234183827164e+00
-3.0299625460459692e+00
-3.0318005580718723e+00
-3.0336374564882438e+00
-3.0354732433167659e+00
-3.0373079205730118e+00
-3.0391414902664695e+00
-3.0409739544005707e+00
-3.0428053149727123e+00
-3.0446355739742867e+00
-3.0464647333907018e+00
-3.0482927952014096e+00
-3.0501197613799316e+00
-3.0519456338938795e+00
-3.0537704147049856e+00
-3.0555941057691229e+00
-3.0574167090363313e+00
-3.0592382264508422e+00
-3.0610586599511023e+00
-3.0628780114697984e+00
-3.0646962829338791e+00
-3.0665134762645798e+00
-3.0683295933774493e+00
-3.0701446361823685e+00
-3.0719586065835771e+00
-3.0737715064796962e+00
-3.0755833377637494e+00
-3.0773941023231894e+00
-3.0792038020399195e+00
-3.0810124387903142e+00
-3.0828200144452462e+00
-3.0846265308701040e+00
-3.0864319899248192e+00
-3.0882363934638848e+00
-3.0900397433363809e+00
-3.0918420413859939e+00
-3.0936432894510406e+00
-3.0954434893644893e+00
-3.0972426429539790e+00
-3.0990407520418461e+00
-3.1008378184451435e+00
-3.1026338439756604e+00
-3.1044288304399457e+00
-3.1062227796393280e+00
-3.1080156933699388e+00
-3.1098075734227297e+00
-3.1115984215834969e+00
-3.1133882396329016e+00
-3.1151770293464867e+00
-3.1169647924947035e+00
-3.1187515308429257e+00
-3.1205372461514762e+00
-3.1223219401756417e+00
-3.1241056146656963e+00
-3.1258882713669203e+00
-3.1276699120196203e+00
-3.1294505383591491e+00
-3.1312301521159238e+00
-3.1330087550154491e+00
-3.1347863487783343e+00
-3.1365629351203115e+00
-3.1383385157522592e+00
-3.1401130923802150e+00
-3.1418866667054020e+00
-3.1436592404242427e+00
-3.1454308152283805e+00
-3.1472013928046958e+00
-3.1489709748353292e+00
-3.1507395629976958e+00
-3.1525071589645051e+00
-3.1542737644037806e+00
-3.1560393809788789e+00
-3.1578040103485030e+00
-3.1595676541667275e+00
-3.1613303140830094e+00
-3.1630919917422142e+00
-3.1648526887846251e+00
-3.1666124068459687e+00
-3.1683711475574263e+00
-3.1701289125456569e+00
-3.1718857034328103e+00
-3.1736415218365481e+00
-3.1753963693700578e+00
-3.1771502476420737e+00
-3.1789031582568912e+00
-3.1806551028143839e+00
-3.1824060829100245e+00
-3.1841561001348961e+00
-3.1859051560757137e+00
-3.1876532523148375e+00
-3.1894003904302930e+00
-3.1911465719957852e+00
-3.1928917985807157e+00
-3.1946360717501991e+00
-3.1963793930650795e+00
-3.1981217640819484e+00
-3.1998631863531570e+00
-3.2016036614268364e+00
-3.2033431908469110e+00
-3.2050817761531163e+00
-3.2068194188810137e+00
-3.2085561205620050e+00
-3.2102918827233529e+00
-3.2120267068881909e+00
-3.2137605945755419e+00
-3.2154935473003339e+00
-3.2172255665734153e+00
-3.2189566539015679e+00
-3.2206868107875253e+00
-3.2224160387299885e+00
-3.2241443392236353e+00
-3.2258717137591444e+00
-3.2275981638232021e+00
-3.2293236908985214e+00
-3.2310482964638574e+00
-3.2327719819940199e+00
-3.2344947489598876e+00
-3.2362165988284270e+00
-3.2379375330627016e+00
-3.2396575531218912e+00
-3.2413766604613028e+00
-3.2430948565323856e+00
-3.2448121427827465e+00
-3.2465285206561645e+00
-3.2482439915926036e+00
-3.2499585570282270e+00
-3.2516722183954121e+00
-3.2533849771227641e+00
-3.2550968346351286e+00
-3.2568077923536070e+00
-3.2585178516955708e+00
-3.2602270140746743e+00
-3.2619352809008659e+00
-3.2636426535804066e+00
-3.2653491335158793e+00
-3.2670547221062041e+00
-3.2687594207466524e+00
-3.2704632308288590e+00
-3.2721661537408337e+00
-3.2738681908669798e+00
-3.2755693435880997e+00
-3.2772696132814159e+00
-3.2789690013205774e+00
-3.2806675090756778e+00
-3.2823651379132630e+00
-3.2840618891963502e+00
-3.2857577642844342e+00
-3.2874527645335059e+00
-3.2891468912960602e+00
-3.2908401459211114e+00
-3.2925325297542054e+00
-3.2942240441374318e+00
-3.2959146904094347e+00
-3.2976044699054290e+00
-3.2992933839572092e+00
-3.3009814338931620e+00
-3.3026686210382805e+00
-3.3043549467141760e+00
-3.3060404122390867e+00
-3.3077250189278939e+00
-3.3094087680921316e+00
-3.3110916610399999e+00
-3.3127736990763754e+00
-3.3144548835028242e+00
-3.3161352156176118e+00
-3.3178146967157174e+00
-3.3194933280888446e+00
-3.3211711110254312e+00
-3.3228480468106638e+00
-3.3245241367264868e+00
-3.3261993820516138e+00
-3.3278737840615413e+00
-3.3295473440285583e+00
-3.3312200632217577e+00
-3.3328919429070476e+00
-3.3345629843471638e+00
-3.3362331888016774e+00
-3.3379025575270096e+00
-3.3395710917764423e+00
-3.3412387928001257e+00
-3.3429056618450939e+00
-3.3445717001552731e+00
-3.3462369089714912e+00
-3.3479012895314915e+00
-3.3495648430699427e+00
-3.3512275708184478e+00
-3.3528894740055568e+00
-3.3545505538567766e+00
-3.3562108115945808e+00
-3.3578702484384197e+00
-3.3595288656047355e+00
-3.3611866643069654e+00
-3.3628436457555577e+00
-3.3644998111579794e+00
-3.3661551617187264e+00
-3.3678096986393351e+00
-3.3694634231183920e+00
-3.3711163363515442e+00
-3.3727684395315083e+00
-3.3744197338480806e+00
-3.3760702204881485e+00
-3.3777199006357002e+00
-3.3793687754718320e+00
-3.3810168461747616e+00
-3.3826641139198377e+00
-3.3843105798795454e+00
-3.3859562452235217e+00
-3.3876011111185615e+00
-3.3892451787286291e+00
-3.3908884492148665e+00
-3.3925309237356043e+00
-3.3941726034463677e+00
-3.3958134894998930e+00
-3.3974535830461297e+00
-3.3990928852322542e+00
-3.4007313972026778e+00
-3.4023691200990558e+00
-3.4040060550602971e+00
-3.4056422032225746e+00
-3.4072775657193324e+00
-3.4089121436812948e+00
-3.4105459382364796e+00
-3.4121789505102003e+00
-3.4138111816250820e+00
-3.4154426327010654e+00
-3.4170733048554180e+00
-3.4187031992027439e+00
-3.4203323168549895e+00
-3.4219606589214560e+00
-3.4235882265088060e+00
-3.4252150207210721e+00
-3.4268410426596678e+00
-3.4284662934233943e+00
-3.4300907741084483e+00
-3.4317144858084330e+00
-3.4333374296143662e+00
-3.4349596066146875e+00
-3.4365810178952674e+00
-3.4382016645394171e+00
-3.4398215476278948e+00
-3.4414406682389149e+00
-3.4430590274481583e+00
-3.4446766263287767e+00
-3.4462934659514048e+00
-3.4479095473841670e+00
-3.4495248716926854e+00
-3.4511394399400874e+00
-3.4527532531870166e+00
-3.4543663124916377e+00
-3.4559786189096449e+00
-3.4575901734942742e+00
-3.4592009772963044e+00
-3.4608110313640728e+00
-3.4624203367434752e+00
-3.4640288944779809e+00
-3.4656367056086377e+00
-3.4672437711740769e+00
-3.4688500922105265e+00
-3.4704556697518161e+00
-3.4720605048293836e+00
-3.4736645984722845e+00
-3.4752679517072007e+00
-3.4768705655584458e+00
-3.4784724410479746e+00
-3.4800735791953881e+00
-3.4816739810179449e+00
-3.4832736475305652e+00
-3.4848725797458409e+00
-3.4864707786740419e+00
-3.4880682453231220e+00
-3.4896649806987305e+00
-3.4912609858042147e+00
-3.4928562616406302e+00
-3.4944508092067497e+00
-3.4960446294990644e+00
-3.4976377235117986e+00
-3.4992300922369113e+00
-3.5008217366641059e+00
-3.5024126577808379e+00
-3.5040028565723200e+00
-3.5055923340215305e+00
-3.5071810911092216e+00
-3.5087691288139227e+00
-3.5103564481119518e+00
-3.5119430499774205e+00
-3.5135289353822392e+00
-3.5151141052961274e+00
-3.5166985606866192e+00
-3.5182823025190699e+00
-3.5198653317566615e+00
-3.5214476493604132e+00
-3.5230292562891838e+00
-3.5246101534996841e+00
-3.5261903419464766e+00
-3.5277698225819889e+00
-3.5293485963565150e+00
-3.5309266642182258e+00
-3.5325040271131742e+00
-3.5340806859853018e+00
-3.5356566417764443e+00
-3.5372318954263418e+00
-3.5388064478726409e+00
-3.5403803000509027e+00
-3.5419534528946128e+00
-3.5435259073351801e+00
-3.5450976643019523e+00
-3.5466687247222155e+00
-3.5482390895212021e+00
-3.5498087596221004e+00
-3.5513777359460570e+00
-3.5529460194121838e+00
-3.5545136109375681e+00
-3.5560805114372731e+00
-3.5576467218243470e+00
-3.5592122430098301e+00
-3.5607770759027604e+00
-3.5623412214101777e+00
-3.5639046804371328e+00
-3.5654674538866917e+00
-3.5670295426599421e+00
-3.5685909476559985e+00
-3.5701516697720117e+00
-3.5717117099031701e+00
-3.5732710689427090e+00
-3.5748297477819166e+00
-3.5763877473101355e+00
-3.5779450684147753e+00
-3.5795017119813135e+00
-3.5810576788933042e+00
-3.5826129700323821e+00
-3.5841675862782694e+00
-3.5857215285087793e+00
-3.5872747975998274e+00
-3.5888273944254308e+00
-3.5903793198577185e+00
-3.5919305747669346e+00
-3.5934811600214447e+00
-3.5950310764877416e+00
-3.5965803250304527e+00
-3.5981289065123416e+00
-3.5996768217943185e+00
-3.6012240717354409e+00
-3.6027706571929246e+00
-3.6043165790221425e+00
-3.6058618380766378e+00
-3.6074064352081221e+00
-3.6089503712664874e+00
-3.6104936470998061e+00
-3.6120362635543417e+00
-3.6135782214745475e+00
-3.6151195217030789e+00
-3.6166601650807952e+00
-3.6182001524467640e+00
-3.6197394846382709e+00
-3.6212781624908188e+00
-3.6228161868381377e+00
-3.6243535585121895e+00
-3.6258902783431708e+00
-3.6274263471595201e+00
-3.6289617657879241e+00
-3.6304965350533189e+00
-3.6320306557788991e+00
-3.6335641287861211e+00
-3.6350969548947094e+00
-3.6366291349226598e+00
-3.6381606696862465e+00
-3.6396915600000264e+00
-3.6412218066768429e+00
-3.6427514105278327e+00
-3.6442803723624309e+00
-3.6458086929883753e+00
-3.6473363732117101e+00
-3.6488634138367937e+00
-3.6503898156662995e+00
-3.6519155795012277e+00
-3.6534407061409020e+00
-3.6549651963829803e+00
-3.6564890510234567e+00
-3.6580122708566698e+00
-3.6595348566753008e+00
-3.6610568092703861e+00
-3.6625781294313171e+00
-3.6640988179458467e+00
-3.6656188756000936e+00
-3.6671383031785481e+00
-3.6686571014640745e+00
-3.6701752712379188e+00
-3.6716928132797109e+00
-3.6732097283674698e+00
-3.6747260172776106e+00
-3.6762416807849441e+00
-3.6777567196626881e+00
-3.6792711346824660e+00
-3.6807849266143151e+00
-3.6822980962266882e+00
-3.6838106442864622e+00
-3.6853225715589382e+00
-3.6868338788078492e+00
-3.6883445667953629e+00
-3.6898546362820879e+00
-3.6913640880270764e+00
-3.6928729227878274e+00
-3.6943811413202967e+00
-3.6958887443788950e+00
-3.6973957327164952e+00
-3.6989021070844377e+00
-3.7004078682325332e+00
-3.7019130169090659e+00
-3.7034175538608025e+00
-3.7049214798329908e+00
-3.7064247955693661e+00
-3.7079275018121600e+00
-3.7094295993020965e+00
-3.7109310887784019e+00
-3.7124319709788089e+00
-3.7139322466395570e+00
-3.7154319164954015e+00
-3.7169309812796141e+00
-3.7184294417239894e+00
-3.7199272985588476e+00
-3.7214245525130392e+00
-3.7229212043139484e+00
-3.7244172546874985e+00
-3.7259127043581564e+00
-3.7274075540489338e+00
-3.7289018044813944e+00
-3.7303954563756569e+00
-3.7318885104503985e+00
-3.7333809674228582e+00
-3.7348728280088443e+00
-3.7363640929227344e+00
-3.7378547628774816e+00
-3.7393448385846173e+00
-3.7408343207542574e+00
-3.7423232100951020e+00
-3.7438115073144442e+00
-3.7452992131181722e+00
-3.7467863282107698e+00
-3.7482728532953264e+00
-3.7497587890735367e+00
-3.7512441362457043e+00
-3.7527288955107490e+00
-3.7542130675662069e+00
-3.7556966531082372e+00
-3.7571796528316237e+00
-3.7586620674297802e+00
-3.7601438975947516e+00
-3.7616251440172235e+00
-3.7631058073865185e+00
-3.7645858883906058e+00
-3.7660653877161021e+00
-3.7675443060482752e+00
-3.7690226440710495e+00
-3.7705004024670079e+00
-3.7719775819173975e+00
-3.7734541831021295e+00
-3.7749302066997878e+00
-3.7764056533876302e+00
-3.7778805238415885e+00
-3.7793548187362802e+00
-3.7808285387450047e+00
-3.7823016845397501e+00
-3.7837742567911978e+00
-3.7852462561687217e+00
-3.7867176833403979e+00
-3.7881885389730030e+00
-3.7896588237320201e+00
-3.7911285382816424e+00
-3.7925976832847761e+00
-3.7940662594030425e+00
-3.7955342672967847e+00
-3.7970017076250682e+00
-3.7984685810456864e+00
-3.7999348882151622e+00
-3.8014006297887524e+00
-3.8028658064204515e+00
-3.8043304187629934e+00
-3.8057944674678583e+00
-3.8072579531852710e+00
-3.8087208765642107e+00
-3.8101832382524066e+00
-3.8116450388963479e+00
-3.8131062791412837e+00
-3.8145669596312279e+00
-3.8160270810089614e+00
-3.8174866439160362e+00
-3.8189456489927771e+00
-3.8204040968782884e+00
-3.8218619882104528e+00
-3.8233193236259382e+00
-3.8247761037601986e+00
-3.8262323292474796e+00
-3.8276880007208192e+00
-3.8291431188120515e+00
-3.8305976841518126e+00
-3.8320516973695402e+00
-3.8335051590934794e+00
-3.8349580699506824e+00
-3.8364104305670179e+00
-3.8378622415671666e+00
-3.8393135035746297e+00
-3.8407642172117313e+00
-3.8422143830996198e+00
-3.8436640018582704e+00
-3.8451130741064925e+00
-3.8465616004619281e+00
-3.8480095815410560e+00
-3.8494570179591978e+00
-3.8509039103305169e+00
-3.8523502592680234e+00
-3.8537960653835790e+00
-3.8552413292878960e+00
-3.8566860515905423e+00
-3.8581302328999456e+00
-3.8595738738233960e+00
-3.8610169749670464e+00
-3.8624595369359178e+00
-3.8639015603339035e+00
-3.8653430457637676e+00
-3.8667839938271524e+00
-3.8682244051245798e+00
-3.8696642802554528e+00
-3.8711036198180619e+00
-3.8725424244095819e+00
-3.8739806946260833e+00
-3.8754184310625264e+00
-3.8768556343127716e+00
-3.8782923049695759e+00
-3.8797284436246016e+00
-3.8811640508684140e+00
-3.8825991272904883e+00
-3.8840336734792098e+00
-3.8854676900218785e+00
-3.8869011775047095e+00
-3.8883341365128392e+00
-3.8897665676303239e+00
-3.8911984714401466e+00
-3.8926298485242188e+00
-3.8940606994633793e+00
-3.8954910248374044e+00
-3.8969208252250027e+00
-3.8983501012038233e+00
-3.8997788533504569e+00
-3.9012070822404379e+00
-3.9026347884482475e+00
-3.9040619725473160e+00
-3.9054886351100278e+00
-3.9069147767077199e+00
-3.9083403979106888e+00
-3.9097654992881892e+00
-3.9111900814084417e+00
-3.9126141448386291e+00
-3.9140376901449048e+00
-3.9154607178923921e+00
-3.9168832286451876e+00
-3.9183052229663651e+00
-3.9197267014179751e+00
-3.9211476645610515e+00
-3.9225681129556098e+00
-3.9239880471606532e+00
-3.9254074677341744e+00
-3.9268263752331563e+00
-3.9282447702135763e+00
-3.9296626532304089e+00
-3.9310800248376281e+00
-3.9324968855882072e+00
-3.9339132360341269e+00
-3.9353290767263722e+00
-3.9367444082149388e+00
-3.9381592310488318e+00
-3.9395735457760748e+00
-3.9409873529437038e+00
-3.9424006530977751e+00
-3.9438134467833681e+00
-3.9452257345445845e+00
-3.9466375169245533e+00
-3.9480487944654317e+00
-3.9494595677084092e+00
-3.9508698371937085e+00
-3.9522796034605885e+00
-3.9536888670473465e+00
-3.9550976284913211e+00
-3.9565058883288953e+00
-3.9579136470954950e+00
-3.9593209053255976e+00
-3.9607276635527282e+00
-3.9621339223094671e+00
-3.9635396821274473e+00
-3.9649449435373616e+00
-3.9663497070689617e+00
-3.9677539732510616e+00
-3.9691577426115394e+00
-3.9705610156773408e+00
-3.9719637929744800e+00
-3.9733660750280446e+00
-3.9747678623621918e+00
-3.9761691555001604e+00
-3.9775699549642618e+00
-3.9789702612758928e+00
-3.9803700749555295e+00
-3.9817693965227363e+00
-3.9831682264961619e+00
-3.9845665653935471e+00
-3.9859644137317223e+00
-3.9873617720266141e+00
-3.9887586407932436e+00
-3.9901550205457319e+00
-3.9915509117973000e+00
-3.9929463150602715e+00
-3.9943412308460760e+00
-3.9957356596652502e+00
-3.9971296020274396e+00
-3.9985230584414020e+00
-3.9999160294150085e+00
-4.0013085154552472e+00
-4.0027005170682219e+00
-4.0040920347591618e+00
-4.0054830690324117e+00
-4.0068736203914463e+00
-4.0082636893388637e+00
-4.0096532763763930e+00
-4.0110423820048933e+00
-4.0124310067243565e+00
-4.0138191510339105e+00
-4.0152068154318181e+00
-4.0165940004154850e+00
-4.0179807064814552e+00
-4.0193669341254177e+00
-4.0207526838422059e+00
-4.0221379561258033e+00
-4.0235227514693390e+00
-4.0249070703650958e+00
-4.0262909133045133e+00
-4.0276742807781805e+00
-4.0290571732758496e+00
-4.0304395912864299e+00
-4.0318215352979934e+00
-4.0332030057977759e+00
-4.0345840032721787e+00
-4.0359645282067715e+00
-4.0373445810862920e+00
-4.0387241623946535e+00
-4.0401032726149388e+00
-4.0414819122294103e+00
-4.0428600817195042e+00
-4.0442377815658386e+00
-4.0456150122482146e+00
-4.0469917742456145e+00
-4.0483680680362069e+00
-4.0497438940973494e+00
-4.0511192529055853e+00
-4.0524941449366523e+00
-4.0538685706654816e+00
-4.0552425305661979e+00
-4.0566160251121239e+00
-4.0579890547757804e+00
-4.0593616200288904e+00
-4.0607337213423786e+00
-4.0621053591863747e+00
-4.0634765340302152e+00
-4.0648472463424454e+00
-4.0662174965908191e+00
-4.0675872852423032e+00
-4.0689566127630794e+00
-4.0703254796185453e+00
-4.0716938862733141e+00
-4.0730618331912209e+00
-4.0744293208353213e+00
-4.0757963496678924e+00
-4.0771629201504407e+00
-4.0785290327436945e+00
-4.0798946879076130e+00
-4.0812598861013862e+00
-4.0826246277834368e+00
-4.0839889134114200e+00
-4.0853527434422281e+00
-4.0867161183319896e+00
-4.0880790385360735e+00
-4.0894415045090913e+00
-4.0908035167048933e+00
-4.0921650755765784e+00
-4.0935261815764914e+00
-4.0948868351562240e+00
-4.0962470367666182e+00
-4.0976067868577690e+00
-4.0989660858790220e+00
-4.1003249342789818e+00
-4.1016833325055071e+00
-4.1030412810057166e+00
-4.1043987802259876e+00
-4.1057558306119617e+00
-4.1071124326085435e+00
-4.1084685866599013e+00
-4.1098242932094742e+00
-4.1111795526999666e+00
-4.1125343655733557e+00
-4.1138887322708904e+00
-4.1152426532330919e+00
-4.1165961288997588e+00
-4.1179491597099673e+00
-4.1193017461020709e+00
-4.1206538885137043e+00
-4.1220055873817856e+00
-4.1233568431425152e+00
-4.1247076562313794e+00
-4.1260580270831504e+00
-4.1274079561318917e+00
-4.1287574438109571e+00
-4.1301064905529898e+00
-4.1314550967899288e+00
-4.1328032629530078e+00
-4.1341509894727562e+00
-4.1354982767790043e+00
-4.1368451253008809e+00
-4.1381915354668166e+00
-4.1395375077045449e+00
-4.1408830424411045e+00
-4.1422281401028407e+00
-4.1435728011154085e+00
-4.1449170259037675e+00
-4.1462608148921936e+00
-4.1476041685042730e+00
-4.1489470871629068e+00
-4.1502895712903110e+00
-4.1516316213080202e+00
-4.1529732376368873e+00
-4.1543144206970846e+00
-4.1556551709081084e+00
-4.1569954886887768e+00
-4.1583353744572342e+00
-4.1596748286309513e+00
-4.1610138516267261e+00
-4.1623524438606863e+00
-4.1636906057482914e+00
-4.1650283377043325e+00
-4.1663656401429368e+00
-4.1677025134775638e+00
-4.1690389581210141e+00
-4.1703749744854228e+00
-4.1717105629822697e+00
-4.1730457240223702e+00
-4.1743804580158876e+00
-4.1757147653723283e+00
-4.1770486465005439e+00
-4.1783821018087330e+00
-4.1797151317044454e+00
-4.1810477365945795e+00
-4.1823799168853855e+00
-4.1837116729824659e+00
-4.1850430052907814e+00
-4.1863739142146441e+00
-4.1877044001577266e+00
-4.1890344635230594e+00
-4.1903641047130344e+00
-4.1916933241294050e+00
-4.1930221221732857e+00
-4.1943504992451590e+00
-4.1956784557448703e+00
-4.1970059920716336e+00
-4.1983331086240341e+00
-4.1996598058000236e+00
-4.2009860839969280e+00
-4.2023119436114431e+00
-4.2036373850396433e+00
-4.2049624086769759e+00
-4.2062870149182663e+00
-4.2076112041577183e+00
-4.2089349767889157e+00
-4.2102583332048233e+00
-4.2115812737977887e+00
-4.2129037989595428e+00
-4.2142259090812031e+00
-4.2155476045532732e+00
-4.2168688857656438e+00
-4.2181897531075965e+00
-4.2195102069678034e+00
-4.2208302477343276e+00
-4.2221498757946252e+00
-4.2234690915355477e+00
-4.2247878953433453e+00
-4.2261062876036606e+00
-4.2274242687015393e+00
-4.2287418390214233e+00
-4.2300589989471584e+00
-4.2313757488619919e+00
-4.2326920891485749e+00
-4.2340080201889645e+00
-4.2353235423646227e+00
-4.2366386560564218e+00
-4.2379533616446405e+00
-4.2392676595089691e+00
-4.2405815500285104e+00
-4.2418950335817769e+00
-4.2432081105466990e+00
-4.2445207813006220e+00
-4.2458330462203033e+00
-4.2471449056819246e+00
-4.2484563600610832e+00
-4.2497674097327982e+00
-4.2510780550715088e+00
-4.2523882964510786e+00
-4.2536981342447957e+00
-4.2550075688253717e+00
-4.2563166005649471e+00
-4.2576252298350878e+00
-4.2589334570067932e+00
-4.2602412824504885e+00
-4.2615487065360318e+00
-4.2628557296327152e+00
-4.2641623521092642e+00
-4.2654685743338403e+00
-4.2667743966740383e+00
-4.2680798194968954e+00
-4.2693848431688846e+00
-4.2706894680559184e+00
-4.2719936945233536e+00
-4.2732975229359855e+00
-4.2746009536580578e+00
-4.2759039870532556e+00
-4.2772066234847088e+00
-4.2785088633150004e+00
-4.2798107069061544e+00
-4.2811121546196507e+00
-4.2824132068164147e+00
-4.2837138638568284e+00
-4.2850141261007231e+00
-4.2863139939073864e+00
-4.2876134676355599e+00
-4.2889125476434433e+00
-4.2902112342886944e+00
-4.2915095279284268e+00
-4.2928074289192164e+00
-4.2941049376171003e+00
-4.2954020543775764e+00
-4.2966987795556078e+00
-4.2979951135056211e+00
-4.2992910565815077e+00
-4.3005866091366283e+00
-4.3018817715238100e+00
-4.3031765440953480e+00
-4.3044709272030079e+00
-4.3057649211980289e+00
-4.3070585264311205e+00
-4.3083517432524658e+00
-4.3096445720117229e+00
-4.3109370130580249e+00
-4.3122290667399836e+00
-4.3135207334056869e+00
-4.3148120134027028e+00
-4.3161029070780774e+00
-4.3173934147783397e+00
-4.3186835368495018e+00
-4.3199732736370562e+00
-4.3212626254859829e+00
-4.3225515927407461e+00
-4.3238401757452953e+00
-4.3251283748430689e+00
-4.3264161903769951e+00
-4.3277036226894907e+00
-4.3289906721224618e+00
-4.3302773390173090e+00
-4.3315636237149251e+00
-4.3328495265556963e+00
-4.3341350478795038e+00
-4.3354201880257248e+00
-4.3367049473332351e+00
-4.3379893261404074e+00
-4.3392733247851121e+00
-4.3405569436047253e+00
-4.3418401829361173e+00
-4.3431230431156660e+00
-4.3444055244792503e+00
-4.3456876273622536e+00
-4.3469693520995660e+00
-4.3482506990255816e+00
-4.3495316684742056e+00
-4.3508122607788486e+00
-4.3520924762724311e+00
-4.3533723152873849e+00
-4.3546517781556533e+00
-4.3559308652086912e+00
-4.3572095767774677e+00
-4.3584879131924676e+00
-4.3597658747836876e+00
-4.3610434618806444e+00
-4.3623206748123708e+00
-4.3635975139074192e+00
-4.3648739794938587e+00
-4.3661500718992805e+00
-4.3674257914507999e+00
-4.3687011384750489e+00
-4.3699761132981880e+00
-4.3712507162458980e+00
-4.3725249476433889e+00
-4.3737988078153958e+00
-4.3750722970861764e+00
-4.3763454157795243e+00
-4.3776181642187577e+00
-4.3788905427267251e+00
-4.3801625516258067e+00
-4.3814341912379149e+00
-4.3827054618844947e+00
-4.3839763638865268e+00
-4.3852468975645236e+00
-4.3865170632385357e+00
-4.3877868612281485e+00
-4.3890562918524889e+00
-4.3903253554302166e+00
-4.3915940522795367e+00
-4.3928623827181923e+00
-4.3941303470634656e+00
-4.3953979456321868e+00
-4.3966651787407214e+00
-4.3979320467049892e+00
-4.3991985498404453e+00
-4.4004646884620975e+00
-4.4017304628844967e+00
-4.4029958734217445e+00
-4.4042609203874896e+00
-4.4055256040949304e+00
-4.4067899248568168e+00
-4.4080538829854490e+00
-4.4093174787926799e+00
-4.4105807125899172e+00
-4.4118435846881212e+00
-4.4131060953978070e+00
-4.4143682450290465e+00
-4.4156300338914676e+00
-4.4168914622942586e+00
-4.4181525305461626e+00
-4.4194132389554843e+00
-4.4206735878300885e+00
-4.4219335774774020e+00
-4.4231932082044123e+00
-4.4244524803176697e+00
-4.4257113941232920e+00
-4.4269699499269555e+00
-4.4282281480339085e+00
-4.4294859887489624e+00
-4.4307434723764940e+00
-4.4320005992204532e+00
-4.4332573695843562e+00
-4.4345137837712887e+00
-4.4357698420839071e+00
-4.4370255448244418e+00
-4.4382808922946939e+00
-4.4395358847960367e+00
-4.4407905226294195e+00
-4.4420448060953657e+00
-4.4432987354939764e+00
-4.4445523111249248e+00
-4.4458055332874666e+00
-4.4470584022804331e+00
-4.4483109184022362e+00
-4.4495630819508660e+00
-4.4508148932238951e+00
-4.4520663525184778e+00
-4.4533174601313492e+00
-4.4545682163588278e+00
-4.4558186214968201e+00
-4.4570686758408113e+00
-4.4583183796858776e+00
-4.4595677333266792e+00
-4.4608167370574643e+00
-4.4620653911720689e+00
-4.4633136959639179e+00
-4.4645616517260276e+00
-4.4658092587510021e+00
-4.4670565173310406e+00
-4.4683034277579310e+00
-4.4695499903230544e+00
-4.4707962053173889e+00
-4.4720420730315036e+00
-4.4732875937555656e+00
-4.4745327677793361e+00
-4.4757775953921728e+00
-4.4770220768830358e+00
-4.4782662125404773e+00
-4.4795100026526535e+00
-4.4807534475073192e+00
-4.4819965473918284e+00
-4.4832393025931392e+00
-4.4844817133978099e+00
-4.4857237800920053e+00
-4.4869655029614899e+00
-4.4882068822916352e+00
-4.4894479183674187e+00
-4.4906886114734217e+00
-4.4919289618938363e+00
-4.4931689699124577e+00
-4.4944086358126940e+00
-4.4956479598775605e+00
-4.4968869423896809e+00
-4.4981255836312926e+00
-4.4993638838842438e+00
-4.5006018434299930e+00
-4.5018394625496141e+00
-4.5030767415237927e+00
-4.5043136806328317e+00
-4.5055502801566458e+00
-4.5067865403747689e+00
-4.5080224615663482e+00
-4.5092580440101528e+00
-4.5104932879845654e+00
-4.5117281937675902e+00
-4.5129627616368504e+00
-4.5141969918695892e+00
-4.5154308847426723e+00
-4.5166644405325860e+00
-4.5178976595154392e+00
-4.5191305419669643e+00
-4.5203630881625179e+00
-4.5215952983770809e+00
-4.5228271728852594e+00
-4.5240587119612865e+00
-4.5252899158790214e+00
-4.5265207849119511e+00
-4.5277513193331904e+00
-4.5289815194154848e+00
-4.5302113854312074e+00
-4.5314409176523620e+00
-4.5326701163505856e+00
-4.5338989817971438e+00
-4.5351275142629364e+00
-4.5363557140184971e+00
-4.5375835813339913e+00
-4.5388111164792218e+00
-4.5400383197236236e+00
-4.5412651913362696e+00
-4.5424917315858693e+00
-4.5437179407407688e+00
-4.5449438190689531e+00
-4.5461693668380452e+00
-4.5473945843153061e+00
-4.5486194717676396e+00
-4.5498440294615889e+00
-4.5510682576633386e+00
-4.5522921566387140e+00
-4.5535157266531874e+00
-4.5547389679718693e+00
-4.5559618808595177e+00
-4.5571844655805345e+00
-4.5584067223989662e+00
-4.5596286515785067e+00
-4.5608502533824957e+00
-4.5620715280739210e+00
-4.5632924759154179e+00
-4.5645130971692707e+00
-4.5657333920974139e+00
-4.5669533609614295e+00
-4.5681730040225537e+00
-4.5693923215416721e+00
-4.5706113137793212e+00
-4.5718299809956937e+00
-4.5730483234506307e+00
-4.5742663414036322e+00
-4.5754840351138490e+00
-4.5767014048400911e+00
-4.5779184508408202e+00
-4.5791351733741550e+00
-4.5803515726978752e+00
-4.5815676490694148e+00
-4.5827834027458678e+00
-4.5839988339839852e+00
-4.5852139430401806e+00
-4.5864287301705264e+00
-4.5876431956307560e+00
-4.5888573396762640e+00
-4.5900711625621078e+00
-4.5912846645430090e+00
-4.5924978458733499e+00
-4.5937107068071779e+00
-4.5949232475982065e+00
-4.5961354684998117e+00
-4.5973473697650400e+00
-4.5985589516466003e+00
-4.5997702143968704e+00
-4.6009811582678939e+00
-4.6021917835113868e+00
-4.6034020903787303e+00
-4.6046120791209768e+00
-4.6058217499888503e+00
-4.6070311032327425e+00
-4.6082401391027181e+00
-4.6094488578485162e+00
-4.6106572597195434e+00
-4.6118653449648859e+00
-4.6130731138332957e+00
-4.6142805665732087e+00
-4.6154877034327280e+00
-4.6166945246596356e+00
-4.6179010305013906e+00
-4.6191072212051267e+00
-4.6203130970176574e+00
-4.6215186581854715e+00
-4.6227239049547384e+00
-4.6239288375713059e+00
-4.6251334562807029e+00
-4.6263377613281351e+00
-4.6275417529584928e+00
-4.6287454314163474e+00
-4.6299487969459507e+00
-4.6311518497912383e+00
-4.6323545901958276e+00
-4.6335570184030210e+00
-4.6347591346558064e+00
-4.6359609391968553e+00
-4.6371624322685232e+00
-4.6383636141128566e+00
-4.6395644849715820e+00
-4.6407650450861189e+00
-4.6419652946975711e+00
-4.6431652340467338e+00
-4.6443648633740873e+00
-4.6455641829198040e+00
-4.6467631929237472e+00
-4.6479618936254665e+00
-4.6491602852642098e+00
-4.6503583680789093e+00
-4.6515561423081930e+00
-4.6527536081903822e+00
-4.6539507659634909e+00
-4.6551476158652276e+00
-4.6563441581329927e+00
-4.6575403930038863e+00
-4.6587363207147012e+00
-4.6599319415019238e+00
-4.6611272556017429e+00
-4.6623222632500410e+00
-4.6635169646823984e+00
-4.6647113601340946e+00
-4.6659054498401078e+00
-4.6670992340351161e+00
-4.6682927129534955e+00
-4.6694858868293263e+00
-4.6706787558963843e+00
-4.6718713203881537e+00
-4.6730635805378142e+00
-4.6742555365782508e+00
-4.6754471887420550e+00
-4.6766385372615158e+00
-4.6778295823686298e+00
-4.6790203242950996e+00
-4.6802107632723295e+00
-4.6814008995314325e+00
-4.6825907333032273e+00
-4.6837802648182372e+00
-4.6849694943066966e+00
-4.6861584219985453e+00
-4.6873470481234305e+00
-4.6885353729107111e+00
-4.6897233965894545e+00
-4.6909111193884359e+00
-4.6920985415361454e+00
-4.6932856632607782e+00
-4.6944724847902464e+00
-4.6956590063521704e+00
-4.6968452281738857e+00
-4.6980311504824384e+00
-4.6992167735045900e+00
-4.7004020974668155e+00
-4.7015871225953028e+00
-4.7027718491159574e+00
-4.7039562772543997e+00
-4.7051404072359642e+00
-4.7063242392857045e+00
-4.7075077736283886e+00
-4.7086910104885042e+00
-4.7098739500902571e+00
-4.7110565926575685e+00
-4.7122389384140835e+00
-4.7134209875831621e+00
-4.7146027403878872e+00
-4.7157841970510619e+00
-4.7169653577952078e+00
-4.7181462228425710e+00
-4.7193267924151172e+00
-4.7205070667345375e+00
-4.7216870460222422e+00
-4.7228667304993683e+00
-4.7240461203867747e+00
-4.7252252159050459e+00
-4.7264040172744899e+00
-4.7275825247151397e+00
-4.7287607384467574e+00
-4.7299386586888286e+00
-4.7311162856605637e+00
-4.7322936195809069e+00
-4.7334706606685231e+00
-4.7346474091418091e+00
-4.7358238652188911e+00
-4.7370000291176204e+00
-4.7381759010555831e+00
-4.7393514812500905e+00
-4.7405267699181888e+00
-4.7417017672766519e+00
-4.7428764735419868e+00
-4.7440508889304311e+00
-4.7452250136579570e+00
-4.7463988479402683e+00
-4.7475723919928008e+00
-4.7487456460307280e+00
-4.7499186102689528e+00
-4.7510912849221167e+00
-4.7522636702045933e+00
-4.7534357663304947e+00
-4.7546075735136668e+00
-4.7557790919676943e+00
-4.7569503219058964e+00
-4.7581212635413310e+00
-4.7592919170867951e+00
-4.7604622827548218e+00
-4.7616323607576838e+00
-4.7628021513073939e+00
-4.7639716546157036e+00
-4.7651408708941050e+00
-4.7663098003538309e+00
-4.7674784432058548e+00
-4.7686467996608917e+00
-4.7698148699293990e+00
-4.7709826542215765e+00
-4.7721501527473649e+00
-4.7733173657164523e+00
-4.7744842933382650e+00
-4.7756509358219779e+00
-4.7768172933765092e+00
-4.7779833662105213e+00
-4.7791491545324227e+00
-4.7803146585503677e+00
-4.7814798784722568e+00
-4.7826448145057361e+00
-4.7838094668582025e+00
-4.7849738357367952e+00
-4.7861379213484065e+00
-4.7873017238996738e+00
-4.7884652435969857e+00
-4.7896284806464768e+00
-4.7907914352540359e+00
-4.7919541076252994e+00
-4.7931164979656522e+00
-4.7942786064802352e+00
-4.7954404333739369e+00
-4.7966019788513989e+00
-4.7977632431170152e+00
-4.7989242263749325e+00
-4.8000849288290510e+00
-4.8012453506830219e+00
-4.8024054921402550e+00
-4.8035653534039087e+00
-4.8047249346769032e+00
-4.8058842361619067e+00
-4.8070432580613485e+00
-4.8082020005774098e+00
-4.8093604639120313e+00
-4.8105186482669096e+00
-4.8116765538434985e+00
-4.8128341808430077e+00
-4.8139915294664091e+00
-4.8151485999144281e+00
-4.8163053923875534e+00
-4.8174619070860301e+00
-4.8186181442098643e+00
-4.8197741039588218e+00
-4.8209297865324281e+00
-4.8220851921299728e+00
-4.8232403209505010e+00
-4.8243951731928263e+00
-4.8255497490555195e+00
-4.8267040487369153e+00
-4.8278580724351121e+00
-4.8290118203479713e+00
-4.8301652926731160e+00
-4.8313184896079369e+00
-4.8324714113495855e+00
-4.8336240580949825e+00
-4.8347764300408089e+00
-4.8359285273835155e+00
-4.8370803503193160e+00
-4.8382318990441933e+00
-4.8393831737538964e+00
-4.8405341746439383e+00
-4.8416849019096047e+00
-4.8428353557459465e+00
-4.8439855363477822e+00
-4.8451354439097010e+00
-4.8462850786260612e+00
-4.8474344406909875e+00
-4.8485835302983791e+00
-4.8497323476419032e+00
-4.8508808929149954e+00
-4.8520291663108672e+00
-4.8531771680224987e+00
-4.8543248982426404e+00
-4.8554723571638183e+00
-4.8566195449783294e+00
-4.8577664618782421e+00
-4.8589131080554013e+00
-4.8600594837014235e+00
-4.8612055890076995e+00
-4.8623514241653938e+00
-4.8634969893654487e+00
-4.8646422847985775e+00
-4.8657873106552731e+00
-4.8669320671258012e+00
-4.8680765544002043e+00
-4.8692207726683039e+00
-4.8703647221196951e+00
-4.8715084029437534e+00
-4.8726518153296308e+00
-4.8737949594662568e+00
-4.8749378355423403e+00
-4.8760804437463685e+00
-4.8772227842666087e+00
-4.8783648572911060e+00
-4.8795066630076880e+00
-4.8806482016039601e+00
-4.8817894732673093e+00
-4.8829304781849041e+00
-4.8840712165436937e+00
-4.8852116885304104e+00
-4.8863518943315665e+00
-4.8874918341334590e+00
-4.8886315081221641e+00
-4.8897709164835446e+00
-4.8909100594032466e+00
-4.8920489370666989e+00
-4.8931875496591140e+00
-4.8943258973654906e+00
-4.8954639803706099e+00
-4.8966017988590416e+00
-4.8977393530151376e+00
-4.8988766430230406e+00
-4.9000136690666727e+00
-4.9011504313297483e+00
-4.9022869299957677e+00
-4.9034231652480162e+00
-4.9045591372695689e+00
-4.9056948462432883e+00
-4.9068302923518266e+00
-4.9079654757776217e+00
-4.9091003967029030e+00
-4.9102350553096894e+00
-4.9113694517797875e+00
-4.9125035862947959e+00
-4.9136374590361038e+00
-4.9147710701848899e+00
-4.9159044199221240e+00
-4.9170375084285673e+00
-4.9181703358847750e+00
-4.9193029024710917e+00
-4.9204352083676550e+00
-4.9215672537543975e+00
-4.9226990388110403e+00
-4.9238305637171038e+00
-4.9249618286518961e+00
-4.9260928337945256e+00
-4.9272235793238899e+00
-4.9283540654186835e+00
-4.9294842922573974e+00
-4.9306142600183156e+00
-4.9317439688795188e+00
-4.9328734190188834e+00
-4.9340026106140842e+00
-4.9351315438425898e+00
-4.9362602188816673e+00
-4.9373886359083823e+00
-4.9385167950995950e+00
-4.9396446966319676e+00
-4.9407723406819573e+00
-4.9418997274258221e+00
-4.9430268570396176e+00
-4.9441537296991989e+00
-4.9452803455802234e+00
-4.9464067048581430e+00
-4.9475328077082157e+00
-4.9486586543054960e+00
-4.9497842448248415e+00
-4.9509095794409106e+00
-4.9520346583281629e+00
-4.9531594816608591e+00
-4.9542840496130633e+00
-4.9554083623586420e+00
-4.9565324200712642e+00
-4.9576562229244017e+00
-4.9587797710913311e+00
-4.9599030647451299e+00
-4.9610261040586838e+00
-4.9621488892046797e+00
-4.9632714203556079e+00
-4.9643936976837688e+00
-4.9655157213612631e+00
-4.9666374915600002e+00
-4.9677590084516936e+00
-4.9688802722078647e+00
-4.9700012829998395e+00
-4.9711220409987513e+00
-4.9722425463755426e+00
-4.9733627993009604e+00
-4.9744827999455614e+00
-4.9756025484797091e+00
-4.9767220450735765e+00
-4.9778412898971443e+00
-4.9789602831202027e+00
-4.9800790249123512e+00
-4.9811975154429984e+00
-4.9823157548813635e+00
-4.9834337433964739e+00
-4.9845514811571698e+00
-4.9856689683321020e+00
-4.9867862050897296e+00
-4.9879031915983267e+00
-4.9890199280259768e+00
-4.9901364145405749e+00
-4.9912526513098303e+00
-4.9923686385012633e+00
-4.9934843762822068e+00
-4.9945998648198078e+00
-4.9957151042810271e+00
-4.9968300948326370e+00
-4.9979448366412251e+00
-4.9990593298731936e+00
-5.0001735746947595e+00
-5.0012875712719538e+00
-5.0024013197706223e+00
-5.0035148203564273e+00
-5.0046280731948460e+00
-5.0057410784511713e+00
-5.0068538362905146e+00
-5.0079663468778008e+00
-5.0090786103777747e+00
-5.0101906269549943e+00
-5.0113023967738393e+00
-5.0124139199985045e+00
-5.0135251967930019e+00
-5.0146362273211667e+00
-5.0157470117466465e+00
-5.0168575502329098e+00
-5.0179678429432464e+00
-5.0190778900407631e+00
-5.0201876916883883e+00
-5.0212972480488673e+00
-5.0224065592847698e+00
-5.0235156255584821e+00
-5.0246244470322123e+00
-5.0257330238679927e+00
-5.0268413562276715e+00
-5.0279494442729238e+00
-5.0290572881652436e+00
-5.0301648880659462e+00
-5.0312722441361730e+00
-5.0323793565368842e+00
-5.0334862254288657e+00
-5.0345928509727251e+00
-5.0356992333288950e+00
-5.0368053726576303e+00
-5.0379112691190100e+00
-5.0390169228729391e+00
-5.0401223340791441e+00
-5.0412275028971818e+00
-5.0423324294864269e+00
-5.0434371140060863e+00
-5.0445415566151883e+00
-5.0456457574725881e+00
-5.0467497167369695e+00
-5.0478534345668375e+00
-5.0489569111205306e+00
-5.0500601465562083e+00
-5.0511631410318616e+00
-5.0522658947053056e+00
-5.0533684077341867e+00
-5.0544706802759762e+00
-5.0555727124879777e+00
-5.0566745045273160e+00
-5.0577760565509555e+00
-5.0588773687156792e+00
-5.0599784411781066e+00
-5.0610792740946824e+00
-5.0621798676216860e+00
-5.0632802219152220e+00
-5.0643803371312268e+00
-5.0654802134254702e+00
-5.0665798509535493e+00
-5.0676792498708956e+00
-5.0687784103327678e+00
-5.0698773324942614e+00
-5.0709760165103006e+00
-5.0720744625356415e+00
-5.0731726707248752e+00
-5.0742706412324230e+00
-5.0753683742125411e+00
-5.0764658698193177e+00
-5.0775631282066742e+00
-5.0786601495283668e+00
-5.0797569339379844e+00
-5.0808534815889530e+00
-5.0819497926345285e+00
-5.0830458672278054e+00
-5.0841417055217120e+00
-5.0852373076690096e+00
-5.0863326738223007e+00
-5.0874278041340162e+00
-5.0885226987564280e+00
-5.0896173578416430e+00
-5.0907117815416036e+00
-5.0918059700080907e+00
-5.0928999233927206e+00
-5.0939936418469474e+00
-5.0950871255220624e+00
-5.0961803745691947e+00
-5.0972733891393114e+00
-5.0983661693832181e+00
-5.0994587154515578e+00
-5.1005510274948129e+00
-5.1016431056633058e+00
-5.1027349501071964e+00
-5.1038265609764837e+00
-5.1049179384210062e+00
-5.1060090825904458e+00
-5.1070999936343204e+00
-5.1081906717019887e+00
-5.1092811169426531e+00
-5.1103713295053526e+00
-5.1114613095389707e+00
-5.1125510571922312e+00
-5.1136405726136971e+00
-5.1147298559517775e+00
-5.1158189073547193e+00
-5.1169077269706147e+00
-5.1179963149473959e+00
-5.1190846714328400e+00
-5.1201727965745656e+00
-5.1212606905200371e+00
-5.1223483534165561e+00
-5.1234357854112753e+00
-5.1245229866511863e+00
-5.1256099572831273e+00
-5.1266966974537791e+00
-5.1277832073096690e+00
-5.1288694869971669e+00
-5.1299555366624885e+00
-5.1310413564516972e+00
-5.1321269465106969e+00
-5.1332123069852429e+00
-5.1342974380209316e+00
-5.1353823397632086e+00
-5.1364670123573655e+00
-5.1375514559485378e+00
-5.1386356706817118e+00
-5.1397196567017183e+00
-5.1408034141532370e+00
-5.1418869431807934e+00
-5.1429702439287617e+00
-5.1440533165413651e+00
-5.1451361611626716e+00
-5.1462187779366024e+00
-5.1473011670069244e+00
-5.1483833285172533e+00
-5.1494652626110549e+00
-5.1505469694316428e+00
-5.1516284491221835e+00
-5.1527097018256880e+00
-5.1537907276850232e+00
-5.1548715268429017e+00
-5.1559520994418877e+00
-5.1570324456243979e+00
-5.1581125655326971e+00
-5.1591924593089029e+00
-5.1602721270949843e+00
-5.1613515690327603e+00
-5.1624307852639033e+00
-5.1635097759299375e+00
-5.1645885411722370e+00
-5.1656670811320309e+00
-5.1667453959504011e+00
-5.1678234857682792e+00
-5.1689013507264532e+00
-5.1699789909655633e+00
-5.1710564066261018e+00
-5.1721335978484149e+00
-5.1732105647727060e+00
-5.1742873075390277e+00
-5.1753638262872910e+00
-5.1764401211572579e+00
-5.1775161922885493e+00
-5.1785920398206366e+00
-5.1796676638928494e+00
-5.1807430646443722e+00
-5.1818182422142423e+00
-5.1828931967413574e+00
-5.1839679283644671e+00
-5.1850424372221813e+00
-5.1861167234529617e+00
-5.1871907871951288e+00
-5.1882646285868619e+00
-5.1893382477661945e+00
-5.1904116448710180e+00
-5.1914848200390802e+00
-5.1925577734079909e+00
-5.1936305051152134e+00
-5.1947030152980682e+00
-5.1957753040937398e+00
-5.1968473716392651e+00
-5.1979192180715428e+00
-5.1989908435273309e+00
-5.2000622481432437e+00
-5.2011334320557587e+00
-5.2022043954012087e+00
-5.2032751383157905e+00
-5.2043456609355561e+00
-5.2054159633964217e+00
-5.2064860458341613e+00
-5.2075559083844114e+00
-5.2086255511826662e+00
-5.2096949743642842e+00
-5.2107641780644824e+00
-5.2118331624183414e+00
-5.2129019275608011e+00
-5.2139704736266639e+00
-5.2150388007505954e+00
-5.2161069090671210e+00
-5.2171747987106292e+00
-5.2182424698153733e+00
-5.2193099225154649e+00
-5.2203771569448820e+00
-5.2214441732374652e+00
-5.2225109715269165e+00
-5.2235775519468044e+00
-5.2246439146305574e+00
-5.2257100597114707e+00
-5.2267759873227018e+00
-5.2278416975972739e+00
-5.2289071906680746e+00
-5.2299724666678546e+00
-5.2310375257292305e+00
-5.2321023679846839e+00
-5.2331669935665612e+00
-5.2342314026070742e+00
-5.2352955952383020e+00
-5.2363595715921871e+00
-5.2374233318005388e+00
-5.2384868759950329e+00
-5.2395502043072124e+00
-5.2406133168684841e+00
-5.2416762138101243e+00
-5.2427388952632743e+00
-5.2438013613589458e+00
-5.2448636122280128e+00
-5.2459256480012204e+00
-5.2469874688091798e+00
-5.2480490747823723e+00
-5.2491104660511443e+00
-5.2501716427457117e+00
-5.2512326049961588e+00
-5.2522933529324405e+00
-5.2533538866843754e+00
-5.2544142063816581e+00
-5.2554743121538445e+00
-5.2565342041303671e+00
-5.2575938824405242e+00
-5.2586533472134827e+00
-5.2597125985782833e+00
-5.2607716366638320e+00
-5.2618304615989109e+00
-5.2628890735121656e+00
-5.2639474725321200e+00
-5.2650056587871621e+00
-5.2660636324055545e+00
-5.2671213935154304e+00
-5.2681789422447931e+00
-5.2692362787215208e+00
-5.2702934030733593e+00
-5.2713503154279273e+00
-5.2724070159127185e+00
-5.2734635046550951e+00
-5.2745197817822946e+00
-5.2755758474214254e+00
-5.2766317016994693e+00
-5.2776873447432813e+00
-5.2787427766795876e+00
-5.2797979976349927e+00
-5.2808530077359679e+00
-5.2819078071088637e+00
-5.2829623958799017e+00
-5.2840167741751776e+00
-5.2850709421206634e+00
-5.2861248998422035e+00
-5.2871786474655167e+00
-5.2882321851161977e+00
-5.2892855129197160e+00
-5.2903386310014149e+00
-5.2913915394865150e+00
-5.2924442385001100e+00
-5.2934967281671730e+00
-5.2945490086125480e+00
-5.2956010799609565e+00
-5.2966529423369995e+00
-5.2977045958651505e+00
-5.2987560406697618e+00
-5.2998072768750593e+00
-5.3008583046051498e+00
-5.3019091239840135e+00
-5.3029597351355093e+00
-5.3040101381833740e+00
-5.3050603332512214e+00
-5.3061103204625422e+00
-5.3071600999407069e+00
-5.3082096718089611e+00
-5.3092590361904302e+00
-5.3103081932081198e+00
-5.3113571429849102e+00
-5.3124058856435639e+00
-5.3134544213067194e+00
-5.3145027500968958e+00
-5.3155508721364910e+00
-5.3165987875477834e+00
-5.3176464964529284e+00
-5.3186939989739628e+00
-5.3197412952328040e+00
-5.3207883853512481e+00
-5.3218352694509701e+00
-5.3228819476535296e+00
-5.3239284200803620e+00
-5.3249746868527854e+00
-5.3260207480919997e+00
-5.3270666039190848e+00
-5.3281122544550010e+00
-5.3291576998205921e+00
-5.3302029401365809e+00
-5.3312479755235724e+00
-5.3322928061020560e+00
-5.3333374319924003e+00
-5.3343818533148557e+00
-5.3354260701895564e+00
-5.3364700827365201e+00
-5.3375138910756448e+00
-5.3385574953267119e+00
-5.3396008956093857e+00
-5.3406440920432159e+00
-5.3416870847476314e+00
-5.3427298738419475e+00
-5.3437724594453622e+00
-5.3448148416769579e+00
-5.3458570206556990e+00
-5.3468989965004363e+00
-5.3479407693299033e+00
-5.3489823392627187e+00
-5.3500237064173852e+00
-5.3510648709122899e+00
-5.3521058328657043e+00
-5.3531465923957890e+00
-5.3541871496205831e+00
-5.3552275046580178e+00
-5.3562676576259038e+00
-5.3573076086419409e+00
-5.3583473578237140e+00
-5.3593869052886935e+00
-5.3604262511542364e+00
-5.3614653955375857e+00
-5.3625043385558726e+00
-5.3635430803261110e+00
-5.3645816209652031e+00
-5.3656199605899397e+00
-5.3666580993169983e+00
-5.3676960372629408e+00
-5.3687337745442205e+00
-5.3697713112771730e+00
-5.3708086475780270e+00
-5.3718457835628959e+00
-5.3728827193477819e+00
-5.3739194550485729e+00
-5.3749559907810500e+00
-5.3759923266608780e+00
-5.3770284628036134e+00
-5.3780643993246988e+00
-5.3791001363394679e+00
-5.3801356739631414e+00
-5.3811710123108316e+00
-5.3822061514975363e+00
-5.3832410916381468e+00
-5.3842758328474414e+00
-5.3853103752400893e+00
-5.3863447189306495e+00
-5.3873788640335709e+00
-5.3884128106631914e+00
-5.3894465589337406e+00
-5.3904801089593386e+00
-5.3915134608539956e+00
-5.3925466147316117e+00
-5.3935795707059810e+00
-5.3946123288907852e+00
-5.3956448893995992e+00
-5.3966772523458868e+00
-5.3977094178430072e+00
-5.3987413860042084e+00
-5.3997731569426310e+00
-5.4008047307713074e+00
-5.4018361076031614e+00
-5.4028672875510111e+00
-5.4038982707275656e+00
-5.4049290572454245e+00
-5.4059596472170846e+00
-5.4069900407549305e+00
-5.4080202379712441e+00
-5.4090502389781978e+00
-5.4100800438878576e+00
-5.4111096528121827e+00
-5.4121390658630286e+00
-5.4131682831521397e+00
-5.4141973047911565e+00
-5.4152261308916154e+00
-5.4162547615649421e+00
-5.4172831969224626e+00
-5.4183114370753929e+00
-5.4193394821348431e+00
-5.4203673322118213e+00
-5.4213949874172274e+00
-5.4224224478618588e+00
-5.4234497136564039e+00
-5.4244767849114517e+00
-5.4255036617374817e+00
-5.4265303442448714e+00
-5.4275568325438943e+00
-5.4285831267447175e+00
-5.4296092269574068e+00
-5.4306351332919203e+00
-5.4316608458581150e+00
-5.4326863647657442e+00
-5.4337116901244569e+00
-5.4347368220437984e+00
-5.4357617606332118e+00
-5.4367865060020355e+00
-5.4378110582595056e+00
-5.4388354175147562e+00
-5.4398595838768173e+00
-5.4408835574546162e+00
-5.4419073383569794e+00
-5.4429309266926307e+00
-5.4439543225701881e+00
-5.4449775260981736e+00
-5.4460005373850011e+00
-5.4470233565389892e+00
-5.4480459836683481e+00
-5.4490684188811906e+00
-5.4500906622855281e+00
-5.4511127139892688e+00
-5.4521345741002207e+00
-5.4531562427260916e+00
-5.4541777199744867e+00
-5.4551990059529123e+00
-5.4562201007687712e+00
-5.4572410045293704e+00
-5.4582617173419115e+00
-5.4592822393134997e+00
-5.4603025705511374e+00
-5.4613227111617304e+00
-5.4623426612520802e+00
-5.4633624209288918e+00
-5.4643819902987705e+00
-5.4654013694682195e+00
-5.4664205585436472e+00
-5.4674395576313586e+00
-5.4684583668375613e+00
-5.4694769862683650e+00
-5.4704954160297783e+00
-5.4715136562277138e+00
-5.4725317069679829e+00
-5.4735495683563018e+00
-5.4745672404982848e+00
-5.4755847234994492e+00
-5.4766020174652175e+00
-5.4776191225009088e+00
-5.4786360387117501e+00
-5.4796527662028662e+00
-5.4806693050792861e+00
-5.4816856554459434e+00
-5.4827018174076692e+00
-5.4837177910692034e+00
-5.4847335765351852e+00
-5.4857491739101594e+00
-5.4867645832985712e+00
-5.4877798048047710e+00
-5.4887948385330123e+00
-5.4898096845874518e+00
-5.4908243430721519e+00
-5.4918388140910759e+00
-5.4928530977480925e+00
-5.4938671941469757e+00
-5.4948811033914016e+00
-5.4958948255849522e+00
-5.4969083608311138e+00
-5.4979217092332755e+00
-5.4989348708947343e+00
-5.4999478459186895e+00
-5.5009606344082469e+00
-5.5019732364664158e+00
-5.5029856521961120e+00
-5.5039978817001574e+00
-5.5050099250812767e+00
-5.5060217824421018e+00
-5.5070334538851720e+00
-5.5080449395129296e+00
-5.5090562394277240e+00
-5.5100673537318112e+00
-5.5110782825273530e+00
-5.5120890259164153e+00
-5.5130995840009751e+00
-5.5141099568829119e+00
-5.5151201446640137e+00
-5.5161301474459759e+00
-5.5171399653303972e+00
-5.5181495984187894e+00
-5.5191590468125664e+00
-5.5201683106130508e+00
-5.5211773899214727e+00
-5.5221862848389698e+00
-5.5231949954665893e+00
-5.5242035219052816e+00
-5.5252118642559100e+00
-5.5262200226192411e+00
-5.5272279970959541e+00
-5.5282357877866337e+00
-5.5292433947917727e+00
-5.5302508182117744e+00
-5.5312580581469470e+00
-5.5322651146975135e+00
-5.5332719879635981e+00
-5.5342786780452409e+00
-5.5352851850423859e+00
-5.5362915090548892e+00
-5.5372976501825164e+00
-5.5383036085249380e+00
-5.5393093841817409e+00
-5.5403149772524172e+00
-5.5413203878363673e+00
-5.5423256160329064e+00
-5.5433306619412557e+00
-5.5443355256605482e+00
-5.5453402072898266e+00
-5.5463447069280427e+00
-5.5473490246740615e+00
-5.5483531606266565e+00
-5.5493571148845122e+00
-5.5503608875462236e+00
-5.5513644787102967e+00
-5.5523678884751497e+00
-5.5533711169391102e+00
-5.5543741642004170e+00
-5.5553770303572225e+00
-5.5563797155075871e+00
-5.5573822197494849e+00
-5.5583845431808037e+00
-5.5593866858993373e+00
-5.5603886480027951e+00
-5.5613904295888004e+00
-5.5623920307548840e+00
-5.5633934515984924e+00
-5.5643946922169834e+00
-5.5653957527076257e+00
-5.5663966331676029e+00
-5.5673973336940099e+00
-5.5683978543838553e+00
-5.5693981953340579e+00
-5.5703983566414532e+00
-5.5713983384027888e+00
-5.5723981407147223e+00
-5.5733977636738290e+00
-5.5743972073765953e+00
-5.5753964719194213e+00
-5.5763955573986212e+00
-5.5773944639104220e+00
-5.5783931915509664e+00
-5.5793917404163080e+00
-5.5803901106024174e+00
-5.5813883022051787e+00
-5.5823863153203890e+00
-5.5833841500437620e+00
-5.5843818064709225e+00
-5.5853792846974137e+00
-5.5863765848186899e+00
-5.5873737069301246e+00
-5.5883706511270015e+00
-5.5893674175045218e+00
-5.5903640061578024e+00
-5.5913604171818738e+00
-5.5923566506716833e+00
-5.5933527067220918e+00
-5.5943485854278778e+00
-5.5953442868837344e+00
-5.5963398111842695e+00
-5.5973351584240092e+00
-5.5983303286973944e+00
-5.5993253220987818e+00
-5.6003201387224433e+00
-5.6013147786625703e+00
-5.6023092420132663e+00
-5.6033035288685555e+00
-5.6042976393223753e+00
-5.6052915734685822e+00
-5.6062853314009482e+00
-5.6072789132131629e+00
-5.6082723189988313e+00
-5.6092655488514778e+00
-5.6102586028645431e+00
-5.6112514811313847e+00
-5.6122441837452790e+00
-5.6132367107994172e+00
-5.6142290623869107e+00
-5.6152212386007863e+00
-5.6162132395339919e+00
-5.6172050652793901e+00
-5.6181967159297637e+00
-5.6191881915778126e+00
-5.6201794923161552e+00
-5.6211706182373273e+00
-5.6221615694337856e+00
-5.6231523459979016e+00
-5.6241429480219702e+00
-5.6251333755981996e+00
-5.6261236288187222e+00
-5.6271137077755844e+00
-5.6281036125607562e+00
-5.6290933432661232e+00
-5.6300828999834920e+00
-5.6310722828045883e+00
-5.6320614918210561e+00
-5.6330505271244604e+00
-5.6340393888062863e+00
-5.6350280769579362e+00
-5.6360165916707343e+00
-5.6370049330359242e+00
-5.6379931011446702e+00
-5.6389810960880542e+00
-5.6399689179570824e+00
-5.6409565668426778e+00
-5.6419440428356848e+00
-5.6429313460268702e+00
-5.6439184765069168e+00
-5.6449054343664349e+00
-5.6458922196959493e+00
-5.6468788325859087e+00
-5.6478652731266834e+00
-5.6488515414085620e+00
-5.6498376375217578e+00
-5.6508235615564022e+00
-5.6518093136025502e+00
-5.6527948937501762e+00
-5.6537803020891797e+00
-5.6547655387093787e+00
-5.6557506037005121e+00
-5.6567354971522441e+00
-5.6577202191541600e+00
-5.6587047697957651e+00
-5.6596891491664891e+00
-5.6606733573556802e+00
-5.6616573944526154e+00
-5.6626412605464882e+00
-5.6636249557264184e+00
-5.6646084800814442e+00
-5.6655918337005327e+00
-5.6665750166725672e+00
-5.6675580290863588e+00
-5.6685408710306397e+00
-5.6695235425940638e+00
-5.6705060438652115e+00
-5.6714883749325828e+00
-5.6724705358846048e+00
-5.6734525268096254e+00
-5.6744343477959172e+00
-5.6754159989316744e+00
-5.6763974803050186e+00
-5.6773787920039922e+00
-5.6783599341165623e+00
-5.6793409067306211e+00
-5.6803217099339847e+00
-5.6813023438143899e+00
-5.6822828084595045e+00
-5.6832631039569144e+00
-5.6842432303941326e+00
-5.6852231878585968e+00
-5.6862029764376700e+00
-5.6871825962186371e+00
-5.6881620472887109e+00
-5.6891413297350288e+00
-5.6901204436446502e+00
-5.6910993891045640e+00
-5.6920781662016804e+00
-5.6930567750228374e+00
-5.6940352156547975e+00
-5.6950134881842480e+00
-5.6959915926978040e+00
-5.6969695292820033e+00
-5.6979472980233110e+00
-5.6989248990081194e+00
-5.6999023323227433e+00
-5.7008795980534268e+00
-5.7018566962863373e+00
-5.7028336271075704e+00
-5.7038103906031470e+00
-5.7047869868590162e+00
-5.7057634159610506e+00
-5.7067396779950519e+00
-5.7077157730467460e+00
-5.7086917012017873e+00
-5.7096674625457569e+00
-5.7106430571641624e+00
-5.7116184851424370e+00
-5.7125937465659442e+00
-5.7135688415199732e+00
-5.7145437700897368e+00
-5.7155185323603819e+00
-5.7164931284169764e+00
-5.7174675583445218e+00
-5.7184418222279412e+00
-5.7194159201520884e+00
-5.7203898522017447e+00
-5.7213636184616208e+00
-5.7223372190163522e+00
-5.7233106539505032e+00
-5.7242839233485681e+00
-5.7252570272949690e+00
-5.7262299658740545e+00
-5.7272027391701021e+00
-5.7281753472673183e+00
-5.7291477902498382e+00
-5.7301200682017264e+00
-5.7310921812069724e+00
-5.7320641293495003e+00
-5.7330359127131576e+00
-5.7340075313817245e+00
-5.7349789854389073e+00
-5.7359502749683449e+00
-5.7369214000536015e+00
-5.7378923607781731e+00
-5.7388631572254853e+00
-5.7398337894788911e+00
-5.7408042576216749e+00
-5.7417745617370510e+00
-5.7427447019081601e+00
-5.7437146782180779e+00
-5.7446844907498038e+00
-5.7456541395862732e+00
-5.7466236248103479e+00
-5.7475929465048212e+00
-5.7485621047524145e+00
-5.7495310996357833e+00
-5.7504999312375098e+00
-5.7514685996401083e+00
-5.7524371049260239e+00
-5.7534054471776317e+00
-5.7543736264772374e+00
-5.7553416429070774e+00
-5.7563094965493189e+00
-5.7572771874860624e+00
-5.7582447157993357e+00
-5.7592120815710990e+00
-5.7601792848832458e+00
-5.7611463258175979e+00
-5.7621132044559102e+00
-5.7630799208798669e+00
-5.7640464751710878e+00
-5.7650128674111203e+00
-5.7659790976814449e+00
-5.7669451660634747e+00
-5.7679110726385527e+00
-5.7688768174879561e+00
-5.7698424006928919e+00
-5.7708078223345005e+00
-5.7717730824938540e+00
-5.7727381812519569e+00
-5.7737031186897454e+00
-5.7746678948880898e+00
-5.7756325099277896e+00
-5.7765969638895820e+00
-5.7775612568541304e+00
-5.7785253889020360e+00
-5.7794893601138302e+00
-5.7804531705699782e+00
-5.7814168203508780e+00
-5.7823803095368609e+00
-5.7833436382081906e+00
-5.7843068064450636e+00
-5.7852698143276120e+00
-5.7862326619358972e+00
-5.7871953493499193e+00
-5.7881578766496062e+00
-5.7891202439148230e+00
-5.7900824512253681e+00
-5.7910444986609724e+00
-5.7920063863013009e+00
-5.7929681142259541e+00
-5.7939296825144631e+00
-5.7948910912462965e+00
-5.7958523405008542e+00
-5.7968134303574743e+00
-5.7977743608954224e+00
-5.7987351321939062e+00
-5.7996957443320607e+00
-5.8006561973889612e+00
-5.8016164914436139e+00
-5.8025766265749610e+00
-5.8035366028618789e+00
-5.8044964203831793e+00
-5.8054560792176089e+00
-5.8064155794438479e+00
-5.8073749211405135e+00
-5.8083341043861560e+00
-5.8092931292592622e+00
-5.8102519958382546e+00
-5.8112107042014891e+00
-5.8121692544272578e+00
-5.8131276465937898e+00
-5.8140858807792473e+00
-5.8150439570617296e+00
-5.8160018755192722e+00
-5.8169596362298437e+00
-5.8179172392713516e+00
-5.8188746847216359e+00
-5.8198319726584780e+00
-5.8207891031595898e+00
-5.8217460763026212e+00
-5.8227028921651591e+00
-5.8236595508247264e+00
-5.8246160523587820e+00
-5.8255723968447208e+00
-5.8265285843598758e+00
-5.8274846149815129e+00
-5.8284404887868400e+00
-5.8293962058529978e+00
-5.8303517662570643e+00
-5.8313071700760553e+00
-5.8322624173869233e+00
-5.8332175082665572e+00
-5.8341724427917843e+00
-5.8351272210393663e+00
-5.8360818430860055e+00
-5.8370363090083384e+00
-5.8379906188829418e+00
-5.8389447727863271e+00
-5.8398987707949459e+00
-5.8408526129851852e+00
-5.8418062994333706e+00
-5.8427598302157655e+00
-5.8437132054085703e+00
-5.8446664250879232e+00
-5.8456194893299029e+00
-5.8465723982105224e+00
-5.8475251518057352e+00
-5.8484777501914316e+00
-5.8494301934434416e+00
-5.8503824816375314e+00
-5.8513346148494074e+00
-5.8522865931547150e+00
-5.8532384166290337e+00
-5.8541900853478870e+00
-5.8551415993867346e+00
-5.8560929588209740e+00
-5.8570441637259441e+00
-5.8579952141769187e+00
-5.8589461102491143e+00
-5.8598968520176848e+00
-5.8608474395577232e+00
-5.8617978729442619e+00
-5.8627481522522702e+00
-5.8636982775566615e+00
-5.8646482489322835e+00
-5.8655980664539271e+00
-5.8665477301963200e+00
-5.8674972402341314e+00
-5.8684465966419674e+00
-5.8693957994943764e+00
-5.8703448488658463e+00
-5.8712937448308038e+00
-5.8722424874636152e+00
-5.8731910768385882e+00
-5.8741395130299683e+00
-5.8750877961119450e+00
-5.8760359261586412e+00
-5.8769839032441284e+00
-5.8779317274424123e+00
-5.8788793988274399e+00
-5.8798269174731015e+00
-5.8807742834532233e+00
-5.8817214968415774e+00
-5.8826685577118711e+00
-5.8836154661377567e+00
-5.8845622221928249e+00
-5.8855088259506081e+00
-5.8864552774845791e+00
-5.8874015768681511e+00
-5.8883477241746798e+00
-5.8892937194774628e+00
-5.8902395628497342e+00
-5.8911852543646743e+00
-5.8921307940954026e+00
-5.8930761821149797e+00
-5.8940214184964077e+00
-5.8949665033126317e+00
-5.8959114366365357e+00
-5.8968562185409477e+00
-5.8978008490986360e+00
-5.8987453283823106e+00
-5.8996896564646253e+00
-5.9006338334181709e+00
-5.9015778593154877e+00
-5.9025217342290501e+00
-5.9034654582312802e+00
-5.9044090313945397e+00
-5.9053524537911333e+00
-5.9062957254933064e+00
-5.9072388465732493e+00
-5.9081818171030918e+00
-5.9091246371549095e+00
-5.9100673068007170e+00
-5.9110098261124744e+00
-5.9119521951620833e+00
-5.9128944140213866e+00
-5.9138364827621723e+00
-5.9147784014561697e+00
-5.9157201701750521e+00
-5.9166617889904352e+00
-5.9176032579738767e+00
-5.9185445771968794e+00
-5.9194857467308877e+00
-5.9204267666472896e+00
-5.9213676370174166e+00
-5.9223083579125442e+00
-5.9232489294038881e+00
-5.9241893515626138e+00
-5.9251296244598235e+00
-5.9260697481665661e+00
-5.9270097227538354e+00
-5.9279495482925668e+00
-5.9288892248536396e+00
-5.9298287525078779e+00
-5.9307681313260492e+00
-5.9317073613788658e+00
-5.9326464427369823e+00
-5.9335853754709991e+00
-5.9345241596514597e+00
-5.9354627953488519e+00
-5.9364012826336090e+00
-5.9373396215761058e+00
-5.9382778122466657e+00
-5.9392158547155525e+00
-5.9401537490529766e+00
-5.9410914953290925e+00
-5.9420290936140008e+00
-5.9429665439777439e+00
-5.9439038464903104e+00
-5.9448410012216355e+00
-5.9457780082415965e+00
-5.9467148676200159e+00
-5.9476515794266644e+00
-5.9485881437312536e+00
-5.9495245606034430e+00
-5.9504608301128350e+00
-5.9513969523289800e+00
-5.9523329273213728e+00
-5.9532687551594519e+00
-5.9542044359126027e+00
-5.9551399696501557e+00
-5.9560753564413877e+00
-5.9570105963555200e+00
-5.9579456894617202e+00
-5.9588806358291020e+00
-5.9598154355267230e+00
-5.9607500886235893e+00
-5.9616845951886512e+00
-5.9626189552908055e+00
-5.9635531689988959e+00
-5.9644872363817090e+00
-5.9654211575079801e+00
-5.9663549324463929e+00
-5.9672885612655726e+00
-5.9682220440340936e+00
-5.9691553808204754e+00
-5.9700885716931857e+00
-5.9710216167206376e+00
-5.9719545159711886e+00
-5.9728872695131470e+00
-5.9738198774147664e+00
-5.9747523397442430e+00
-5.9756846565697277e+00
-5.9766168279593099e+00
-5.9775488539810313e+00
-5.9784807347028801e+00
-5.9794124701927904e+00
-5.9803440605186413e+00
-5.9812755057482621e+00
-5.9822068059494287e+00
-5.9831379611898656e+00
-5.9840689715372406e+00
-5.9849998370591715e+00
-5.9859305578232229e+00
-5.9868611338969107e+00
-5.9877915653476901e+00
-5.9887218522429722e+00
-5.9896519946501101e+00
-5.9905819926364057e+00
-5.9915118462691144e+00
-5.9924415556154296e+00
-5.9933711207425002e+00
-5.9943005417174202e+00
-5.9952298186072319e+00
-5.9961589514789262e+00
-5.9970879403994406e+00
-5.9980167854356621e+00
-5.9989454866544234e+00
-5.9998740441225129e+00
-6.0008024579066577e+00
-6.0017307280735386e+00
-6.0026588546897841e+00
-6.0035868378219712e+00
-6.0045146775366254e+00
-6.0054423739002205e+00
-6.0063699269791782e+00
-6.0072973368398692e+00
-6.0082246035486175e+00
-6.0091517271716883e+00
-6.0100787077753015e+00
-6.0110055454256228e+00
-6.0119322401887665e+00
-6.0128587921308014e+00
-6.0137852013177362e+00
-6.0147114678155393e+00
-6.0156375916901199e+00
-6.0165635730073399e+00
-6.0174894118330107e+00
-6.0184151082328921e+00
-6.0193406622726950e+00
-6.0202660740180773e+00
-6.0211913435346469e+00
-6.0221164708879655e+00
-6.0230414561435381e+00
-6.0239662993668235e+00
-6.0248910006232279e+00
-6.0258155599781098e+00
-6.0267399774967760e+00
-6.0276642532444846e+00
-6.0285883872864421e+00
-6.0295123796878034e+00
-6.0304362305136792e+00
-6.0313599398291240e+00
-6.0322835076991463e+00
-6.0332069341887049e+00
-6.0341302193627060e+00
-6.0350533632860071e+00
-6.0359763660234211e+00
-6.0368992276397035e+00
-6.0378219481995661e+00
-6.0387445277676663e+00
-6.0396669664086184e+00
-6.0405892641869832e+00
-6.0415114211672707e+00
-6.0424334374139468e+00
-6.0433553129914230e+00
-6.0442770479640666e+00
-6.0451986423961914e+00
-6.0461200963520652e+00
-6.0470414098959049e+00
-6.0479625830918797e+00
-6.0488836160041082e+00
-6.0498045086966643e+00
-6.0507252612335680e+00
-6.0516458736787939e+00
-6.0525663460962669e+00
-6.0534866785498647e+00
-6.0544068711034127e+00
-6.0553269238206919e+00
-6.0562468367654327e+00
-6.0571666100013166e+00
-6.0580862435919807e+00
-6.0590057376010087e+00
-6.0599250920919383e+00
-6.0608443071282583e+00
-6.0617633827734130e+00
-6.0626823190907935e+00
-6.0636011161437446e+00
-6.0645197739955652e+00
-6.0654382927095014e+00
-6.0663566723487587e+00
-6.0672749129764876e+00
-6.0681930146557956e+00
-6.0691109774497409e+00
-6.0700288014213308e+00
-6.0709464866335319e+00
-6.0718640331492582e+00
-6.0727814410313758e+00
-6.0736987103427067e+00
-6.0746158411460236e+00
-6.0755328335040506e+00
-6.0764496874794656e+00
-6.0773664031349020e+00
-6.0782829805329390e+00
-6.0791994197361161e+00
-6.0801157208069228e+00
-6.0810318838077988e+00
-6.0819479088011414e+00
-6.0828637958492964e+00
-6.0837795450145684e+00
-6.0846951563592082e+00
-6.0856106299454247e+00
-6.0865259658353796e+00
-6.0874411640911852e+00
-6.0883562247749090e+00
-6.0892711479485735e+00
-6.0901859336741504e+00
-6.0911005820135680e+00
-6.0920150930287065e+00
-6.0929294667814036e+00
-6.0938437033334436e+00
-6.0947578027465710e+00
-6.0956717650824794e+00
-6.0965855904028192e+00
-6.0974992787691944e+00
-6.0984128302431602e+00
-6.0993262448862273e+00
-6.1002395227598631e+00
-6.1011526639254834e+00
-6.1020656684444621e+00
-6.1029785363781270e+00
-6.1038912677877590e+00
-6.1048038627345926e+00
-6.1057163212798171e+00
-6.1066286434845782e+00
-6.1075408294099711e+00
-6.1084528791170509e+00
-6.1093647926668231e+00
-6.1102765701202486e+00
-6.1111882115382459e+00
-6.1120997169816835e+00
-6.1130110865113858e+00
-6.1139223201881334e+00
-6.1148334180726627e+00
-6.1157443802256601e+00
-6.1166552067077715e+00
-6.1175658975795955e+00
-6.1184764529016844e+00
-6.1193868727345500e+00
-6.1202971571386531e+00
-6.1212073061744139e+00
-6.1221173199022045e+00
-6.1230271983823581e+00
-6.1239369416751552e+00
-6.1248465498408375e+00
-6.1257560229395969e+00
-6.1266653610315860e+00
-6.1275745641769097e+00
-6.1284836324356275e+00
-6.1293925658677582e+00
-6.1303013645332696e+00
-6.1312100284920934e+00
-6.1321185578041106e+00
-6.1330269525291596e+00
-6.1339352127270352e+00
-6.1348433384574861e+00
-6.1357513297802209e+00
-6.1366591867548985e+00
-6.1375669094411371e+00
-6.1384744978985113e+00
-6.1393819521865485e+00
-6.1402892723647371e+00
-6.1411964584925167e+00
-6.1421035106292834e+00
-6.1430104288343932e+00
-6.1439172131671542e+00
-6.1448238636868355e+00
-6.1457303804526555e+00
-6.1466367635237971e+00
-6.1475430129593924e+00
-6.1484491288185330e+00
-6.1493551111602693e+00
-6.1502609600436040e+00
-6.1511666755274987e+00
-6.1520722576708717e+00
-6.1529777065325941e+00
-6.1538830221715015e+00
-6.1547882046463789e+00
-6.1556932540159721e+00
-6.1565981703389818e+00
-6.1575029536740642e+00
-6.1584076040798390e+00
-6.1593121216148754e+00
-6.1602165063377017e+00
-6.1611207583068044e+00
-6.1620248775806283e+00
-6.1629288642175730e+00
-6.1638327182759962e+00
-6.1647364398142113e+00
-6.1656400288904925e+00
-6.1665434855630652e+00
-6.1674468098901221e+00
-6.1683500019298014e+00
-6.1692530617402079e+00
-6.1701559893793991e+00
-6.1710587849053917e+00
-6.1719614483761607e+00
-6.1728639798496383e+00
-6.1737663793837116e+00
-6.1746686470362278e+00
-6.1755707828649919e+00
-6.1764727869277696e+00
-6.1773746592822771e+00
-6.1782763999861947e+00
-6.1791780090971580e+00
-6.1800794866727617e+00
-6.1809808327705573e+00
-6.1818820474480551e+00
-6.1827831307627230e+00
-6.1836840827719879e+00
-6.1845849035332359e+00
-6.1854855931038060e+00
-6.1863861515410026e+00
-6.1872865789020812e+00
-6.1881868752442655e+00
-6.1890870406247256e+00
-6.1899870751005990e+00
-6.1908869787289786e+00
-6.1917867515669140e+00
-6.1926863936714174e+00
-6.1935859050994564e+00
-6.1944852859079580e+00
-6.1953845361538091e+00
-6.1962836558938523e+00
-6.1971826451848928e+00
-6.1980815040836923e+00
-6.1989802326469734e+00
-6.1998788309314135e+00
-6.2007772989936516e+00
-6.2016756368902870e+00
-6.2025738446778780e+00
-6.2034719224129367e+00
-6.2043698701519387e+00
-6.2052676879513209e+00
-6.2061653758674762e+00
-6.2070629339567542e+00
-6.2079603622754691e+00
-6.2088576608798913e+00
-6.2097548298262515e+00
-6.2106518691707402e+00
-6.2115487789695054e+00
-6.2124455592786560e+00
-6.2133422101542619e+00
-6.2142387316523493e+00
-6.2151351238289054e+00
-6.2160313867398775e+00
-6.2169275204411720e+00
-6.2178235249886571e+00
-6.2187194004381574e+00
-6.2196151468454595e+00
-6.2205107642663080e+00
-6.2214062527564105e+00
-6.2223016123714308e+00
-6.2231968431669937e+00
-6.2240919451986878e+00
-6.2249869185220579e+00
-6.2258817631926062e+00
-6.2267764792658031e+00
-6.2276710667970709e+00
-6.2285655258417982e+00
-6.2294598564553301e+00
-6.2303540586929733e+00
-6.2312481326099958e+00
-6.2321420782616226e+00
-6.2330358957030443e+00
-6.2339295849894070e+00
-6.2348231461758186e+00
-6.2357165793173506e+00
-6.2366098844690310e+00
-6.2375030616858513e+00
-6.2383961110227615e+00
-6.2392890325346730e+00
-6.2401818262764595e+00
-6.2410744923029524e+00
-6.2419670306689472e+00
-6.2428594414291965e+00
-6.2437517246384155e+00
-6.2446438803512834e+00
-6.2455359086224362e+00
-6.2464278095064731e+00
-6.2473195830579504e+00
-6.2482112293313925e+00
-6.2491027483812793e+00
-6.2499941402620536e+00
-6.2508854050281188e+00
-6.2517765427338405e+00
-6.2526675534335459e+00
-6.2535584371815212e+00
-6.2544491940320164e+00
-6.2553398240392406e+00
-6.2562303272573665e+00
-6.2571207037405285e+00
-6.2580109535428203e+00
-6.2589010767182982e+00
-6.2597910733209785e+00
-6.2606809434048420e+00
-6.2615706870238315e+00
-6.2624603042318476e+00
-6.2633497950827550e+00
-6.2642391596303808e+00
-6.2651283979285122e+00
-6.2660175100308981e+00
-6.2669064959912530e+00
-6.2677953558632495e+00
-6.2686840897005212e+00
-6.2695726975566686e+00
-6.2704611794852498e+00
-6.2713495355397866e+00
-6.2722377657737631e+00
-6.2731258702406230e+00
-6.2740138489937785e+00
-6.2749017020865976e+00
-6.2757894295724128e+00
-6.2766770315045184e+00
-6.2775645079361722e+00
-6.2784518589205938e+00
-6.2793390845109656e+00
-6.2802261847604299e+00
-6.2811131597220964e+00
-6.2820000094490318e+00
-6.2828867339942693e+00
-6.2837733334108039e+00
-6.2846598077515923e+00
-6.2855461570695521e+00
-6.2864323814175682e+00
-6.2873184808484854e+00
-6.2882044554151122e+00
-6.2890903051702161e+00
-6.2899760301665326e+00
-6.2908616304567611e+00
-6.2917471060935561e+00
-6.2926324571295424e+00
-6.2935176836173055e+00
-6.2944027856093916e+00
-6.2952877631583144e+00
-6.2961726163165475e+00
-6.2970573451365288e+00
-6.2979419496706583e+00
-6.2988264299713004e+00
-6.2997107860907819e+00
-6.3005950180813945e+00
-6.3014791259953915e+00
-6.3023631098849888e+00
-6.3032469698023679e+00
-6.3041307057996727e+00
-6.3050143179290101e+00
-6.3058978062424522e+00
-6.3067811707920320e+00
-6.3076644116297471e+00
-6.3085475288075612e+00
-6.3094305223773999e+00
-6.3103133923911487e+00
-6.3111961389006632e+00
-6.3120787619577579e+00
-6.3129612616142134e+00
-6.3138436379217744e+00
-6.3147258909321478e+00
-6.3156080206970060e+00
-6.3164900272679843e+00
-6.3173719106966821e+00
-6.3182536710346628e+00
-6.3191353083334549e+00
-6.3200168226445479e+00
-6.3208982140194001e+00
-6.3217794825094282e+00
-6.3226606281660187e+00
-6.3235416510405207e+00
-6.3244225511842433e+00
-6.3253033286484657e+00
-6.3261839834844285e+00
-6.3270645157433361e+00
-6.3279449254763591e+00
-6.3288252127346301e+00
-6.3297053775692502e+00
-6.3305854200312810e+00
-6.3314653401717500e+00
-6.3323451380416511e+00
-6.3332248136919373e+00
-6.3341043671735324e+00
-6.3349837985373227e+00
-6.3358631078341583e+00
-6.3367422951148527e+00
-6.3376213604301892e+00
-6.3385003038309105e+00
-6.3393791253677279e+00
-6.3402578250913137e+00
-6.3411364030523094e+00
-6.3420148593013188e+00
-6.3428931938889113e+00
-6.3437714068656206e+00
-6.3446494982819477e+00
-6.3455274681883536e+00
-6.3464053166352716e+00
-6.3472830436730963e+00
-6.3481606493521845e+00
-6.3490381337228623e+00
-6.3499154968354201e+00
-6.3507927387401155e+00
-6.3516698594871670e+00
-6.3525468591267602e+00
-6.3534237377090488e+00
-6.3543004952841473e+00
-6.3551771319021393e+00
-6.3560536476130727e+00
-6.3569300424669608e+00
-6.3578063165137824e+00
-6.3586824698034805e+00
-6.3595585023859655e+00
-6.3604344143111149e+00
-6.3613102056287678e+00
-6.3621858763887325e+00
-6.3630614266407814e+00
-6.3639368564346519e+00
-6.3648121658200489e+00
-6.3656873548466422e+00
-6.3665624235640683e+00
-6.3674373720219295e+00
-6.3683122002697923e+00
-6.3691869083571904e+00
-6.3700614963336246e+00
-6.3709359642485586e+00
-6.3718103121514273e+00
-6.3726845400916252e+00
-6.3735586481185180e+00
-6.3744326362814361e+00
-6.3753065046296751e+00
-6.3761802532124978e+00
-6.3770538820791325e+00
-6.3779273912787753e+00
-6.3788007808605860e+00
-6.3796740508736942e+00
-6.3805472013671940e+00
-6.3814202323901421e+00
-6.3822931439915704e+00
-6.3831659362204700e+00
-6.3840386091258008e+00
-6.3849111627564907e+00
-6.3857835971614314e+00
-6.3866559123894833e+00
-6.3875281084894713e+00
-6.3884001855101893e+00
-6.3892721435003983e+00
-6.3901439825088238e+00
-6.3910157025841574e+00
-6.3918873037750599e+00
-6.3927587861301589e+00
-6.3936301496980485e+00
-6.3945013945272891e+00
-6.3953725206664078e+00
-6.3962435281638967e+00
-6.3971144170682210e+00
-6.3979851874278060e+00
-6.3988558392910511e+00
-6.3997263727063141e+00
-6.4005967877219279e+00
-6.4014670843861881e+00
-6.4023372627473600e+00
-6.4032073228536728e+00
-6.4040772647533259e+00
-6.4049470884944864e+00
-6.4058167941252844e+00
-6.4066863816938220e+00
-6.4075558512481674e+00
-6.4084252028363542e+00
-6.4092944365063866e+00
-6.4101635523062326e+00
-6.4110325502838323e+00
-6.4119014304870872e+00
-6.4127701929638725e+00
-6.4136388377620275e+00
-6.4145073649293600e+00
-6.4153757745136435e+00
-6.4162440665626237e+00
-6.4171122411240100e+00
-6.4179802982454826e+00
-6.4188482379746850e+00
-6.4197160603592325e+00
-6.4205837654467057e+00
-6.4214513532846569e+00
-6.4223188239206017e+00
-6.4231861774020249e+00
-6.4240534137763818e+00
-6.4249205330910923e+00
-6.4257875353935470e+00
-6.4266544207311025e+00
-6.4275211891510837e+00
-6.4283878407007862e+00
-6.4292543754274689e+00
-6.4301207933783644e+00
-6.4309870946006678e+00
-6.4318532791415493e+00
-6.4327193470481392e+00
-6.4335852983675430e+00
-6.4344511331468306e+00
-6.4353168514330417e+00
-6.4361824532731839e+00
-6.4370479387142350e+00
-6.4379133078031359e+00
-6.4387785605868029e+00
-6.4396436971121158e+00
-6.4405087174259261e+00
-6.4413736215750506e+00
-6.4422384096062792e+00
-6.4431030815663650e+00
-6.4439676375020332e+00
-6.4448320774599770e+00
-6.4456964014868570e+00
-6.4465606096293060e+00
-6.4474247019339206e+00
-6.4482886784472706e+00
-6.4491525392158939e+00
-6.4500162842862920e+00
-6.4508799137049433e+00
-6.4517434275182888e+00
-6.4526068257727429e+00
-6.4534701085146837e+00
-6.4543332757904643e+00
-6.4551963276464042e+00
-6.4560592641287897e+00
-6.4569220852838782e+00
-6.4577847911578976e+00
-6.4586473817970429e+00
-6.4595098572474798e+00
-6.4603722175553386e+00
-6.4612344627667273e+00
-6.4620965929277148e+00
-6.4629586080843451e+00
-6.4638205082826259e+00
-6.4646822935685417e+00
-6.4655439639880399e+00
-6.4664055195870374e+00
-6.4672669604114263e+00
-6.4681282865070626e+00
-6.4689894979197753e+00
-6.4698505946953597e+00
-6.4707115768795811e+00
-6.4715724445181779e+00
-6.4724331976568541e+00
-6.4732938363412851e+00
-6.4741543606171161e+00
-6.4750147705299606e+00
-6.4758750661254032e+00
-6.4767352474489996e+00
-6.4775953145462708e+00
-6.4784552674627109e+00
-6.4793151062437824e+00
-6.4801748309349216e+00
-6.4810344415815280e+00
-6.4818939382289749e+00
-6.4827533209226056e+00
-6.4836125897077332e+00
-6.4844717446296398e+00
-6.4853307857335780e+00
-6.4861897130647712e+00
-6.4870485266684099e+00
-6.4879072265896607e+00
-6.4887658128736536e+00
-6.4896242855654931e+00
-6.4904826447102515e+00
-6.4913408903529719e+00
-6.4921990225386708e+00
-6.4930570413123290e+00
-6.4939149467189026e+00
-6.4947727388033147e+00
-6.4956304176104611e+00
-6.4964879831852071e+00
-6.4973454355723872e+00
-6.4982027748168107e+00
-6.4990600009632500e+00
-6.4999171140564540e+00
-6.5007741141411399e+00
-6.5016310012619964e+00
-6.5024877754636812e+00
-6.5033444367908242e+00
-6.5042009852880245e+00
-6.5050574209998526e+00
-6.5059137439708490e+00
-6.5067699542455282e+00
-6.5076260518683684e+00
-6.5084820368838256e+00
-6.5093379093363231e+00
-6.5101936692702571e+00
-6.5110493167299897e+00
-6.5119048517598603e+00
-6.5127602744041759e+00
-6.5136155847072139e+00
-6.5144707827132251e+00
-6.5153258684664275e+00
-6.5161808420110114e+00
-6.5170357033911417e+00
-6.5178904526509518e+00
-6.5187450898345434e+00
-6.5195996149859941e+00
-6.5204540281493486e+00
-6.5213083293686251e+00
-6.5221625186878134e+00
-6.5230165961508719e+00
-6.5238705618017319e+00
-6.5247244156842967e+00
-6.5255781578424399e+00
-6.5264317883200063e+00
-6.5272853071608132e+00
-6.5281387144086462e+00
-6.5289920101072658e+00
-6.5298451943004023e+00
-6.5306982670317586e+00
-6.5315512283450063e+00
-6.5324040782837898e+00
-6.5332568168917282e+00
-6.5341094442124081e+00
-6.5349619602893894e+00
-6.5358143651662024e+00
-6.5366666588863493e+00
-6.5375188414933048e+00
-6.5383709130305174e+00
-6.5392228735414024e+00
-6.5400747230693481e+00
-6.5409264616577181e+00
-6.5417780893498447e+00
-6.5426296061890312e+00
-6.5434810122185576e+00
-6.5443323074816675e+00
-6.5451834920215850e+00
-6.5460345658815013e+00
-6.5468855291045811e+00
-6.5477363817339596e+00
-6.5485871238127444e+00
-6.5494377553840151e+00
-6.5502882764908259e+00
-6.5511386871761994e+00
-6.5519889874831332e+00
-6.5528391774545920e+00
-6.5536892571335219e+00
-6.5545392265628317e+00
-6.5553890857854071e+00
-6.5562388348441045e+00
-6.5570884737817519e+00
-6.5579380026411549e+00
-6.5587874214650848e+00
-6.5596367302962859e+00
-6.5604859291774797e+00
-6.5613350181513557e+00
-6.5621839972605756e+00
-6.5630328665477764e+00
-6.5638816260555677e+00
-6.5647302758265260e+00
-6.5655788159032076e+00
-6.5664272463281366e+00
-6.5672755671438106e+00
-6.5681237783927005e+00
-6.5689718801172496e+00
-6.5698198723598722e+00
-6.5706677551629591e+00
-6.5715155285688684e+00
-6.5723631926199371e+00
-6.5732107473584680e+00
-6.5740581928267430e+00
-6.5749055290670118e+00
-6.5757527561215010e+00
-6.5765998740324054e+00
-6.5774468828418975e+00
-6.5782937825921204e+00
-6.5791405733251889e+00
-6.5799872550831919e+00
-6.5808338279081928e+00
-6.5816802918422228e+00
-6.5825266469272936e+00
-6.5833728932053832e+00
-6.5842190307184474e+00
-6.5850650595084108e+00
-6.5859109796171751e+00
-6.5867567910866116e+00
-6.5876024939585687e+00
-6.5884480882748635e+00
-6.5892935740772876e+00
-6.5901389514076092e+00
-6.5909842203075657e+00
-6.5918293808188695e+00
-6.5926744329832045e+00
-6.5935193768422309e+00
-6.5943642124375801e+00
-6.5952089398108580e+00
-6.5960535590036411e+00
-6.5968980700574837e+00
-6.5977424730139091e+00
-6.5985867679144183e+00
-6.5994309548004813e+00
-6.6002750337135447e+00
-6.6011190046950281e+00
-6.6019628677863240e+00
-6.6028066230287985e+00
-6.6036502704637927e+00
-6.6044938101326167e+00
-6.6053372420765610e+00
-6.6061805663368869e+00
-6.6070237829548253e+00
-6.6078668919715868e+00
-6.6087098934283519e+00
-6.6095527873662769e+00
-6.6103955738264917e+00
-6.6112382528500975e+00
-6.6120808244781735e+00
-6.6129232887517695e+00
-6.6137656457119078e+00
-6.6146078953995904e+00
-6.6154500378557879e+00
-6.6162920731214472e+00
-6.6171340012374866e+00
-6.6179758222448033e+00
-6.6188175361842632e+00
-6.6196591430967109e+00
-6.6205006430229592e+00
-6.6213420360038011e+00
-6.6221833220799997e+00
-6.6230245012922948e+00
-6.6238655736813978e+00
-6.6247065392879971e+00
-6.6255473981527508e+00
-6.6263881503162958e+00
-6.6272287958192431e+00
-6.6280693347021744e+00
-6.6289097670056485e+00
-6.6297500927701956e+00
-6.6305903120363237e+00
-6.6314304248445151e+00
-6.6322704312352236e+00
-6.6331103312488784e+00
-6.6339501249258834e+00
-6.6347898123066180e+00
-6.6356293934314348e+00
-6.6364688683406614e+00
-6.6373082370745990e+00
-6.6381474996735239e+00
-6.6389866561776891e+00
-6.6398257066273176e+00
-6.6406646510626111e+00
-6.6415034895237426e+00
-6.6423422220508623e+00
-6.6431808486840955e+00
-6.6440193694635390e+00
-6.6448577844292673e+00
-6.6456960936213276e+00
-6.6465342970797439e+00
-6.6473723948445116e+00
-6.6482103869556068e+00
-6.6490482734529737e+00
-6.6498860543765339e+00
-6.6507237297661863e+00
-6.6515612996618012e+00
-6.6523987641032276e+00
-6.6532361231302835e+00
-6.6540733767827680e+00
-6.6549105251004521e+00
-6.6557475681230827e+00
-6.6565845058903799e+00
-6.6574213384420409e+00
-6.6582580658177370e+00
-6.6590946880571167e+00
-6.6599312051997996e+00
-6.6607676172853836e+00
-6.6616039243534404e+00
-6.6624401264435154e+00
-6.6632762235951333e+00
-6.6641122158477923e+00
-6.6649481032409641e+00
-6.6657838858140952e+00
-6.6666195636066119e+00
-6.6674551366579102e+00
-6.6682906050073658e+00
-6.6691259686943276e+00
-6.6699612277581179e+00
-6.6707963822380405e+00
-6.6716314321733687e+00
-6.6724663776033548e+00
-6.6733012185672234e+00
-6.6741359551041741e+00
-6.6749705872533900e+00
-6.6758051150540192e+00
-6.6766395385451931e+00
-6.6774738577660120e+00
-6.6783080727555575e+00
-6.6791421835528846e+00
-6.6799761901970234e+00
-6.6808100927269809e+00
-6.6816438911817384e+00
-6.6824775856002514e+00
-6.6833111760214576e+00
-6.6841446624842638e+00
-6.6849780450275533e+00
-6.6858113236901877e+00
-6.6866444985110052e+00
-6.6874775695288156e+00
-6.6883105367824083e+00
-6.6891434003105461e+00
-6.6899761601519687e+00
-6.6908088163453927e+00
-6.6916413689295071e+00
-6.6924738179429824e+00
-6.6933061634244604e+00
-6.6941384054125601e+00
-6.6949705439458764e+00
-6.6958025790629829e+00
-6.6966345108024266e+00
-6.6974663392027276e+00
-6.6982980643023895e+00
-6.6991296861398855e+00
-6.6999612047536683e+00
-6.7007926201821650e+00
-6.7016239324637814e+00
-6.7024551416368956e+00
-6.7032862477398654e+00
-6.7041172508110227e+00
-6.7049481508886775e+00
-6.7057789480111136e+00
-6.7066096422165939e+00
-6.7074402335433545e+00
-6.7082707220296109e+00
-6.7091011077135532e+00
-6.7099313906333471e+00
-6.7107615708271382e+00
-6.7115916483330436e+00
-6.7124216231891616e+00
-6.7132514954335623e+00
-6.7140812651042951e+00
-6.7149109322393876e+00
-6.7157404968768395e+00
-6.7165699590546319e+00
-6.7173993188107168e+00
-6.7182285761830274e+00
-6.7190577312094710e+00
-6.7198867839279348e+00
-6.7207157343762765e+00
-6.7215445825923377e+00
-6.7223733286139309e+00
-6.7232019724788499e+00
-6.7240305142248609e+00
-6.7248589538897088e+00
-6.7256872915111154e+00
-6.7265155271267805e+00
-6.7273436607743786e+00
-6.7281716924915624e+00
-6.7289996223159587e+00
-6.7298274502851747e+00
-6.7306551764367937e+00
-6.7314828008083740e+00
-6.7323103234374528e+00
-6.7331377443615423e+00
-6.7339650636181343e+00
-6.7347922812446948e+00
-6.7356193972786702e+00
-6.7364464117574796e+00
-6.7372733247185224e+00
-6.7381001361991730e+00
-6.7389268462367840e+00
-6.7397534548686862e+00
-6.7405799621321867e+00
-6.7414063680645677e+00
-6.7422326727030883e+00
-6.7430588760849908e+00
-6.7438849782474879e+00
-6.7447109792277740e+00
-6.7455368790630166e+00
-6.7463626777903629e+00
-6.7471883754469388e+00
-6.7480139720698453e+00
-6.7488394676961612e+00
-6.7496648623629412e+00
-6.7504901561072206e+00
-6.7513153489660098e+00
-6.7521404409762971e+00
-6.7529654321750483e+00
-6.7537903225992046e+00
-6.7546151122856894e+00
-6.7554398012714003e+00
-6.7562643895932109e+00
-6.7570888772879751e+00
-6.7579132643925224e+00
-6.7587375509436640e+00
-6.7595617369781813e+00
-6.7603858225328413e+00
-6.7612098076443834e+00
-6.7620336923495232e+00
-6.7628574766849612e+00
-6.7636811606873684e+00
-6.7645047443933954e+00
-6.7653282278396754e+00
-6.7661516110628099e+00
-6.7669748940993868e+00
-6.7677980769859669e+00
-6.7686211597590908e+00
-6.7694441424552751e+00
-6.7702670251110169e+00
-6.7710898077627890e+00
-6.7719124904470434e+00
-6.7727350732002076e+00
-6.7735575560586891e+00
-6.7743799390588730e+00
-6.7752022222371231e+00
-6.7760244056297783e+00
-6.7768464892731597e+00
-6.7776684732035610e+00
-6.7784903574572581e+00
-6.7793121420705047e+00
-6.7801338270795313e+00
-6.7809554125205445e+00
-6.7817768984297331e+00
-6.7825982848432620e+00
-6.7834195717972738e+00
-6.7842407593278891e+00
-6.7850618474712086e+00
-6.7858828362633066e+00
-6.7867037257402432e+00
-6.7875245159380473e+00
-6.7883452068927355e+00
-6.7891657986402958e+00
-6.7899862912166968e+00
-6.7908066846578850e+00
-6.7916269789997861e+00
-6.7924471742783030e+00
-6.7932672705293173e+00
-6.7940872677886910e+00
-6.7949071660922593e+00
-6.7957269654758408e+00
-6.7965466659752316e+00
-6.7973662676262032e+00
-6.7981857704645083e+00
-6.7990051745258784e+00
-6.7998244798460208e+00
-6.8006436864606252e+00
-6.8014627944053556e+00
-6.8022818037158572e+00
-6.8031007144277531e+00
-6.8039195265766432e+00
-6.8047382401981116e+00
-6.8055568553277128e+00
-6.8063753720009865e+00
